svm_type c_svc
kernel_type linear
nr_class 2
total_sv 1262
rho 0.62213
label 0 1
nr_sv 618 644
SV
1 4:0.39567537 7:0.31055527 17:0.25094652 
1 1:0.10469447 2:0.26129432 9:0.13352997 
1 6:0.46022736 11:0.65676078 25:0.82745307 51:1.0218899 
1 2:0.26129432 6:0.23011368 62:0.21794947 79:0.58469603 89:0.44806109 
1 10:0.72922737 13:0.77988082 33:0.46654864 
1 1:0.10469447 5:0.23424687 6:0.36472155 12:0.26398079 14:0.28681239 88:0.28285147 
1 1:0.1659368 4:0.27009046 9:0.21164 37:0.3325343 
1 20:0.77053137 47:1.0459431 93:1.1133743 
1 26:0.93329996 80:0.61696944 87:0.53443971 
1 3:0.20524212 5:0.23424687 11:0.65676078 18:0.25482046 25:0.46715934 39:0.43971343 90:0.43704526 
1 1:0.10469447 5:0.23424687 11:0.44830898 16:0.26085548 17:0.25094652 18:0.40388087 63:0.48025072 88:0.28285147 
1 4:0.39567537 7:0.31055527 16:0.26085548 34:0.42566977 52:0.4750965 
1 1:0.1659368 2:0.26129432 9:0.21164 32:0.35920691 
1 1:0.20938893 6:0.23011368 7:0.31055527 14:0.28681239 
1 3:0.32530107 5:0.3712725 11:0.44830898 54:0.56653222 
1 3:0.20524212 5:0.23424687 11:0.65676078 16:0.26085548 18:0.25482046 25:0.46715934 
1 4:0.27009046 17:0.39774083 18:0.25482046 23:0.41728859 34:0.67467063 39:0.43971343 52:0.75301014 81:1.0241113 
1 7:0.31055527 9:0.26705994 13:0.77988082 21:0.8990114 28:0.40388087 62:0.21794947 66:0.4750965 92:0.77988082 
1 2:0.26129432 6:0.36472155 25:0.46715934 
1 5:0.23424687 11:0.44830898 16:0.26085548 17:0.25094652 18:0.40388087 63:0.48025072 
1 15:0.46009125 20:0.48615117 34:0.42566977 90:0.43704526 
1 2:0.38278927 12:0.26398079 14:0.28681239 88:0.28285147 
1 2:0.38278927 6:0.23011368 9:0.13352997 12:0.26398079 14:0.28681239 16:0.26085548 62:0.21794947 88:0.28285147 
1 3:0.20524212 6:0.23011368 9:0.13352997 12:0.26398079 17:0.25094652 37:0.3325343 
1 27:0.62230633 
1 19:1.2609527 40:0.8654978 91:0.56571556 
0.1491242996996771 4:0.47839603 7:0.45495524 17:0.25094652 32:0.35920691 
1 4:0.27009046 7:0.31055527 16:0.52171096 25:0.46715934 32:0.35920691 
1 4:0.39567537 7:0.31055527 
0.5006052393942626 2:0.26129432 3:0.57618749 5:0.54390438 6:0.64601077 8:0.73480535 11:0.97850533 14:0.28681239 18:0.88153395 25:1.2047581 28:0.40388087 37:0.3325343 43:0.59847396 51:1.2594657 54:0.82995471 56:0.48615117 73:0.58469603 87:0.53443971 89:0.71016003 90:0.43704526 
1 13:1.1425048 26:2.1789918 67:1.1776934 72:0.46490415 87:0.53443971 
1 3:0.20524212 6:0.23011368 70:0.46328008 
1 2:0.38278927 6:0.46022736 14:0.57362477 28:0.59167478 37:0.48715395 
1 1:0.10469447 2:0.26129432 9:0.13352997 
1 1:0.10469447 4:0.27009046 9:0.13352997 22:0.45393784 23:0.41728859 24:0.41860126 32:0.35920691 36:0.57677022 45:0.47687524 60:0.49205002 
1 2:0.26129432 9:0.13352997 12:0.26398079 17:0.25094652 
1 1:0.10469447 3:0.32530107 4:0.27009046 6:0.23011368 9:0.13352997 16:0.60568767 18:0.25482046 23:0.41728859 25:0.82745307 32:0.52622861 34:0.42566977 39:0.6969293 45:0.47687524 52:0.4750965 
0.9605965847955391 3:0.32530107 5:0.23424687 8:0.88842519 18:0.65870133 20:0.77053137 25:0.68437607 34:1.1003404 39:0.43971343 41:0.92656016 51:0.51094494 54:0.82995471 63:0.48025072 81:1.0241113 90:0.69270035 
1 1:0.1659368 4:0.27009046 9:0.21164 37:0.3325343 
1 38:0.4281135 72:0.46490415 
1 3:0.20524212 5:0.3712725 11:0.44830898 18:0.25482046 63:0.48025072 
1 30:1.568843 
0.7169246841394131 1:0.20938893 2:0.38278927 9:0.26705994 12:0.26398079 14:0.42017255 17:0.25094652 23:0.41728859 28:0.40388087 32:0.35920691 37:0.3325343 62:0.21794947 88:0.28285147 
1 2:0.38278927 3:0.20524212 6:0.23011368 12:0.26398079 14:0.28681239 88:0.28285147 
0.3802346807323617 1:0.1659368 2:0.61004844 4:0.27009046 9:0.21164 12:0.26398079 14:0.6696259 17:0.25094652 21:0.4495057 28:0.80776174 37:0.72580877 62:0.50606299 88:0.28285147 
1 2:0.26129432 29:0.39844827 84:0.5289916 
1 3:0.20524212 5:0.3712725 11:0.44830898 18:0.25482046 63:0.48025072 
1 3:0.20524212 16:0.41344616 18:0.25482046 25:0.46715934 
1 1:0.10469447 3:0.20524212 16:0.26085548 88:0.28285147 
1 3:0.20524212 6:0.23011368 12:0.26398079 37:0.3325343 
1 3:0.41048425 8:0.50158268 18:0.25482046 25:0.46715934 
1 4:0.27009046 6:0.23011368 9:0.13352997 16:0.26085548 22:0.45393784 66:0.4750965 
1 4:0.27009046 7:0.31055527 16:0.41344616 32:0.35920691 
1 4:0.27009046 17:0.25094652 60:0.49205002 
1 3:0.20524212 8:0.50158268 12:0.41839965 18:0.25482046 
1 3:0.41048425 5:0.3712725 11:0.44830898 25:0.46715934 51:0.51094494 54:0.56653222 
1 1:0.1659368 2:0.26129432 9:0.21164 32:0.35920691 
1 1:0.20938893 2:0.26129432 6:0.23011368 7:0.31055527 9:0.26705994 16:0.52171096 28:0.40388087 32:0.52622861 37:0.3325343 51:0.51094494 62:0.21794947 
0.05506753331107101 1:0.1659368 2:0.26129432 4:0.27009046 9:0.26705994 28:0.40388087 37:0.3325343 
1 1:0.27063127 2:0.61004844 9:0.21164 12:0.41839965 14:0.76869845 28:1.0415691 37:0.77637366 62:0.43589893 88:0.65676078 
0.7265300400413384 3:0.32530107 5:0.46849374 11:0.44830898 18:0.25482046 43:0.59847396 54:0.56653222 63:0.48025072 
1 16:0.41344616 21:0.4495057 32:0.35920691 39:0.43971343 45:0.47687524 51:0.51094494 72:0.46490415 
1 6:0.23011368 29:0.39844827 38:0.4281135 
1 4:0.27009046 17:0.25094652 45:0.47687524 
1 1:0.1659368 4:0.27009046 9:0.21164 14:0.28681239 
1 1:0.10469447 6:0.23011368 17:0.25094652 18:0.25482046 
1 8:0.50158268 41:0.46328008 63:0.70355458 76:0.51388994 
1 5:0.23424687 6:0.36472155 9:0.13352997 12:0.26398079 14:0.28681239 17:0.25094652 62:0.21794947 88:0.28285147 
1 1:0.10469447 2:0.26129432 6:0.23011368 7:0.31055527 9:0.13352997 16:0.41344616 62:0.21794947 65:0.56571556 84:0.5289916 
1 3:0.20524212 5:0.3712725 11:0.44830898 18:0.25482046 63:0.48025072 
1 3:0.32530107 8:0.50158268 17:0.25094652 
1 1:0.10469447 6:0.23011368 9:0.13352997 13:1.1425048 16:0.41344616 22:0.45393784 28:0.59167478 31:0.53168727 33:1.0832924 50:1.247459 51:0.51094494 66:0.4750965 75:0.77988082 92:0.77988082 
0.592232200574906 1:0.10469447 3:0.20524212 5:0.23424687 6:0.23011368 8:0.50158268 18:0.25482046 63:0.70355458 88:0.28285147 
1 1:0.10469447 2:0.26129432 3:0.20524212 4:0.27009046 9:0.21164 12:0.26398079 16:0.26085548 20:0.48615117 21:0.4495057 22:0.45393784 23:0.41728859 41:0.46328008 45:0.47687524 67:0.58884671 76:0.51388994 79:0.58469603 
1 1:0.1659368 4:0.27009046 7:0.45495524 9:0.13352997 23:0.41728859 32:0.35920691 66:0.75301014 
1 10:0.72922737 36:0.57677022 
1 3:0.20524212 4:0.27009046 17:0.25094652 
1 1:0.10469447 6:0.23011368 34:0.42566977 
1 1:0.1659368 14:0.28681239 
1 20:0.48615117 39:0.43971343 
1 1:0.10469447 10:0.72922737 22:0.71947446 28:0.40388087 48:0.75582938 66:0.4750965 75:0.77988082 
1 5:0.23424687 9:0.13352997 12:0.26398079 16:0.26085548 17:0.25094652 
0.4850688003345837 1:0.1659368 3:0.41048425 5:0.3712725 6:0.36472155 11:0.65676078 14:0.28681239 17:0.25094652 18:0.50964091 25:0.82745307 43:0.59847396 51:0.51094494 
1 3:0.32530107 4:0.27009046 8:0.50158268 12:0.26398079 16:0.26085548 62:0.21794947 88:0.28285147 
1 12:0.41839965 14:0.28681239 31:0.53168727 76:0.51388994 
1 3:0.32530107 16:0.41344616 18:0.40388087 25:0.46715934 43:0.59847396 
1 6:0.36472155 9:0.13352997 16:0.26085548 25:0.46715934 
1 3:0.20524212 5:0.23424687 11:0.44830898 12:0.26398079 
1 1:0.1659368 2:0.26129432 3:0.20524212 4:0.39567537 7:0.62111053 9:0.13352997 12:0.26398079 17:0.58267978 23:0.61131674 28:0.40388087 32:0.52622861 43:0.59847396 54:0.56653222 62:0.50606299 88:0.28285147 
1 3:0.20524212 4:0.27009046 5:0.3712725 6:0.46022736 9:0.13352997 11:0.65676078 12:0.26398079 16:0.26085548 18:0.25482046 25:0.46715934 37:0.3325343 39:0.6969293 51:0.74852081 52:0.4750965 90:0.69270035 93:1.1133743 
1 3:0.32530107 5:0.46849374 11:0.44830898 18:0.25482046 51:0.51094494 63:0.48025072 
1 11:0.79406448 18:0.40388087 20:0.48615117 25:0.68437607 34:0.67467063 51:0.74852081 90:0.69270035 
1 4:0.27009046 
1 3:0.47655745 5:0.23424687 6:0.23011368 8:0.73480535 12:0.26398079 16:0.26085548 18:0.59167478 25:0.68437607 44:0.46167594 51:0.51094494 62:0.21794947 82:0.9863322 88:0.28285147 89:0.44806109 
1 15:0.72922737 40:0.8654978 
1 3:0.41048425 8:0.50158268 18:0.25482046 25:0.46715934 
1 2:0.26129432 9:0.13352997 12:0.26398079 17:0.25094652 
1 2:0.26129432 6:0.23011368 9:0.13352997 16:0.26085548 
1 2:0.26129432 6:0.23011368 20:0.48615117 39:0.43971343 
1 15:0.46009125 46:0.89111199 91:0.56571556 
1 1:0.10469447 7:0.31055527 14:0.28681239 24:0.41860126 27:0.9863322 29:0.79689653 44:0.73173905 49:0.44663228 53:0.552295 55:0.78967215 84:0.5289916 91:0.56571556 
1 1:0.10469447 2:0.26129432 9:0.13352997 
1 1:0.10469447 22:0.45393784 55:0.49822765 
1 6:0.23011368 22:0.45393784 59:0.46167594 64:0.59313351 71:1.0980183 
1 3:0.20524212 8:0.50158268 18:0.25482046 34:0.42566977 90:0.43704526 
1 1:0.1659368 4:0.27009046 7:0.31055527 9:0.13352997 16:0.26085548 32:0.35920691 
1 22:0.45393784 33:0.46654864 75:0.77988082 
1 1:0.1659368 3:0.41048425 6:0.23011368 7:0.31055527 12:0.26398079 16:0.41344616 25:0.46715934 28:0.40388087 37:0.3325343 62:0.21794947 88:0.44830898 
1 6:0.23011368 9:0.13352997 16:0.26085548 18:0.25482046 42:0.41298942 56:0.48615117 63:0.48025072 88:0.28285147 
1 1:0.10469447 2:0.26129432 3:0.20524212 4:0.27009046 14:0.28681239 16:0.26085548 23:0.41728859 37:0.3325343 56:0.48615117 62:0.50606299 66:0.4750965 70:0.73428155 78:0.56929758 88:0.28285147 
0.3007703887592938 6:0.23011368 11:0.65676078 25:0.46715934 
1 1:0.3140834 2:0.38278927 4:0.27009046 6:0.36472155 7:0.45495524 9:0.34516997 12:0.52796157 14:0.70698494 23:0.61131674 28:0.80776174 32:0.35920691 37:0.66506861 52:0.75301014 62:0.61186151 66:0.4750965 76:0.51388994 
1 2:0.38278927 6:0.36472155 14:0.28681239 28:0.40388087 37:0.48715395 
0.2485108543754042 4:0.47839603 7:0.45495524 17:0.25094652 32:0.35920691 
1 2:0.26129432 6:0.23011368 9:0.13352997 12:0.26398079 14:0.57362477 16:0.26085548 22:1.1734123 28:0.59167478 37:0.48715395 48:0.75582938 62:0.34544173 88:0.28285147 
1 1:0.20938893 2:0.38278927 4:0.27009046 5:0.23424687 6:0.23011368 7:0.31055527 9:0.34516997 16:0.26085548 17:0.25094652 28:0.59167478 32:0.52622861 37:0.3325343 62:0.34544173 88:0.44830898 
1 3:0.20524212 5:0.23424687 11:0.65676078 18:0.25482046 25:0.46715934 
0.2438193520610816 1:0.20938893 7:0.31055527 14:0.28681239 
1 4:0.27009046 6:0.23011368 9:0.13352997 16:0.26085548 
1 1:0.10469447 
1 5:0.23424687 7:0.31055527 16:0.26085548 17:0.39774083 
1 1:0.1659368 4:0.27009046 9:0.21164 37:0.3325343 
1 3:0.32530107 5:0.23424687 8:0.50158268 11:0.44830898 16:0.41344616 17:0.25094652 18:0.25482046 32:0.35920691 51:0.51094494 
1 4:0.39567537 7:0.31055527 
1 4:0.39567537 7:0.31055527 17:0.25094652 
1 3:0.20524212 5:0.3712725 11:0.44830898 18:0.25482046 63:0.48025072 
1 5:0.23424687 6:0.23011368 11:0.44830898 12:0.26398079 18:0.40388087 63:0.48025072 
1 19:1.2609527 25:0.68437607 33:0.7394621 40:0.8654978 50:0.85152322 67:0.58884671 72:0.46490415 80:0.61696944 89:0.71016003 
1 1:0.1659368 4:0.27009046 9:0.21164 37:0.3325343 
1 1:0.20938893 4:0.27009046 5:0.23424687 6:0.36472155 9:0.31004699 12:0.26398079 14:0.42017255 16:0.26085548 17:0.25094652 23:0.41728859 28:0.71537146 32:0.52622861 62:0.21794947 88:0.44830898 
1 4:0.27009046 17:0.25094652 63:0.48025072 
0.6241542279164268 1:0.20938893 7:0.31055527 14:0.28681239 
1 4:0.39567537 7:0.31055527 
1 1:0.20938893 7:0.31055527 14:0.28681239 
1 1:0.1659368 2:0.26129432 4:0.27009046 5:0.23424687 6:0.36472155 9:0.31004699 12:0.6129444 14:0.28681239 16:0.52171096 17:0.25094652 18:0.40388087 23:0.41728859 25:0.46715934 28:0.71537146 37:0.3325343 43:0.59847396 54:0.56653222 62:0.34544173 88:0.44830898 
1 1:0.20938893 7:0.31055527 14:0.28681239 
1 10:0.72922737 24:0.41860126 66:0.4750965 77:0.62787039 
1 1:0.10469447 4:0.27009046 9:0.13352997 22:0.45393784 
1 13:1.381359 33:0.7394621 50:1.247459 92:1.381359 
1 1:0.20938893 7:0.31055527 14:0.28681239 
1 20:0.48615117 41:0.46328008 
1 5:0.23424687 11:0.44830898 18:0.25482046 72:0.46490415 
1 15:0.72922737 40:0.8654978 
1 1:0.1659368 2:0.26129432 9:0.21164 32:0.35920691 
1 2:0.38278927 5:0.23424687 6:0.23011368 7:0.31055527 8:0.50158268 9:0.13352997 14:0.28681239 15:0.46009125 16:0.26085548 17:0.50189305 18:0.25482046 28:0.40388087 40:1.5330076 42:0.65457275 49:0.44663228 54:0.56653222 57:0.50922032 62:0.34544173 63:0.48025072 83:0.5555232 88:0.28285147 
0.3954084948251753 1:0.24309302 4:0.27009046 7:0.31055527 9:0.21164 14:0.42017255 27:0.62230633 28:0.40388087 32:0.35920691 35:0.46821409 62:0.21794947 84:0.5289916 
1 1:0.10469447 2:0.26129432 4:0.27009046 6:0.23011368 9:0.21164 
1 1:0.1659368 4:0.27009046 9:0.21164 37:0.3325343 
1 15:0.72922737 46:0.56222907 91:0.56571556 
1 10:1.2916394 38:0.4281135 48:1.10727 75:0.77988082 
1 2:0.26129432 6:0.36472155 14:0.28681239 37:0.3325343 
1 3:0.41048425 5:0.3712725 11:0.65676078 18:0.40388087 25:0.68437607 43:0.59847396 51:0.51094494 
1 1:0.20938893 7:0.31055527 14:0.28681239 
0.0565803258410378 13:1.381359 50:0.85152322 92:1.1425048 
0.3386586016587127 10:2.0812513 33:0.93309728 38:0.67854384 48:2.1571747 58:2.8574329 74:3.4232285 75:2.3396425 76:0.51388994 
1 3:0.32530107 16:0.26085548 25:0.46715934 
1 3:0.20524212 5:0.23424687 8:0.50158268 11:0.44830898 18:0.25482046 90:0.43704526 
0.930229412426739 6:0.23011368 11:0.65676078 25:0.46715934 
1 1:0.1659368 2:0.26129432 6:0.23011368 12:0.41839965 14:0.28681239 18:0.25482046 28:0.40388087 37:0.3325343 62:0.21794947 63:0.48025072 88:0.44830898 
1 1:0.1659368 2:0.26129432 4:0.27009046 9:0.26705994 12:0.26398079 28:0.40388087 37:0.3325343 
1 1:0.10469447 17:0.25094652 63:0.48025072 88:0.28285147 
1 1:0.20938893 7:0.31055527 14:0.28681239 
1 1:0.10469447 2:0.38278927 3:0.20524212 5:0.23424687 6:0.23011368 12:0.26398079 14:0.28681239 17:0.25094652 23:0.41728859 28:0.40388087 62:0.21794947 63:0.48025072 88:0.56570295 
1 4:0.39567537 7:0.31055527 21:0.4495057 
1 1:0.20938893 14:0.50801465 
1 1:0.1659368 7:0.31055527 17:0.25094652 32:0.35920691 41:0.46328008 52:0.4750965 62:0.21794947 88:0.28285147 
1 3:0.41048425 8:0.50158268 18:0.25482046 25:0.46715934 
1 3:0.20524212 6:0.23011368 17:0.25094652 
1 3:0.32530107 5:0.3712725 11:0.44830898 54:0.56653222 
1 4:0.39567537 7:0.31055527 
1 3:0.20524212 5:0.3712725 11:0.44830898 18:0.25482046 63:0.48025072 
1 1:0.24309302 7:0.31055527 14:0.42017255 17:0.25094652 28:0.40388087 
1 1:0.1659368 4:0.27009046 9:0.21164 37:0.3325343 
1 27:1.2446127 
1 13:0.77988082 38:0.4281135 72:0.46490415 
1 1:0.10469447 2:0.26129432 9:0.13352997 12:0.41839965 17:0.39774083 28:0.40388087 43:0.59847396 54:0.56653222 62:0.21794947 63:0.48025072 88:0.44830898 
1 3:0.20524212 5:0.3712725 11:0.44830898 18:0.25482046 63:0.48025072 
0.3652854637531167 13:1.381359 50:0.85152322 92:1.1425048 
1 2:0.26129432 
1 2:0.26129432 6:0.36472155 25:0.46715934 
1 47:1.532279 
1 1:0.1659368 4:0.27009046 9:0.21164 37:0.3325343 
1 3:0.32530107 8:0.73480535 18:0.25482046 43:0.59847396 90:0.43704526 
1 1:0.1659368 3:0.20524212 5:0.23424687 11:0.44830898 12:0.26398079 16:0.26085548 62:0.21794947 
1 2:0.26129432 4:0.27009046 5:0.23424687 6:0.53430741 11:0.44830898 12:0.26398079 14:0.28681239 16:0.26085548 18:0.25482046 25:0.46715934 37:0.3325343 51:0.51094494 62:0.34544173 88:0.28285147 
1 1:0.20938893 7:0.31055527 14:0.28681239 
1 2:0.26129432 3:0.20524212 5:0.23424687 6:0.46022736 14:0.28681239 37:0.3325343 51:0.51094494 63:0.48025072 88:0.44830898 
1 11:0.44830898 50:0.85152322 72:0.73685564 
1 3:0.20524212 5:0.23424687 11:0.44830898 
0.0617858198844574 10:1.2916394 48:1.10727 75:0.77988082 
1 1:0.1659368 4:0.27009046 9:0.21164 37:0.3325343 42:0.41298942 53:0.552295 55:0.49822765 91:0.56571556 
0.5572157121192701 4:0.27009046 6:0.53430741 9:0.13352997 14:0.28681239 16:0.26085548 17:0.25094652 18:0.25482046 25:0.68437607 62:0.21794947 63:0.48025072 
1 3:0.32530107 5:0.23424687 11:0.44830898 25:0.46715934 51:0.51094494 
1 1:0.10469447 4:0.39567537 6:0.23011368 7:0.31055527 9:0.13352997 
1 1:0.1659368 4:0.27009046 9:0.21164 37:0.3325343 
1 3:0.32530107 5:0.23424687 11:0.44830898 25:0.46715934 39:0.43971343 51:0.51094494 
1 1:0.1659368 4:0.27009046 9:0.21164 14:0.28681239 
1 1:0.27063127 7:0.45495524 9:0.13352997 14:0.28681239 22:0.45393784 23:0.41728859 32:0.52622861 37:0.3325343 44:0.46167594 62:0.43589893 66:0.4750965 
1 1:0.10469447 3:0.20524212 4:0.27009046 6:0.23011368 9:0.13352997 
1 1:0.1659368 4:0.27009046 7:0.31055527 9:0.13352997 16:0.26085548 32:0.35920691 
1 3:0.41048425 8:0.50158268 18:0.25482046 25:0.46715934 
1 8:0.50158268 17:0.25094652 83:0.88048345 
1 1:0.10469447 3:0.20524212 5:0.23424687 6:0.23011368 12:0.52796157 14:0.50801465 17:0.25094652 28:0.40388087 54:0.56653222 
1 3:0.32530107 5:0.46849374 8:0.50158268 16:0.26085548 17:0.25094652 18:0.40388087 43:0.59847396 54:0.56653222 63:0.70355458 
1 1:0.10469447 2:0.26129432 9:0.13352997 17:0.25094652 31:0.53168727 62:0.21794947 73:0.58469603 88:0.28285147 
1 10:0.72922737 33:0.93309728 48:1.3387581 74:1.057787 75:1.1425048 
0.3142179459623409 2:0.38278927 14:0.28681239 
1 13:1.1425048 14:0.28681239 21:0.71244968 22:0.71947446 33:0.46654864 50:1.247459 62:0.34544173 92:0.77988082 
1 1:0.20938893 7:0.31055527 14:0.28681239 
1 1:0.20938893 2:0.26129432 9:0.26705994 14:0.28681239 32:0.52622861 36:0.57677022 37:0.3325343 62:0.34544173 87:0.53443971 
1 30:2.0679284 59:0.46167594 69:0.51153428 
1 1:0.10469447 2:0.26129432 9:0.13352997 
1 3:0.20524212 12:0.26398079 38:0.4281135 
1 1:0.10469447 8:0.50158268 9:0.13352997 12:0.52796157 17:0.25094652 37:0.3325343 54:0.56653222 
1 30:0.88572958 
1 3:0.20524212 5:0.54390438 18:0.40388087 25:0.82745307 38:0.4281135 43:0.59847396 54:0.56653222 57:0.50922032 76:0.51388994 83:0.5555232 
1 3:0.20524212 5:0.3712725 11:0.65676078 25:0.46715934 
1 1:0.1659368 7:0.31055527 17:0.25094652 
1 1:0.10469447 
1 17:0.25094652 63:0.48025072 
1 3:0.20524212 5:0.3712725 6:0.23011368 11:0.44830898 12:0.26398079 18:0.25482046 43:0.59847396 88:0.28285147 
1 2:0.26129432 5:0.23424687 6:0.23011368 9:0.13352997 15:0.46009125 16:0.26085548 35:0.46821409 44:0.73173905 49:0.44663228 53:0.552295 55:0.49822765 60:0.49205002 62:0.34544173 65:0.56571556 82:0.62230633 84:0.5289916 88:0.28285147 
1 1:0.20938893 7:0.31055527 14:0.28681239 
1 11:0.44830898 34:0.42566977 39:0.43971343 47:1.0459431 90:0.69270035 
1 1:0.24309302 4:0.39567537 7:0.31055527 9:0.26705994 14:0.28681239 23:0.41728859 32:0.35920691 34:0.42566977 37:0.3325343 62:0.43589893 70:0.73428155 
1 19:0.86073412 26:2.0370749 
1 20:0.97230233 81:1.0241113 
1 3:0.41048425 8:0.50158268 18:0.25482046 25:0.46715934 
1 22:0.45393784 48:0.75582938 63:0.48025072 88:0.28285147 
1 1:0.24309302 2:0.46281594 4:0.27009046 5:0.3712725 6:0.36472155 7:0.31055527 9:0.37486602 12:0.26398079 14:0.28681239 16:0.26085548 17:0.39774083 23:0.41728859 28:0.80776174 32:0.63624299 35:0.74210177 37:0.66506861 43:0.59847396 54:0.56653222 55:0.78967215 62:0.50606299 68:0.58884671 88:0.44830898 
1 1:0.1659368 4:0.27009046 9:0.21164 37:0.3325343 
1 2:0.38278927 6:0.46022736 14:0.42017255 28:0.40388087 37:0.3325343 
1 1:0.1659368 2:0.26129432 9:0.21164 32:0.35920691 
1 12:0.26398079 22:0.45393784 33:0.7394621 48:0.75582938 63:0.48025072 76:0.51388994 
1 1:0.10469447 2:0.46281594 7:0.31055527 9:0.26705994 12:0.26398079 14:0.28681239 15:0.46009125 17:0.25094652 23:0.41728859 24:0.83720252 28:0.59167478 30:0.88572958 37:0.3325343 42:0.65457275 49:0.89326455 62:0.21794947 
1 1:0.1659368 4:0.27009046 6:0.23011368 9:0.21164 37:0.3325343 
1 3:0.41048425 25:0.82745307 
1 1:0.20938893 7:0.31055527 14:0.28681239 
1 1:0.10469447 6:0.23011368 44:0.46167594 
1 5:0.23424687 18:0.25482046 39:0.43971343 43:0.59847396 47:1.0459431 54:0.56653222 63:0.48025072 90:0.43704526 
1 3:0.20524212 5:0.3712725 11:0.44830898 18:0.25482046 63:0.48025072 
1 11:0.44830898 25:0.46715934 34:0.67467063 39:0.6969293 51:0.51094494 90:0.43704526 
1 1:0.1659368 4:0.27009046 9:0.21164 37:0.3325343 
1 1:0.20938893 7:0.31055527 14:0.28681239 29:0.39844827 84:0.5289916 
1 3:0.32530107 6:0.23011368 25:0.46715934 
1 1:0.20938893 7:0.31055527 14:0.28681239 
1 3:0.20524212 5:0.3712725 11:0.65676078 25:0.46715934 
1 40:0.8654978 91:0.89663795 
1 2:0.26129432 6:0.23011368 11:0.44830898 
1 1:0.10469447 4:0.27009046 6:0.23011368 9:0.13352997 11:0.44830898 
1 2:0.26129432 6:0.36472155 51:0.51094494 
0.4689554550975947 1:0.29391453 2:0.38278927 4:0.39567537 7:0.55006907 9:0.31004699 12:0.26398079 14:0.42017255 16:0.41344616 17:0.25094652 18:0.25482046 23:0.73911981 28:0.59167478 32:0.52622861 37:0.48715395 62:0.69088347 83:0.5555232 87:0.53443971 88:0.56570295 
1 2:0.38278927 6:0.23011368 14:0.28681239 
1 27:0.62230633 
1 3:0.32530107 6:0.23011368 25:0.46715934 
1 1:0.10469447 12:0.26398079 43:0.59847396 44:0.46167594 82:0.62230633 88:0.28285147 
1 1:0.10469447 4:0.27009046 6:0.23011368 9:0.21164 16:0.26085548 37:0.3325343 
1 3:0.20524212 12:0.41839965 18:0.25482046 22:0.45393784 37:0.3325343 38:0.4281135 42:0.41298942 43:0.8767485 49:0.44663228 54:0.56653222 56:0.48615117 63:0.48025072 88:0.28285147 
1 1:0.1659368 2:0.57031623 9:0.26705994 14:0.50801465 21:0.4495057 23:0.41728859 28:0.71537146 33:0.46654864 37:0.48715395 52:0.4750965 62:0.21794947 70:0.46328008 75:0.77988082 
1 2:0.26129432 5:0.23424687 6:0.36472155 11:0.44830898 39:0.43971343 51:0.51094494 88:0.28285147 
1 1:0.10469447 2:0.26129432 9:0.13352997 
1 1:0.10469447 3:0.20524212 6:0.23011368 
1 1:0.10469447 2:0.26129432 4:0.39567537 7:0.31055527 9:0.21164 12:0.26398079 16:0.26085548 17:0.39774083 18:0.25482046 28:0.40388087 54:0.56653222 62:0.34544173 88:0.28285147 
1 1:0.10469447 11:0.44830898 16:0.26085548 
1 10:1.0682988 16:0.26085548 34:0.42566977 48:0.75582938 66:0.4750965 72:0.73685564 90:0.43704526 92:0.77988082 
1 3:0.41048425 5:0.23424687 8:0.50158268 11:0.44830898 18:0.25482046 25:0.46715934 51:0.51094494 
1 1:0.20938893 7:0.31055527 14:0.28681239 
1 1:0.10469447 2:0.26129432 3:0.20524212 6:0.23011368 8:0.50158268 12:0.26398079 17:0.25094652 18:0.25482046 28:0.40388087 43:0.59847396 62:0.21794947 63:0.70355458 88:0.65676078 
1 1:0.20938893 7:0.31055527 14:0.28681239 
1 10:1.0682988 48:0.75582938 
1 3:0.20524212 5:0.23424687 16:0.26085548 17:0.25094652 51:0.51094494 
1 30:1.568843 
1 1:0.10469447 7:0.31055527 17:0.39774083 
1 4:0.27009046 6:0.23011368 11:0.44830898 16:0.26085548 62:0.21794947 
1 33:0.7394621 92:0.77988082 
1 3:0.41048425 8:0.50158268 18:0.25482046 25:0.46715934 
1 6:0.23011368 11:0.79406448 22:0.45393784 25:0.46715934 33:0.46654864 38:0.67854384 51:0.74852081 72:0.46490415 
1 34:0.67467063 81:1.0241113 
1 53:0.87536686 
1 1:0.10469447 2:0.26129432 4:0.27009046 6:0.23011368 9:0.21164 
1 1:0.10469447 2:0.26129432 9:0.13352997 
1 1:0.10469447 2:0.38278927 9:0.13352997 14:0.28681239 27:0.62230633 28:0.40388087 29:0.39844827 37:0.48715395 42:0.41298942 49:0.70789541 53:0.552295 55:0.99645531 
0.705601756006721 2:0.26129432 14:0.28681239 22:0.90787569 33:0.46654864 37:0.3325343 75:0.77988082 
1 1:0.20938893 7:0.31055527 14:0.28681239 
1 1:0.10469447 4:0.27009046 6:0.23011368 9:0.13352997 
1 1:0.20938893 4:0.39567537 5:0.23424687 6:0.23011368 7:0.55006907 9:0.26705994 12:0.26398079 17:0.25094652 23:0.41728859 28:0.40388087 32:0.71841381 88:0.28285147 
1 1:0.1659368 2:0.26129432 9:0.21164 32:0.35920691 
1 2:0.26129432 9:0.13352997 21:0.4495057 22:0.71947446 28:0.40388087 37:0.3325343 48:0.75582938 87:0.53443971 
1 1:0.20938893 7:0.31055527 14:0.28681239 
1 1:0.10469447 4:0.27009046 9:0.13352997 
1 1:0.20938893 7:0.31055527 14:0.28681239 
1 1:0.10469447 4:0.27009046 9:0.13352997 12:0.26398079 
1 1:0.10469447 3:0.32530107 5:0.3712725 6:0.23011368 11:0.65676078 12:0.26398079 17:0.25094652 18:0.40388087 23:0.41728859 25:0.46715934 43:0.59847396 
1 2:0.38278927 14:0.28681239 
1 1:0.1659368 14:0.28681239 22:0.45393784 
1 2:0.26129432 6:0.23011368 28:0.40388087 31:0.53168727 80:0.61696944 87:0.84706689 
1 2:0.38278927 14:0.28681239 
1 3:0.20524212 5:0.23424687 8:0.50158268 9:0.13352997 12:0.41839965 16:0.26085548 17:0.25094652 18:0.25482046 
1 2:0.26129432 34:0.42566977 39:0.43971343 
1 5:0.3712725 7:0.31055527 8:0.50158268 11:0.44830898 16:0.26085548 17:0.50189305 18:0.40388087 
1 6:0.23011368 11:0.44830898 34:0.42566977 
1 3:0.32530107 5:0.3712725 51:0.51094494 63:0.48025072 
1 1:0.10469447 3:0.20524212 5:0.23424687 6:0.23011368 63:0.48025072 88:0.28285147 
1 1:0.20938893 7:0.31055527 14:0.28681239 
1 1:0.10469447 2:0.26129432 9:0.13352997 17:0.25094652 88:0.28285147 
1 1:0.1659368 2:0.26129432 3:0.41048425 4:0.39567537 7:0.45495524 8:0.50158268 9:0.26705994 12:0.26398079 14:0.28681239 16:0.26085548 17:0.39774083 18:0.25482046 21:1.1619554 24:0.41860126 28:0.40388087 31:1.0633745 32:0.78402595 35:0.46821409 36:0.57677022 37:0.3325343 38:0.4281135 43:0.59847396 50:0.85152322 57:0.50922032 62:0.61186151 87:0.84706689 
1 2:0.38278927 14:0.28681239 
1 1:0.1659368 12:0.26398079 14:0.28681239 88:0.28285147 
1 3:0.20524212 8:0.50158268 12:0.41839965 18:0.25482046 
0.5069912614539396 10:1.2916394 33:0.7394621 48:1.10727 58:1.339219 64:0.94009437 75:1.1425048 
1 1:0.10469447 4:0.27009046 5:0.23424687 6:0.23011368 9:0.13352997 18:0.25482046 24:0.41860126 44:0.46167594 51:0.51094494 59:0.46167594 78:0.56929758 84:0.5289916 
1 3:0.32530107 25:0.46715934 39:0.43971343 
1 1:0.1659368 4:0.27009046 9:0.21164 14:0.28681239 
1 3:0.20524212 5:0.3712725 11:0.44830898 18:0.25482046 63:0.48025072 
1 10:0.72922737 38:0.67854384 48:0.75582938 75:0.77988082 
1 2:0.26129432 3:0.20524212 5:0.23424687 6:0.23011368 17:0.25094652 62:0.21794947 63:0.48025072 88:0.44830898 
1 4:0.39567537 7:0.31055527 17:0.25094652 
1 1:0.20938893 7:0.31055527 14:0.28681239 
1 1:0.10469447 2:0.26129432 4:0.39567537 7:0.31055527 9:0.21164 27:0.62230633 28:0.40388087 29:0.39844827 37:0.3325343 55:0.78967215 62:0.21794947 84:0.5289916 
1 1:0.10469447 6:0.23011368 11:0.44830898 14:0.28681239 40:0.8654978 42:0.82597885 
1 5:0.23424687 11:0.44830898 18:0.40388087 34:0.42566977 39:0.43971343 63:0.48025072 90:0.43704526 
1 1:0.10469447 2:0.26129432 6:0.36472155 9:0.13352997 14:0.28681239 37:0.3325343 62:0.21794947 
1 3:0.20524212 5:0.3712725 8:0.50158268 11:0.44830898 12:0.26398079 16:0.26085548 18:0.40388087 26:0.93329996 57:0.50922032 63:0.70355458 87:0.53443971 88:0.28285147 89:0.44806109 
1 1:0.10469447 4:0.27009046 9:0.13352997 
1 1:0.10469447 8:0.50158268 12:0.52796157 14:0.28681239 17:0.25094652 54:0.56653222 88:0.28285147 
1 1:0.10469447 4:0.27009046 9:0.13352997 
1 3:0.20524212 12:0.26398079 16:0.26085548 
1 5:0.23424687 6:0.23011368 9:0.13352997 12:0.26398079 17:0.25094652 
1 2:0.38278927 14:0.28681239 
1 34:0.42566977 81:1.0241113 
1 17:0.25094652 57:0.50922032 67:0.93329996 92:0.77988082 
1 2:0.26129432 6:0.23011368 12:0.26398079 18:0.25482046 
1 1:0.1659368 4:0.27009046 9:0.21164 37:0.3325343 
1 1:0.20938893 2:0.26129432 6:0.23011368 9:0.26705994 14:0.28681239 16:0.26085548 23:0.41728859 32:0.52622861 37:0.3325343 62:0.34544173 
1 1:0.10469447 4:0.27009046 9:0.13352997 
1 3:0.20524212 5:0.3712725 11:0.44830898 18:0.25482046 63:0.48025072 
1 1:0.10469447 4:0.27009046 9:0.13352997 
1 1:0.20938893 7:0.31055527 14:0.28681239 
1 4:0.27009046 17:0.25094652 63:0.48025072 
1 1:0.24309302 2:0.38278927 6:0.23011368 9:0.31004699 14:0.28681239 16:0.26085548 28:0.40388087 32:0.52622861 37:0.48715395 62:0.43589893 
1 1:0.10469447 3:0.47655745 4:0.27009046 5:0.46849374 6:0.23011368 8:0.88842519 9:0.13352997 11:0.65676078 16:0.41344616 17:0.39774083 18:0.50964091 23:0.73911981 25:0.46715934 32:0.52622861 34:0.42566977 38:0.4281135 39:0.43971343 40:0.8654978 41:0.46328008 42:0.41298942 51:0.74852081 54:0.82995471 57:0.50922032 63:0.48025072 66:0.4750965 70:0.46328008 72:0.73685564 80:0.61696944 83:0.5555232 90:0.43704526 
1 1:0.1659368 7:0.31055527 
1 4:0.39567537 7:0.31055527 
1 2:0.38278927 3:0.20524212 6:0.23011368 14:0.28681239 88:0.28285147 
1 2:0.38278927 14:0.28681239 
1 1:0.20938893 7:0.31055527 14:0.28681239 
1 15:0.72922737 30:0.88572958 
1 11:0.44830898 
1 4:0.27009046 21:0.4495057 63:0.48025072 
1 1:0.10469447 7:0.31055527 31:0.53168727 37:0.3325343 49:0.44663228 62:0.21794947 67:0.58884671 80:0.61696944 87:0.53443971 
1 1:0.1659368 4:0.27009046 7:0.31055527 9:0.13352997 17:0.25094652 32:0.35920691 88:0.28285147 
1 13:0.77988082 33:0.7394621 75:0.77988082 
1 1:0.10469447 2:0.26129432 9:0.13352997 
1 2:0.38278927 14:0.28681239 
1 21:0.4495057 26:0.93329996 36:0.57677022 57:0.50922032 83:0.5555232 
1 2:0.26129432 6:0.23011368 29:0.39844827 
1 4:0.27009046 6:0.23011368 9:0.13352997 16:0.41344616 32:0.35920691 34:0.42566977 39:0.43971343 45:0.47687524 51:0.51094494 52:0.75301014 62:0.21794947 90:0.43704526 
1 10:1.2916394 38:0.67854384 48:1.3387581 58:0.91415918 75:1.1425048 
1 20:0.77053137 81:1.0241113 
1 1:0.10469447 4:0.27009046 9:0.13352997 16:0.41344616 51:0.51094494 
1 4:0.27009046 7:0.31055527 17:0.39774083 32:0.35920691 
1 1:0.20938893 7:0.31055527 14:0.28681239 
1 14:0.28681239 22:0.71947446 77:0.62787039 
1 1:0.1659368 4:0.27009046 9:0.21164 37:0.3325343 
1 1:0.20938893 7:0.31055527 14:0.28681239 
1 1:0.10469447 6:0.23011368 38:0.4281135 
1 5:0.23424687 11:0.44830898 16:0.26085548 17:0.25094652 18:0.25482046 34:0.42566977 62:0.21794947 70:0.46328008 
1 4:0.27009046 7:0.31055527 17:0.39774083 32:0.35920691 
1 1:0.10469447 2:0.26129432 9:0.13352997 
1 4:0.27009046 11:0.44830898 16:0.26085548 17:0.25094652 18:0.25482046 
1 1:0.1659368 4:0.27009046 9:0.21164 14:0.28681239 
1 1:0.10469447 2:0.38278927 9:0.21164 12:0.26398079 14:0.28681239 17:0.25094652 62:0.21794947 88:0.28285147 
1 12:0.26398079 13:0.77988082 33:0.7394621 50:0.85152322 64:0.59313351 79:0.58469603 92:0.77988082 
1 2:0.26129432 12:0.26398079 29:0.39844827 55:0.49822765 63:0.48025072 70:0.46328008 88:0.28285147 
1 15:0.46009125 19:0.86073412 69:0.51153428 89:0.44806109 91:0.56571556 
1 1:0.10469447 2:0.46281594 3:0.32530107 4:0.27009046 6:0.23011368 7:0.31055527 9:0.31004699 12:0.41839965 14:0.42017255 16:0.41344616 17:0.25094652 18:0.25482046 23:0.41728859 25:0.46715934 28:0.59167478 32:0.35920691 37:0.48715395 43:0.59847396 62:0.43589893 88:0.56570295 
1 1:0.1659368 7:0.31055527 11:0.44830898 16:0.26085548 22:0.45393784 24:0.41860126 38:0.4281135 62:0.21794947 65:0.56571556 66:0.4750965 69:0.51153428 75:0.77988082 77:0.62787039 84:0.5289916 91:0.56571556 
1 13:0.77988082 67:0.58884671 
1 1:0.1659368 4:0.27009046 9:0.21164 37:0.3325343 
1 3:0.32530107 5:0.3712725 11:0.44830898 54:0.56653222 
1 1:0.10469447 2:0.26129432 9:0.13352997 17:0.25094652 88:0.28285147 
1 1:0.1659368 4:0.27009046 9:0.21164 37:0.3325343 
1 1:0.10469447 5:0.23424687 6:0.23011368 7:0.31055527 9:0.21164 12:0.26398079 16:0.52171096 17:0.25094652 28:0.40388087 32:0.35920691 51:0.51094494 88:0.28285147 
1 4:0.27009046 
1 3:0.20524212 5:0.23424687 11:0.65676078 18:0.25482046 25:0.46715934 
1 11:0.44830898 22:0.45393784 38:0.67854384 48:0.75582938 
1 1:0.1659368 6:0.23011368 9:0.13352997 16:0.26085548 32:0.35920691 37:0.3325343 62:0.21794947 
1 4:0.39567537 7:0.31055527 
1 5:0.23424687 6:0.36472155 9:0.21164 16:0.41344616 17:0.25094652 23:0.41728859 25:0.46715934 88:0.28285147 
1 4:0.27009046 
1 3:0.20524212 5:0.23424687 6:0.23011368 12:0.26398079 18:0.25482046 43:0.59847396 54:0.56653222 63:0.48025072 
1 13:1.1425048 33:0.46654864 92:0.77988082 
1 13:1.381359 50:0.85152322 92:1.1425048 
1 1:0.20938893 7:0.31055527 14:0.28681239 
1 26:1.6531017 
1 1:0.10469447 2:0.26129432 7:0.31055527 9:0.13352997 16:0.41344616 62:0.21794947 
1 1:0.1659368 7:0.31055527 
1 3:0.32530107 5:0.3712725 6:0.36472155 18:0.40388087 25:0.46715934 43:0.59847396 63:0.70355458 88:0.44830898 
1 3:0.32530107 5:0.3712725 11:0.79406448 17:0.25094652 18:0.40388087 25:0.68437607 51:0.51094494 
1 1:0.20938893 7:0.31055527 14:0.28681239 
1 1:0.10469447 3:0.20524212 4:0.27009046 12:0.26398079 16:0.26085548 23:0.41728859 62:0.21794947 
1 3:0.32530107 5:0.3712725 51:0.51094494 63:0.48025072 
1 3:0.20524212 5:0.23424687 8:0.50158268 18:0.25482046 38:0.67854384 48:0.75582938 51:0.74852081 59:0.46167594 72:0.46490415 74:1.057787 75:1.1425048 76:0.51388994 85:0.6118419 
1 1:0.20938893 7:0.31055527 14:0.28681239 
1 2:0.26129432 4:0.27009046 6:0.23011368 9:0.13352997 12:0.26398079 16:0.26085548 18:0.25482046 62:0.21794947 
1 1:0.10469447 3:0.32530107 4:0.27009046 5:0.23424687 6:0.23011368 9:0.13352997 12:0.41839965 14:0.28681239 25:0.46715934 54:0.56653222 62:0.21794947 
1 33:0.46654864 64:0.59313351 
1 1:0.1659368 4:0.27009046 6:0.23011368 9:0.21164 37:0.3325343 
1 1:0.10469447 6:0.36472155 18:0.25482046 22:0.45393784 31:0.53168727 37:0.3325343 51:0.51094494 62:0.21794947 64:0.59313351 83:0.5555232 87:0.53443971 
1 12:0.26398079 22:0.45393784 49:0.44663228 
1 1:0.10469447 2:0.38278927 9:0.13352997 12:0.26398079 14:0.28681239 17:0.25094652 88:0.44830898 
1 20:0.48615117 45:0.47687524 52:0.75301014 81:1.0241113 
1 7:0.31055527 11:0.44830898 16:0.41344616 
1 1:0.10469447 2:0.26129432 9:0.13352997 16:0.26085548 
1 3:0.41048425 4:0.27009046 5:0.3712725 8:0.50158268 11:0.65676078 12:0.41839965 16:0.41344616 18:0.65870133 23:0.41728859 25:0.82745307 34:0.42566977 35:0.46821409 41:0.46328008 52:0.4750965 68:0.58884671 89:0.44806109 
1 3:0.32530107 5:0.3712725 51:0.51094494 63:0.48025072 
1 16:0.41344616 25:0.46715934 
1 1:0.10469447 
1 1:0.1659368 6:0.23011368 14:0.28681239 
1 1:0.1659368 14:0.28681239 
1 3:0.20524212 5:0.3712725 6:0.36472155 12:0.41839965 37:0.3325343 51:0.51094494 54:0.56653222 
1 4:0.39567537 7:0.45495524 16:0.41344616 23:0.41728859 32:0.35920691 
1 1:0.10469447 9:0.13352997 24:0.41860126 29:0.39844827 32:0.35920691 60:0.49205002 
1 3:0.32530107 5:0.23424687 11:0.44830898 25:0.46715934 51:0.51094494 
1 9:0.13352997 21:0.4495057 31:0.53168727 
1 2:0.26129432 9:0.13352997 29:0.39844827 44:0.46167594 82:0.62230633 88:0.28285147 
1 1:0.10469447 2:0.26129432 9:0.13352997 16:0.26085548 
1 4:0.39567537 7:0.31055527 16:0.26085548 
1 3:0.32530107 16:0.26085548 25:0.46715934 
1 1:0.10469447 6:0.23011368 
1 1:0.1659368 2:0.26129432 9:0.21164 32:0.35920691 
0.08837382843658982 2:0.38278927 14:0.28681239 
1 1:0.10469447 2:0.26129432 9:0.13352997 
0.5168578783070454 1:0.1659368 2:0.26129432 4:0.27009046 9:0.26705994 28:0.40388087 37:0.3325343 
1 3:0.20524212 5:0.3712725 11:0.44830898 18:0.25482046 63:0.48025072 
1 46:1.1244581 
1 4:0.27009046 13:1.1425048 21:0.71244968 23:0.41728859 32:0.35920691 92:0.77988082 
0.4361842322551229 26:1.8665999 80:0.61696944 
1 4:0.39567537 6:0.36472155 7:0.31055527 9:0.13352997 16:0.26085548 25:0.46715934 62:0.21794947 
1 8:0.50158268 12:0.41839965 
1 2:0.38278927 6:0.23011368 14:0.28681239 
1 1:0.10469447 9:0.13352997 12:0.26398079 17:0.25094652 37:0.3325343 
1 3:0.20524212 5:0.23424687 63:0.48025072 
1 3:0.20524212 5:0.3712725 11:1.0466748 18:0.25482046 19:0.86073412 25:1.0196492 39:0.43971343 51:1.1152182 56:0.48615117 59:0.73173905 69:0.51153428 85:0.6118419 89:0.71016003 90:0.43704526 
1 15:0.46009125 27:0.9863322 46:0.56222907 
1 1:0.10469447 2:0.26129432 3:0.20524212 9:0.21164 28:0.40388087 37:0.3325343 88:0.28285147 90:0.43704526 
1 1:0.1659368 2:0.26129432 9:0.21164 32:0.35920691 
1 1:0.10469447 9:0.13352997 21:0.4495057 37:0.3325343 
1 1:0.10469447 3:0.32530107 6:0.23011368 9:0.13352997 12:0.26398079 17:0.25094652 36:0.57677022 37:0.3325343 54:0.56653222 57:0.50922032 82:0.62230633 84:0.5289916 87:0.53443971 88:0.28285147 
1 4:0.39567537 7:0.31055527 17:0.25094652 45:0.47687524 
1 7:0.31055527 12:0.26398079 13:1.381359 16:0.26085548 21:0.71244968 38:0.4281135 50:0.85152322 92:1.1425048 
1 1:0.1659368 4:0.27009046 7:0.31055527 9:0.13352997 17:0.25094652 32:0.35920691 
1 3:0.32530107 8:0.50158268 12:0.26398079 88:0.28285147 
1 1:0.10469447 3:0.20524212 4:0.27009046 9:0.13352997 12:0.26398079 17:0.25094652 43:0.59847396 88:0.28285147 
1 9:0.13352997 10:1.2916394 21:0.4495057 48:1.10727 66:0.4750965 75:0.77988082 77:0.62787039 92:0.77988082 
1 4:0.27009046 7:0.31055527 17:0.39774083 32:0.35920691 
1 3:0.20524212 5:0.3712725 11:0.44830898 25:0.46715934 34:0.85133954 39:0.6969293 47:1.0459431 51:0.74852081 90:0.87409053 
1 1:0.10469447 2:0.26129432 9:0.13352997 
1 2:0.26129432 6:0.23011368 12:0.26398079 18:0.25482046 
1 19:1.7214682 40:1.7309956 56:0.77053137 
1 3:0.20524212 6:0.23011368 12:0.26398079 37:0.3325343 
1 1:0.10469447 2:0.26129432 9:0.13352997 21:0.4495057 
1 5:0.23424687 6:0.23011368 9:0.13352997 12:0.26398079 17:0.25094652 
1 14:0.28681239 15:0.46009125 24:0.6634673 42:0.41298942 
1 1:0.1659368 4:0.27009046 9:0.21164 37:0.3325343 
1 1:0.10469447 7:0.31055527 21:0.71244968 
1 1:0.1659368 6:0.23011368 14:0.28681239 
1 7:0.45495524 17:0.39774083 23:0.41728859 
1 1:0.20938893 7:0.31055527 14:0.28681239 
1 3:0.20524212 5:0.3712725 11:0.44830898 18:0.25482046 63:0.48025072 
1 1:0.1659368 2:0.26129432 9:0.21164 32:0.35920691 
1 9:0.13352997 31:0.53168727 79:0.58469603 
1 1:0.1659368 2:0.26129432 9:0.21164 32:0.35920691 
1 1:0.10469447 2:0.26129432 9:0.13352997 
1 3:0.20524212 5:0.3712725 11:0.44830898 18:0.25482046 63:0.48025072 
1 17:0.25094652 41:0.46328008 63:0.48025072 
1 41:0.46328008 52:0.4750965 63:0.48025072 
1 11:0.44830898 39:0.43971343 90:0.43704526 
1 3:0.20524212 5:0.23424687 20:0.97230233 39:0.43971343 63:0.48025072 81:1.0241113 
1 2:0.26129432 6:0.53430741 14:0.42017255 15:0.92018249 19:0.86073412 24:0.41860126 25:0.46715934 30:0.88572958 37:0.48715395 40:0.8654978 42:0.65457275 49:0.70789541 51:0.51094494 84:0.5289916 91:0.56571556 
1 31:0.84270439 71:1.0980183 
1 1:0.10469447 2:0.26129432 4:0.27009046 9:0.21164 17:0.25094652 88:0.28285147 
1 15:0.46009125 71:1.0980183 
1 3:0.20524212 6:0.23011368 17:0.25094652 
1 3:0.20524212 5:0.23424687 16:0.26085548 17:0.25094652 51:0.51094494 
1 19:1.5245699 40:1.2679314 56:0.77053137 
1 1:0.10469447 3:0.20524212 5:0.23424687 7:0.31055527 12:0.26398079 16:0.41344616 17:0.25094652 18:0.25482046 51:0.51094494 
1 6:0.23011368 11:0.65676078 25:0.46715934 
1 2:0.26129432 3:0.20524212 6:0.23011368 88:0.28285147 
0.4014759344918133 10:1.2916394 48:1.10727 75:0.77988082 
1 8:0.50158268 17:0.39774083 
1 3:0.20524212 5:0.3712725 6:0.23011368 11:0.44830898 12:0.26398079 18:0.25482046 43:0.59847396 88:0.28285147 
1 1:0.10469447 2:0.26129432 9:0.13352997 
1 1:0.37532574 2:0.61004844 4:0.54018091 6:0.46022736 7:0.55006907 9:0.53411989 14:0.57362477 16:0.60568767 17:0.25094652 23:0.91079843 25:0.46715934 28:0.71537146 32:0.88543551 37:0.66506861 42:0.41298942 45:0.47687524 60:0.49205002 62:0.85150472 66:0.4750965 88:0.44830898 89:0.44806109 90:0.43704526 
1 3:0.32530107 5:0.23424687 6:0.23011368 8:0.50158268 12:0.26398079 54:0.82995471 
1 1:0.10469447 2:0.46281594 6:0.23011368 9:0.13352997 14:0.42017255 28:0.40388087 34:0.42566977 37:0.48715395 62:0.34544173 70:0.46328008 
1 36:0.91415918 67:0.58884671 
1 3:0.20524212 6:0.23011368 9:0.13352997 16:0.26085548 51:0.51094494 72:0.46490415 
1 1:0.20938893 7:0.31055527 14:0.28681239 
1 3:0.20524212 5:0.23424687 6:0.23011368 9:0.13352997 21:0.4495057 51:0.51094494 72:0.46490415 79:0.58469603 
1 5:0.23424687 6:0.23011368 9:0.13352997 16:0.26085548 17:0.25094652 88:0.28285147 
1 3:0.32530107 5:0.23424687 11:0.44830898 25:0.46715934 51:0.51094494 
1 1:0.20938893 3:0.20524212 4:0.27009046 6:0.23011368 7:0.31055527 9:0.21164 15:0.46009125 30:0.88572958 32:0.35920691 34:0.42566977 37:0.3325343 51:0.51094494 56:0.48615117 59:0.46167594 62:0.21794947 69:0.51153428 
1 1:0.1659368 2:0.26129432 9:0.21164 17:0.25094652 32:0.35920691 88:0.28285147 
1 13:1.1425048 92:0.77988082 
1 3:0.32530107 8:0.50158268 16:0.41344616 18:0.40388087 25:0.46715934 
0.891166632388594 10:1.2916394 48:1.10727 75:0.77988082 
1 1:0.10469447 4:0.27009046 9:0.13352997 17:0.25094652 88:0.28285147 
1 3:0.20524212 
1 3:0.20524212 6:0.23011368 8:0.50158268 9:0.13352997 12:0.26398079 17:0.39774083 18:0.25482046 88:0.28285147 
1 1:0.10469447 4:0.27009046 9:0.13352997 52:0.4750965 
1 9:0.13352997 31:0.53168727 79:0.58469603 
1 15:0.72922737 19:0.86073412 
1 1:0.10469447 16:0.26085548 45:0.47687524 
1 4:0.39567537 7:0.31055527 
1 1:0.1659368 2:0.26129432 9:0.21164 32:0.35920691 
1 1:0.10469447 3:0.20524212 5:0.23424687 6:0.36472155 18:0.25482046 25:0.46715934 63:0.48025072 88:0.28285147 
1 7:0.31055527 15:0.72922737 24:0.41860126 25:0.68437607 26:0.93329996 30:1.7714592 31:0.53168727 59:0.92335188 60:0.98410003 62:0.34544173 69:1.0230686 79:0.58469603 80:0.61696944 85:0.6118419 
1 6:0.36472155 14:0.28681239 16:0.26085548 22:0.45393784 55:0.49822765 
1 1:0.10469447 36:0.57677022 
1 19:0.86073412 40:0.8654978 56:0.77053137 
1 2:0.26129432 20:0.48615117 70:0.46328008 
1 1:0.10469447 4:0.39567537 6:0.23011368 7:0.31055527 9:0.13352997 
1 16:0.26085548 34:0.42566977 39:0.43971343 45:0.47687524 51:0.51094494 89:0.44806109 
1 2:0.26129432 6:0.23011368 
1 1:0.20938893 2:0.26129432 6:0.23011368 9:0.26705994 14:0.28681239 16:0.26085548 23:0.41728859 32:0.52622861 37:0.3325343 62:0.34544173 
1 2:0.38278927 3:0.20524212 6:0.23011368 14:0.28681239 88:0.28285147 
1 4:0.27009046 17:0.25094652 66:0.4750965 76:0.51388994 
1 2:0.26129432 
1 10:1.2916394 48:1.3387581 
1 1:0.10469447 12:0.26398079 17:0.25094652 54:0.56653222 
1 3:0.20524212 5:0.23424687 11:0.44830898 34:0.42566977 
1 5:0.3712725 8:0.50158268 10:1.0682988 12:0.26398079 30:0.88572958 48:0.75582938 58:0.91415918 64:0.59313351 66:0.4750965 68:0.58884671 73:1.1693921 75:0.77988082 76:0.81449629 77:0.62787039 78:0.56929758 79:0.58469603 
1 4:0.27009046 9:0.13352997 12:0.26398079 17:0.25094652 22:0.45393784 36:0.57677022 57:0.50922032 58:0.91415918 66:0.4750965 76:0.81449629 
1 3:0.20524212 5:0.3712725 11:0.44830898 18:0.25482046 63:0.48025072 
1 1:0.1659368 4:0.27009046 9:0.21164 37:0.3325343 
1 3:0.20524212 6:0.36472155 9:0.13352997 16:0.26085548 18:0.25482046 25:0.46715934 
1 3:0.32530107 5:0.23424687 11:0.44830898 25:0.46715934 51:0.51094494 
1 13:0.77988082 21:0.71244968 50:0.85152322 92:0.77988082 
1 1:0.10469447 24:0.41860126 49:0.44663228 
1 2:0.38278927 14:0.28681239 
1 4:0.27009046 10:1.2916394 48:0.75582938 58:1.339219 66:0.75301014 75:0.77988082 
1 1:0.10469447 6:0.23011368 
1 1:0.10469447 6:0.23011368 11:0.44830898 
1 1:0.10469447 2:0.26129432 9:0.13352997 
0.3511039694594529 3:0.41048425 8:0.50158268 18:0.25482046 25:0.46715934 34:0.42566977 47:1.0459431 90:0.43704526 
1 1:0.1659368 4:0.27009046 7:0.31055527 9:0.13352997 32:0.35920691 66:0.4750965 
1 1:0.20938893 7:0.31055527 14:0.28681239 
1 5:0.23424687 6:0.23011368 9:0.13352997 12:0.26398079 16:0.26085548 
1 2:0.38278927 6:0.23011368 14:0.28681239 
1 6:0.23011368 11:0.65676078 25:0.46715934 
1 13:1.381359 50:0.85152322 92:1.1425048 
1 1:0.1659368 6:0.23011368 11:0.44830898 14:0.28681239 
1 3:0.20524212 4:0.39567537 5:0.23424687 7:0.31055527 9:0.13352997 12:0.26398079 16:0.41344616 17:0.39774083 18:0.40388087 23:0.41728859 32:0.52622861 39:0.43971343 45:0.47687524 54:0.56653222 90:0.43704526 93:1.1133743 
1 1:0.10469447 2:0.26129432 6:0.23011368 9:0.13352997 16:0.26085548 22:0.45393784 28:0.40388087 37:0.3325343 
1 3:0.20524212 12:0.26398079 16:0.26085548 60:0.49205002 
1 1:0.10469447 6:0.23011368 7:0.31055527 9:0.31004699 12:0.26398079 14:0.28681239 16:0.41344616 17:0.25094652 21:0.4495057 23:0.61131674 38:0.4281135 52:0.75301014 62:0.43589893 88:0.28285147 
1 8:1.0031654 43:0.8767485 
1 11:0.65676078 16:0.26085548 25:0.46715934 
1 1:0.10469447 2:0.26129432 3:0.20524212 5:0.3712725 9:0.13352997 12:0.26398079 16:0.26085548 18:0.25482046 63:0.70355458 72:0.46490415 88:0.28285147 
1 3:0.20524212 5:0.23424687 11:0.65676078 18:0.25482046 25:0.46715934 
1 6:0.23011368 11:0.44830898 24:0.6634673 28:0.40388087 30:0.88572958 39:0.43971343 59:0.46167594 68:0.58884671 69:0.81076266 90:0.43704526 
1 10:1.0682988 38:0.4281135 48:0.75582938 
1 1:0.1659368 4:0.27009046 9:0.21164 37:0.3325343 
1 1:0.10469447 12:0.41839965 14:0.28681239 
1 10:1.0682988 33:0.46654864 48:0.75582938 
1 1:0.1659368 2:0.26129432 3:0.32530107 9:0.21164 16:0.26085548 25:0.46715934 32:0.35920691 72:0.46490415 88:0.28285147 
1 1:0.10469447 2:0.26129432 9:0.13352997 
1 3:0.32530107 5:0.3712725 51:0.51094494 63:0.48025072 
1 3:0.20524212 12:0.26398079 16:0.26085548 
1 1:0.10469447 4:0.27009046 9:0.13352997 
1 4:0.27009046 17:0.25094652 58:0.91415918 66:0.4750965 76:0.51388994 
1 1:0.1659368 14:0.28681239 16:0.26085548 
1 1:0.20938893 7:0.31055527 14:0.28681239 
1 6:0.36472155 25:0.46715934 
1 6:0.36472155 11:0.44830898 37:0.3325343 
1 1:0.33187361 2:0.26129432 4:0.47839603 7:0.67783604 9:0.40058992 14:0.57362477 23:0.91079843 28:0.80776174 32:0.78402595 37:0.48715395 42:0.41298942 49:0.44663228 61:1.3576047 62:0.72401246 
1 1:0.10469447 5:0.23424687 6:0.23011368 9:0.13352997 16:0.26085548 17:0.25094652 29:0.63152556 32:0.35920691 82:0.62230633 88:0.28285147 
1 3:0.20524212 5:0.23424687 11:0.44830898 34:0.42566977 
1 5:0.23424687 6:0.23011368 9:0.13352997 12:0.26398079 17:0.25094652 
1 4:0.27009046 9:0.13352997 12:0.26398079 17:0.25094652 
1 5:0.23424687 16:0.26085548 17:0.25094652 18:0.25482046 63:0.48025072 
1 3:0.32530107 5:0.3712725 51:0.51094494 63:0.48025072 
1 3:0.32530107 8:0.50158268 
1 3:0.47655745 5:0.60551937 8:0.88842519 11:0.44830898 12:0.41839965 17:0.39774083 18:0.59167478 34:0.42566977 41:0.46328008 43:1.1969479 54:1.0034667 63:0.48025072 88:0.28285147 
1 3:0.20524212 34:0.42566977 90:0.43704526 
1 6:0.46022736 11:0.65676078 25:0.82745307 51:1.0218899 
1 2:0.38278927 14:0.28681239 
1 15:0.72922737 19:0.86073412 30:0.88572958 
1 1:0.10469447 4:0.39567537 7:0.31055527 9:0.13352997 16:0.26085548 
1 3:0.32530107 5:0.23424687 11:0.44830898 25:0.46715934 51:0.51094494 
1 3:0.20524212 6:0.23011368 
1 5:0.23424687 6:0.23011368 12:0.26398079 18:0.25482046 63:0.48025072 
1 9:0.13352997 12:0.26398079 17:0.25094652 63:0.48025072 
1 1:0.1659368 2:0.38278927 4:0.27009046 9:0.31004699 12:0.26398079 16:0.26085548 17:0.25094652 23:0.41728859 28:0.59167478 37:0.3325343 88:0.28285147 
1 1:0.10469447 21:0.4495057 72:0.46490415 
1 3:0.41048425 8:0.50158268 12:0.26398079 18:0.25482046 25:0.46715934 88:0.28285147 
1 15:0.92018249 19:0.86073412 40:0.8654978 
1 6:0.36472155 11:0.44830898 25:0.46715934 51:0.51094494 
1 1:0.20938893 7:0.31055527 14:0.28681239 
1 2:0.26129432 6:0.36472155 11:0.44830898 28:0.40388087 34:0.42566977 37:0.3325343 
1 2:0.26129432 8:0.50158268 9:0.13352997 12:0.26398079 17:0.39774083 88:0.28285147 
1 11:0.44830898 16:0.41344616 25:0.46715934 51:0.51094494 
1 13:0.77988082 33:0.46654864 38:0.4281135 50:0.85152322 72:0.46490415 
1 1:0.20938893 2:0.26129432 7:0.31055527 9:0.31004699 14:0.28681239 17:0.39774083 23:0.61131674 32:0.35920691 37:0.3325343 52:0.75301014 62:0.21794947 70:0.46328008 88:0.44830898 
1 1:0.1659368 2:0.38278927 6:0.46022736 9:0.13352997 14:0.50801465 28:0.40388087 37:0.66506861 62:0.50606299 
1 1:0.10469447 6:0.36472155 14:0.28681239 
1 2:0.26129432 6:0.23011368 9:0.13352997 16:0.26085548 
1 1:0.10469447 2:0.26129432 9:0.13352997 
1 1:0.20938893 4:0.39567537 7:0.45495524 9:0.13352997 14:0.28681239 23:0.41728859 29:0.39844827 32:0.35920691 44:0.46167594 62:0.34544173 
1 5:0.23424687 9:0.13352997 12:0.26398079 16:0.26085548 17:0.25094652 
1 3:0.20524212 5:0.23424687 11:0.65676078 18:0.25482046 25:0.46715934 
1 3:0.32530107 5:0.23424687 11:0.44830898 25:0.46715934 51:0.51094494 
1 1:0.20938893 7:0.31055527 14:0.28681239 
1 1:0.10469447 2:0.38278927 4:0.27009046 6:0.36472155 9:0.26705994 12:0.26398079 14:0.28681239 16:0.26085548 18:0.25482046 28:0.71537146 37:0.66506861 62:0.34544173 
1 3:0.20524212 4:0.27009046 17:0.25094652 
1 1:0.1659368 14:0.28681239 23:0.41728859 
1 3:0.20524212 5:0.3712725 11:0.44830898 18:0.25482046 63:0.48025072 
-1 1:0.10469447 2:0.26129432 4:0.27009046 6:0.23011368 9:0.21164 52:0.4750965 
-1 1:0.27063127 3:0.20524212 5:0.3712725 6:0.23011368 7:0.31055527 12:0.52796157 14:0.28681239 17:0.25094652 23:0.41728859 28:0.40388087 39:0.43971343 41:0.46328008 43:0.8767485 54:0.82995471 63:0.48025072 88:0.44830898 
-1 1:0.1659368 7:0.31055527 
-1 3:0.41048425 5:0.23424687 11:0.44830898 18:0.25482046 25:0.46715934 34:0.42566977 41:0.46328008 43:0.59847396 
-1 1:0.1659368 6:0.23011368 7:0.31055527 9:0.21164 16:0.26085548 23:0.41728859 36:0.57677022 37:0.3325343 60:0.49205002 62:0.21794947 87:0.53443971 
-1 85:0.6118419 
-1 8:0.50158268 63:0.70355458 82:0.62230633 
-1 13:0.77988082 21:0.4495057 
-1 3:0.32530107 5:0.3712725 25:0.46715934 53:0.552295 63:0.48025072 89:0.44806109 
-1 11:0.44830898 16:0.41344616 25:0.46715934 38:0.4281135 51:0.51094494 
-1 1:0.10469447 79:0.58469603 
-1 3:0.20524212 5:0.46849374 8:0.50158268 11:0.44830898 18:0.50964091 25:0.46715934 43:0.59847396 51:0.51094494 57:0.50922032 63:0.70355458 76:0.51388994 83:0.5555232 
-1 2:0.26129432 3:0.20524212 6:0.23011368 12:0.41839965 14:0.28681239 18:0.25482046 37:0.3325343 43:0.59847396 88:0.28285147 
-1 13:0.77988082 72:0.46490415 
-1 1:0.10469447 2:0.26129432 9:0.13352997 
-1 1:0.10469447 27:0.62230633 35:0.46821409 44:0.46167594 
-1 3:0.20524212 5:0.23424687 6:0.36472155 11:0.44830898 25:0.46715934 34:0.42566977 51:0.51094494 52:0.4750965 88:0.28285147 
-1 1:0.10469447 31:0.53168727 
-1 1:0.10469447 40:1.2679314 45:0.47687524 47:1.0459431 79:0.58469603 89:0.44806109 90:0.43704526 
-1 40:0.8654978 56:0.77053137 
-0.5689329737234441 5:0.23424687 10:0.72922737 16:0.26085548 38:0.4281135 58:0.91415918 66:0.4750965 75:0.77988082 
-1 11:0.44830898 59:0.46167594 
-1 3:0.20524212 19:0.86073412 89:0.44806109 
-0.6848459388897121 20:0.48615117 
-1 1:0.10469447 4:0.27009046 6:0.36472155 9:0.13352997 11:0.65676078 17:0.25094652 18:0.25482046 25:0.46715934 28:0.40388087 88:0.28285147 
-1 1:0.1659368 2:0.26129432 4:0.27009046 7:0.31055527 9:0.34516997 14:0.42017255 21:0.71244968 28:0.71537146 32:0.35920691 35:0.46821409 37:0.3325343 62:0.43589893 
-1 9:0.13352997 
-1 1:0.29391453 2:0.38278927 4:0.54018091 7:0.67783604 9:0.37486602 14:0.50801465 23:0.73911981 28:0.71537146 32:0.71841381 37:0.66506861 61:1.9888549 62:0.69088347 
-1 8:0.50158268 12:0.41839965 49:0.44663228 50:0.85152322 
-0.5636530492531079 5:0.23424687 26:0.93329996 57:0.50922032 72:0.46490415 82:0.62230633 
-1 1:0.10469447 2:0.26129432 6:0.23011368 7:0.31055527 9:0.13352997 17:0.39774083 62:0.21794947 88:0.28285147 
-1 1:0.10469447 2:0.38278927 9:0.13352997 12:0.26398079 14:0.28681239 
-1 9:0.13352997 
-1 1:0.10469447 4:0.27009046 9:0.13352997 
-1 3:0.20524212 6:0.23011368 17:0.25094652 
-0.6369238056809565 31:0.53168727 71:1.0980183 73:0.58469603 
-1 1:0.1659368 2:0.26129432 9:0.21164 32:0.35920691 
-1 15:0.72922737 40:0.8654978 53:0.552295 
-0.8190534859557704 12:0.26398079 14:0.28681239 18:0.25482046 50:0.85152322 57:0.50922032 87:0.53443971 88:0.28285147 
-1 1:0.1659368 5:0.23424687 7:0.31055527 16:0.26085548 17:0.39774083 28:0.40388087 
-1 1:0.20938893 7:0.31055527 14:0.28681239 35:0.46821409 55:0.49822765 
-1 19:0.86073412 30:0.88572958 77:0.62787039 
-1 83:0.5555232 
-1 1:0.20938893 4:0.27009046 6:0.36472155 7:0.31055527 9:0.13352997 14:0.42017255 17:0.25094652 28:0.40388087 29:0.39844827 32:0.35920691 62:0.21794947 84:0.5289916 88:0.28285147 
-1 1:0.20938893 7:0.31055527 14:0.28681239 31:0.53168727 60:0.49205002 
-0.6836638609544721 4:0.27009046 10:0.72922737 22:0.45393784 62:0.21794947 66:0.4750965 
-0.1637338871767083 1:0.10469447 24:0.41860126 46:0.56222907 
-1 9:0.13352997 
-1 2:0.26129432 6:0.23011368 12:0.26398079 18:0.25482046 
-1 1:0.10469447 9:0.13352997 12:0.26398079 16:0.26085548 17:0.25094652 18:0.25482046 32:0.35920691 
-1 3:0.20524212 39:0.43971343 
-1 1:0.1659368 7:0.31055527 41:0.46328008 52:0.4750965 88:0.28285147 
-1 3:0.32530107 4:0.27009046 5:0.46849374 11:0.79406448 17:0.25094652 18:0.40388087 25:0.68437607 39:0.43971343 43:0.59847396 51:0.51094494 90:0.43704526 
-1 1:0.10469447 2:0.38278927 9:0.13352997 14:0.42017255 22:0.71947446 28:0.40388087 37:0.3325343 66:0.4750965 
-1 9:0.13352997 
-1 1:0.10469447 60:0.49205002 
-1 3:0.20524212 5:0.23424687 11:0.44830898 90:0.43704526 
-1 9:0.13352997 
-1 3:0.32530107 5:0.23424687 8:0.50158268 34:0.42566977 41:0.46328008 51:0.51094494 
-0.4809614103770871 1:0.10469447 4:0.27009046 7:0.31055527 9:0.21164 14:0.28681239 17:0.50189305 28:0.40388087 32:0.35920691 37:0.48715395 52:0.4750965 54:0.56653222 55:0.78967215 70:0.46328008 88:0.44830898 
-0.1893846166797581 1:0.10469447 42:0.41298942 91:0.56571556 
-1 80:0.61696944 87:0.53443971 
-1 
-0.1082975137248513 5:0.23424687 16:0.26085548 17:0.25094652 18:0.25482046 22:0.45393784 38:0.4281135 63:0.48025072 76:0.51388994 
-1 1:0.10469447 55:0.49822765 
-0.4168993089250555 4:0.27009046 6:0.23011368 36:0.91415918 38:0.4281135 48:0.75582938 62:0.21794947 
-1 1:0.10469447 2:0.26129432 4:0.27009046 6:0.23011368 9:0.21164 17:0.25094652 88:0.28285147 
-0.01522745670961465 1:0.10469447 15:0.46009125 24:0.41860126 30:0.88572958 49:0.44663228 
-1 9:0.13352997 21:0.4495057 
-1 3:0.20524212 5:0.23424687 11:0.44830898 
-1 8:0.50158268 41:0.46328008 63:0.70355458 
-0.9624578529592266 3:0.20524212 33:0.46654864 64:0.59313351 
-1 1:0.10469447 2:0.26129432 12:0.26398079 14:0.28681239 29:0.63152556 37:0.3325343 62:0.21794947 
-1 11:0.44830898 59:0.46167594 
-0.09583181766560972 1:0.10469447 44:0.46167594 
-1 3:0.20524212 22:0.45393784 75:0.77988082 
-0.4850522113418812 3:0.20524212 68:0.58884671 
-1 1:0.10469447 7:0.45495524 21:1.0437199 23:0.41728859 92:0.77988082 
-1 1:0.10469447 2:0.26129432 6:0.23011368 9:0.21164 12:0.26398079 17:0.25094652 28:0.40388087 37:0.3325343 88:0.28285147 
-1 22:0.71947446 42:0.41298942 48:0.75582938 
-1 3:0.20524212 50:0.85152322 72:0.46490415 
-1 1:0.1659368 2:0.26129432 3:0.20524212 6:0.46022736 9:0.21164 11:0.65676078 12:0.41839965 14:0.28681239 16:0.26085548 17:0.25094652 18:0.25482046 25:0.68437607 28:0.59167478 34:0.42566977 37:0.48715395 43:0.59847396 52:0.4750965 88:0.28285147 
-1 1:0.10469447 4:0.27009046 9:0.13352997 12:0.26398079 16:0.26085548 18:0.25482046 
-1 50:0.85152322 
-1 1:0.10469447 2:0.46281594 4:0.27009046 9:0.26705994 14:0.42017255 37:0.3325343 62:0.21794947 
-1 1:0.10469447 3:0.20524212 16:0.26085548 88:0.28285147 
-1 3:0.20524212 9:0.13352997 12:0.26398079 
-0.2196745355719385 1:0.10469447 2:0.46281594 7:0.31055527 9:0.21164 14:0.42017255 16:0.41344616 24:0.41860126 32:0.52622861 37:0.3325343 44:0.73173905 51:0.51094494 62:0.43589893 65:0.56571556 84:0.83843185 
-1 1:0.10469447 2:0.26129432 9:0.13352997 12:0.26398079 16:0.26085548 
-1 3:0.20524212 4:0.27009046 6:0.36472155 9:0.13352997 16:0.26085548 18:0.25482046 25:0.46715934 
-1 2:0.38278927 6:0.46022736 14:0.42017255 24:0.41860126 28:0.40388087 37:0.3325343 70:0.46328008 
-1 4:0.39567537 7:0.55006907 23:0.41728859 32:0.71841381 36:1.1535404 
-1 3:0.20524212 5:0.46849374 11:0.44830898 16:0.26085548 17:0.25094652 18:0.40388087 63:0.48025072 89:0.44806109 
-1 63:0.48025072 
-1 5:0.23424687 8:0.50158268 16:0.26085548 17:0.25094652 18:0.25482046 63:0.70355458 
-1 9:0.13352997 
-1 1:0.20938893 7:0.31055527 14:0.28681239 
-1 6:0.23011368 9:0.13352997 16:0.26085548 
-1 20:0.48615117 26:0.93329996 87:0.53443971 
-1 2:0.26129432 3:0.32530107 6:0.46022736 14:0.28681239 18:0.25482046 25:0.68437607 37:0.3325343 52:0.4750965 62:0.21794947 88:0.28285147 
-1 1:0.10469447 42:0.41298942 91:0.56571556 
-0.9102474340646879 1:0.10469447 15:0.46009125 42:0.41298942 
-1 16:0.26085548 
-1 6:0.23011368 
-1 1:0.20938893 2:0.38278927 4:0.27009046 7:0.31055527 9:0.21164 14:0.42017255 28:0.40388087 32:0.35920691 37:0.3325343 42:0.41298942 49:0.44663228 62:0.34544173 70:0.46328008 
-1 1:0.10469447 4:0.27009046 9:0.13352997 12:0.26398079 17:0.25094652 23:0.41728859 63:0.48025072 
-1 2:0.38278927 3:0.20524212 12:0.26398079 14:0.28681239 88:0.28285147 
-1 1:0.10469447 49:0.44663228 
-1 1:0.10469447 4:0.39567537 7:0.31055527 9:0.21164 16:0.26085548 17:0.25094652 18:0.25482046 
-1 2:0.26129432 4:0.27009046 9:0.13352997 13:0.77988082 21:0.4495057 50:0.85152322 62:0.21794947 88:0.28285147 
-1 1:0.10469447 2:0.26129432 3:0.20524212 4:0.47839603 7:0.45495524 9:0.26705994 16:0.26085548 32:0.35920691 35:0.46821409 62:0.21794947 
-1 3:0.20524212 12:0.26398079 
-1 3:0.20524212 6:0.23011368 
-0.0063743456238842 1:0.1659368 14:0.28681239 24:0.41860126 52:0.4750965 87:0.53443971 
-1 9:0.13352997 22:0.71947446 48:0.75582938 66:0.4750965 
-1 2:0.38278927 14:0.28681239 
-1 4:0.27009046 7:0.31055527 9:0.13352997 12:0.26398079 16:0.41344616 17:0.25094652 18:0.25482046 32:0.35920691 
-1 3:0.20524212 5:0.3712725 8:0.50158268 11:0.44830898 18:0.40388087 63:0.70355458 
-1 1:0.10469447 4:0.27009046 6:0.23011368 9:0.13352997 42:0.41298942 
-1 1:0.10469447 2:0.26129432 5:0.23424687 7:0.31055527 9:0.13352997 16:0.41344616 17:0.25094652 62:0.21794947 
-1 3:0.32530107 8:0.50158268 78:0.56929758 
-1 1:0.1659368 2:0.26129432 3:0.20524212 6:0.23011368 7:0.31055527 17:0.25094652 28:0.40388087 62:0.21794947 88:0.28285147 
-1 15:0.46009125 60:0.49205002 
-1 1:0.10469447 9:0.13352997 21:0.4495057 37:0.3325343 50:0.85152322 67:0.93329996 92:0.77988082 
-1 1:0.20938893 6:0.23011368 7:0.31055527 14:0.28681239 
-1 3:0.32530107 5:0.23424687 11:0.44830898 25:0.46715934 39:0.43971343 51:0.51094494 69:0.51153428 90:0.43704526 
-0.2495513744298443 18:0.25482046 82:0.62230633 89:0.44806109 91:0.56571556 
-1 3:0.32530107 5:0.54390438 11:0.89661796 16:0.26085548 18:0.40388087 25:0.82745307 27:0.62230633 51:0.90500803 54:0.56653222 56:0.48615117 68:0.58884671 89:0.71016003 
-1 80:0.61696944 89:0.44806109 
-1 1:0.10469447 15:0.46009125 60:0.49205002 
-1 1:0.10469447 6:0.23011368 9:0.13352997 16:0.26085548 17:0.25094652 18:0.25482046 32:0.35920691 
-1 1:0.10469447 12:0.26398079 
-1 1:0.10469447 4:0.27009046 9:0.13352997 21:0.4495057 66:0.4750965 
-1 3:0.20524212 48:0.75582938 72:0.46490415 
-1 2:0.26129432 4:0.27009046 6:0.36472155 9:0.13352997 16:0.26085548 51:0.51094494 62:0.21794947 
-1 1:0.1659368 4:0.27009046 7:0.31055527 9:0.13352997 32:0.35920691 
-0.9974587582871483 6:0.23011368 34:0.42566977 39:0.43971343 
-1 3:0.20524212 5:0.3712725 6:0.23011368 11:0.44830898 17:0.25094652 18:0.25482046 63:0.48025072 88:0.28285147 
-0.3233109627997954 1:0.10469447 55:0.49822765 
-1 3:0.53054319 5:0.54390438 8:0.50158268 11:0.44830898 18:0.40388087 25:0.68437607 39:0.43971343 51:0.90500803 54:0.56653222 63:0.48025072 
-1 2:0.26129432 29:0.39844827 
-1 1:0.10469447 2:0.26129432 9:0.13352997 52:0.4750965 87:0.53443971 
-1 13:0.77988082 26:0.93329996 57:0.50922032 67:0.58884671 
-1 13:0.77988082 33:0.7394621 50:0.85152322 73:0.58469603 92:0.77988082 
-1 1:0.10469447 31:0.53168727 64:0.59313351 
-1 3:0.41048425 5:0.46849374 11:0.79406448 18:0.40388087 25:0.82745307 43:0.59847396 51:0.74852081 65:0.56571556 
-1 2:0.26129432 3:0.32530107 5:0.3712725 6:0.36472155 9:0.13352997 14:0.50801465 16:0.26085548 20:0.48615117 31:1.0633745 37:0.48715395 51:0.74852081 63:0.48025072 88:0.56570295 90:0.43704526 
-1 12:0.26398079 
-1 3:0.20524212 8:0.50158268 18:0.25482046 90:0.43704526 
-0.0630069663934803 5:0.23424687 38:0.67854384 48:0.75582938 76:0.51388994 
-0.5251321409269218 5:0.23424687 6:0.23011368 9:0.13352997 12:0.26398079 17:0.25094652 
-1 1:0.10469447 60:0.49205002 
-1 1:0.10469447 49:0.44663228 
-1 79:0.58469603 
-1 9:0.13352997 
-1 3:0.32530107 5:0.23424687 6:0.23011368 11:0.44830898 22:0.90787569 25:0.46715934 28:0.40388087 39:0.43971343 48:0.75582938 51:0.51094494 58:0.91415918 59:0.46167594 76:0.81449629 
-1 1:0.10469447 6:0.23011368 
-1 1:0.10469447 3:0.20524212 12:0.26398079 
-1 3:0.32530107 5:0.46849374 11:0.65676078 18:0.50964091 25:0.68437607 34:0.67467063 41:0.46328008 51:0.51094494 54:0.56653222 
-1 26:0.93329996 64:0.59313351 
-1 1:0.10469447 4:0.27009046 7:0.31055527 9:0.13352997 11:0.44830898 16:0.41344616 32:0.35920691 
-1 1:0.1659368 2:0.26129432 4:0.27009046 6:0.36472155 9:0.26705994 11:0.44830898 16:0.26085548 23:0.41728859 28:0.59167478 32:0.35920691 37:0.48715395 47:1.0459431 55:0.49822765 62:0.21794947 90:0.43704526 
-1 3:0.41048425 5:0.3712725 6:0.23011368 8:0.50158268 11:0.44830898 12:0.26398079 17:0.25094652 18:0.50964091 25:0.46715934 43:0.59847396 51:0.51094494 54:0.56653222 63:0.48025072 
-1 1:0.1659368 2:0.26129432 3:0.20524212 6:0.23011368 7:0.31055527 9:0.21164 11:0.65676078 17:0.25094652 25:0.46715934 39:0.43971343 88:0.28285147 90:0.43704526 
-1 17:0.25094652 
-1 1:0.1659368 2:0.26129432 3:0.41048425 5:0.23424687 6:0.46022736 9:0.13352997 11:0.44830898 12:0.26398079 14:0.28681239 16:0.41344616 18:0.40388087 25:0.82745307 28:0.40388087 32:0.35920691 37:0.3325343 43:0.59847396 51:0.51094494 62:0.34544173 88:0.56570295 
-1 3:0.20524212 30:0.88572958 59:0.46167594 
-1 19:0.86073412 
-1 3:0.20524212 16:0.26085548 
-1 1:0.10469447 42:0.41298942 91:0.56571556 
-1 3:0.20524212 10:0.72922737 17:0.25094652 33:0.46654864 
-1 3:0.32530107 5:0.46849374 8:0.50158268 16:0.41344616 18:0.40388087 25:0.46715934 39:0.43971343 51:0.51094494 63:0.70355458 
-1 1:0.1659368 14:0.28681239 29:0.39844827 84:0.5289916 
-1 1:0.10469447 4:0.27009046 9:0.13352997 
-1 1:0.10469447 4:0.27009046 9:0.13352997 
-1 1:0.10469447 2:0.38278927 4:0.39567537 7:0.31055527 9:0.21164 14:0.28681239 24:0.41860126 28:0.40388087 37:0.3325343 42:0.41298942 49:0.44663228 62:0.34544173 
-1 9:0.13352997 
-1 3:0.20524212 46:0.56222907 69:0.51153428 82:0.62230633 
-0.5376693692065652 1:0.10469447 49:0.44663228 
-1 1:0.10469447 31:0.53168727 
-1 1:0.10469447 3:0.20524212 4:0.27009046 6:0.23011368 9:0.13352997 
-1 31:0.53168727 80:0.61696944 
-1 4:0.27009046 17:0.25094652 21:0.4495057 
-1 5:0.23424687 6:0.23011368 11:0.44830898 12:0.26398079 18:0.40388087 20:0.48615117 41:0.46328008 63:0.48025072 
-1 1:0.10469447 24:0.41860126 
-1 1:0.10469447 12:0.26398079 16:0.26085548 18:0.25482046 
-1 68:0.58884671 
-1 4:0.27009046 16:0.26085548 
-0.1411981360835102 5:0.23424687 72:0.73685564 92:0.77988082 
-1 6:0.23011368 
-1 2:0.38278927 6:0.46022736 14:0.42017255 17:0.25094652 18:0.25482046 20:0.48615117 25:0.46715934 28:0.40388087 37:0.3325343 45:0.47687524 
-1 4:0.27009046 44:0.46167594 
-1 1:0.1659368 6:0.36472155 7:0.31055527 10:0.72922737 14:0.28681239 23:0.41728859 38:0.4281135 55:0.49822765 
-1 4:0.39567537 7:0.31055527 16:0.26085548 23:0.41728859 32:0.35920691 34:0.42566977 39:0.43971343 51:0.51094494 52:0.75301014 79:0.58469603 81:1.0241113 
-1 10:1.0682988 13:0.77988082 33:0.46654864 38:0.4281135 48:0.75582938 50:0.85152322 58:0.91415918 72:0.46490415 75:0.77988082 
-1 1:0.24309302 4:0.27009046 6:0.36472155 7:0.31055527 9:0.21164 14:0.50801465 28:0.59167478 32:0.35920691 62:0.34544173 
-1 19:0.86073412 89:0.44806109 
-1 1:0.10469447 2:0.26129432 4:0.27009046 6:0.36472155 9:0.26705994 14:0.28681239 16:0.26085548 18:0.25482046 23:0.41728859 32:0.35920691 37:0.3325343 62:0.34544173 90:0.43704526 
-0.8284894104573721 12:0.26398079 84:0.5289916 
-1 38:0.4281135 64:0.59313351 75:0.77988082 
-1 1:0.1659368 4:0.27009046 6:0.23011368 9:0.21164 12:0.26398079 37:0.3325343 
-1 15:0.46009125 
-1 1:0.10469447 2:0.57031623 9:0.13352997 14:0.57362477 28:0.59167478 37:0.58899931 62:0.21794947 
-0.06904375657546609 3:0.20524212 5:0.23424687 8:0.50158268 11:0.44830898 18:0.40388087 25:0.46715934 34:0.67467063 51:0.51094494 65:0.56571556 69:0.51153428 73:0.92672127 80:0.61696944 83:0.5555232 
-1 1:0.10469447 2:0.26129432 4:0.27009046 9:0.21164 
-1 4:0.47839603 7:0.45495524 32:0.35920691 
-1 15:0.46009125 
-1 1:0.10469447 3:0.32530107 4:0.27009046 6:0.36472155 8:0.50158268 9:0.26705994 16:0.41344616 18:0.25482046 22:0.45393784 28:0.40388087 37:0.3325343 51:0.51094494 70:0.73428155 76:0.51388994 81:1.0241113 
-1 3:0.20524212 6:0.23011368 
-1 
-1 2:0.61004844 14:0.62601345 22:0.71947446 28:0.71537146 37:0.66506861 
-1 1:0.10469447 6:0.23011368 17:0.25094652 18:0.25482046 
-1 2:0.52258865 14:0.50801465 28:0.40388087 37:0.48715395 
-0.9749403036929243 1:0.10469447 42:0.41298942 91:0.56571556 
-1 2:0.26129432 12:0.26398079 29:0.39844827 43:0.59847396 82:0.62230633 88:0.28285147 
-1 3:0.20524212 22:0.45393784 
-1 1:0.10469447 2:0.26129432 3:0.20524212 4:0.27009046 9:0.21164 12:0.26398079 
-1 1:0.10469447 4:0.27009046 6:0.36472155 9:0.13352997 14:0.28681239 62:0.21794947 
-1 1:0.10469447 15:0.46009125 19:0.86073412 60:0.49205002 
-1 3:0.32530107 5:0.23424687 6:0.46022736 11:0.97850533 14:0.28681239 18:0.40388087 25:1.0196492 51:0.90500803 
-1 2:0.26129432 5:0.23424687 6:0.23011368 9:0.13352997 16:0.26085548 17:0.25094652 88:0.28285147 
-0.2468598726218487 1:0.10469447 49:0.44663228 84:0.5289916 91:0.56571556 
-1 3:0.32530107 5:0.23424687 6:0.23011368 12:0.26398079 16:0.26085548 25:0.46715934 54:0.56653222 62:0.21794947 
-1 9:0.13352997 
-0.7058025756428726 7:0.31055527 21:0.71244968 60:0.49205002 
-1 1:0.10469447 6:0.23011368 
-1 33:0.7394621 92:0.77988082 
-1 2:0.26129432 4:0.27009046 9:0.13352997 12:0.26398079 17:0.25094652 62:0.21794947 
-1 30:0.88572958 46:0.56222907 
-1 1:0.10469447 3:0.20524212 7:0.31055527 9:0.21164 17:0.25094652 22:0.45393784 32:0.52622861 66:0.75301014 88:0.28285147 
-1 18:0.25482046 
-0.815086536848773 3:0.32530107 5:0.23424687 11:0.44830898 15:0.72922737 20:0.48615117 25:0.46715934 34:0.67467063 51:0.51094494 69:0.51153428 78:0.56929758 90:0.43704526 
-1 3:0.20524212 10:1.0682988 33:0.46654864 48:0.75582938 76:0.51388994 
-1 3:0.32530107 5:0.3712725 11:0.44830898 17:0.25094652 19:0.86073412 54:0.56653222 
-0.677795445253499 1:0.1659368 7:0.31055527 12:0.41839965 14:0.28681239 44:0.46167594 65:0.56571556 
-1 9:0.13352997 
-1 1:0.10469447 10:0.72922737 22:0.71947446 37:0.3325343 62:0.21794947 
-1 1:0.10469447 3:0.20524212 16:0.26085548 88:0.28285147 
-1 30:0.88572958 59:0.46167594 
-1 9:0.13352997 
-1 1:0.10469447 4:0.27009046 7:0.31055527 9:0.13352997 16:0.41344616 29:0.39844827 32:0.35920691 62:0.21794947 
-1 26:0.93329996 57:0.50922032 
-1 3:0.32530107 5:0.3712725 6:0.23011368 11:0.44830898 12:0.41839965 14:0.28681239 25:0.46715934 51:0.51094494 54:0.56653222 
-1 3:0.20524212 33:0.46654864 
-1 1:0.10469447 2:0.26129432 9:0.13352997 
-1 1:0.20938893 2:0.38278927 9:0.21164 14:0.42017255 23:0.41728859 28:0.40388087 37:0.3325343 
-1 
-1 2:0.57031623 14:0.62601345 28:0.40388087 37:0.66506861 
-0.07712878189328425 1:0.10469447 24:0.41860126 46:0.56222907 
-1 1:0.10469447 4:0.27009046 6:0.23011368 9:0.13352997 45:0.47687524 
-1 3:0.20524212 5:0.23424687 8:0.50158268 18:0.25482046 63:0.70355458 
-1 1:0.29391453 7:0.45495524 14:0.50801465 23:0.41728859 28:0.59167478 
-1 1:0.10469447 2:0.26129432 5:0.23424687 6:0.23011368 9:0.21164 16:0.26085548 17:0.25094652 23:0.41728859 88:0.28285147 
-1 1:0.10469447 24:0.41860126 46:0.56222907 91:0.56571556 
-1 1:0.10469447 6:0.36472155 7:0.31055527 14:0.28681239 17:0.39774083 18:0.25482046 42:0.41298942 
-1 1:0.10469447 36:0.57677022 67:0.58884671 
-1 5:0.23424687 11:0.44830898 16:0.26085548 17:0.25094652 18:0.25482046 
-1 3:0.20524212 5:0.3712725 6:0.53430741 11:0.44830898 12:0.26398079 14:0.42017255 16:0.26085548 25:0.46715934 28:0.40388087 51:0.51094494 88:0.28285147 
-1 11:0.65676078 25:0.46715934 39:0.43971343 90:0.43704526 
-1 1:0.10469447 24:0.41860126 30:0.88572958 
-1 1:0.10469447 2:0.38278927 3:0.20524212 5:0.23424687 6:0.23011368 9:0.21164 12:0.6129444 14:0.50801465 17:0.25094652 28:0.40388087 37:0.66506861 43:0.59847396 51:0.51094494 54:0.56653222 62:0.21794947 63:0.48025072 88:0.44830898 
-1 4:0.27009046 5:0.23424687 6:0.23011368 9:0.21164 12:0.26398079 16:0.26085548 17:0.25094652 23:0.41728859 
-1 3:0.20524212 33:0.46654864 
-1 15:0.46009125 53:0.552295 
-1 1:0.10469447 2:0.26129432 4:0.27009046 6:0.23011368 9:0.21164 
-1 1:0.1659368 3:0.20524212 5:0.23424687 6:0.23011368 11:0.44830898 14:0.28681239 88:0.28285147 
-1 1:0.1659368 7:0.45495524 21:0.71244968 23:0.41728859 
-1 1:0.10469447 3:0.20524212 5:0.3712725 6:0.23011368 8:0.50158268 11:0.44830898 17:0.25094652 18:0.40388087 34:0.42566977 37:0.3325343 39:0.43971343 62:0.21794947 63:0.70355458 70:0.46328008 76:0.51388994 88:0.28285147 
-1 1:0.10469447 6:0.46022736 11:0.44830898 25:0.46715934 37:0.3325343 51:0.51094494 62:0.21794947 
-0.9468041224992758 3:0.20524212 56:0.48615117 82:0.62230633 
-0.5298611352990972 1:0.1659368 3:0.20524212 5:0.23424687 8:0.50158268 11:0.44830898 12:0.26398079 14:0.28681239 42:0.41298942 73:0.92672127 88:0.44830898 89:0.44806109 
-0.9803040161591281 9:0.13352997 40:1.5330076 41:0.46328008 42:0.41298942 56:0.48615117 
-1 4:0.27009046 16:0.26085548 17:0.25094652 18:0.25482046 
-1 10:0.72922737 33:0.7394621 48:0.75582938 75:0.77988082 
-0.3757210749273657 72:0.46490415 
-1 7:0.31055527 48:0.75582938 66:0.950193 
-1 12:0.26398079 15:0.46009125 29:0.39844827 91:0.56571556 
-1 2:0.26129432 3:0.20524212 6:0.36472155 12:0.26398079 19:0.86073412 28:0.40388087 37:0.3325343 51:0.51094494 88:0.28285147 
-1 1:0.10469447 3:0.20524212 4:0.27009046 9:0.13352997 17:0.25094652 88:0.28285147 
-1 3:0.20524212 17:0.25094652 
-0.1293788400652795 15:0.46009125 53:0.87536686 
-1 1:0.1659368 3:0.20524212 4:0.27009046 6:0.23011368 7:0.31055527 9:0.13352997 17:0.25094652 28:0.40388087 32:0.35920691 
-1 11:0.79406448 25:0.68437607 39:0.43971343 51:0.51094494 90:0.43704526 
-1 66:0.4750965 
-1 1:0.10469447 2:0.26129432 4:0.27009046 9:0.13352997 17:0.25094652 21:0.4495057 28:0.40388087 37:0.3325343 42:0.41298942 49:0.44663228 50:1.247459 62:0.34544173 92:0.77988082 
-1 3:0.20524212 4:0.39567537 6:0.23011368 7:0.31055527 14:0.28681239 17:0.25094652 62:0.21794947 
-1 5:0.23424687 11:0.65676078 16:0.26085548 18:0.40388087 25:0.46715934 56:0.48615117 57:0.50922032 63:0.48025072 66:0.4750965 72:0.46490415 83:0.5555232 
-1 2:0.26129432 4:0.27009046 7:0.31055527 9:0.21164 12:0.26398079 17:0.39774083 32:0.35920691 60:0.49205002 62:0.21794947 
-1 1:0.10469447 3:0.20524212 4:0.27009046 6:0.23011368 9:0.13352997 12:0.26398079 37:0.3325343 62:0.21794947 
-1 39:0.43971343 
-1 1:0.10469447 2:0.26129432 4:0.47839603 7:0.45495524 9:0.21164 32:0.35920691 62:0.34544173 
-0.05515581419095331 1:0.10469447 44:0.46167594 
-1 26:0.93329996 57:0.50922032 87:0.53443971 
-1 1:0.10469447 2:0.26129432 6:0.23011368 9:0.13352997 17:0.25094652 18:0.25482046 55:0.49822765 88:0.28285147 
-1 1:0.10469447 2:0.26129432 4:0.27009046 9:0.21164 
-1 1:0.10469447 19:0.86073412 49:0.44663228 
-1 1:0.1659368 3:0.20524212 5:0.23424687 6:0.23011368 11:0.44830898 14:0.28681239 20:0.48615117 47:1.0459431 90:0.43704526 
-0.5180545759242304 1:0.10469447 2:0.26129432 4:0.27009046 9:0.21164 14:0.50801465 17:0.25094652 20:0.48615117 23:0.41728859 31:1.2345396 37:0.48715395 41:0.46328008 56:0.48615117 62:0.5633912 79:0.58469603 88:0.28285147 
-1 1:0.10469447 2:0.26129432 4:0.27009046 9:0.21164 45:0.47687524 70:0.46328008 
-1 1:0.20938893 4:0.39567537 7:0.45495524 9:0.13352997 14:0.28681239 16:0.26085548 23:0.41728859 32:0.35920691 35:0.46821409 36:0.57677022 62:0.21794947 65:0.56571556 
-1 3:0.20524212 19:0.86073412 56:0.48615117 
-0.2335202815225387 3:0.20524212 30:0.88572958 59:0.46167594 
-0.5344726302826675 75:0.77988082 86:0.65991664 
-1 2:0.38278927 9:0.13352997 12:0.26398079 14:0.28681239 17:0.25094652 62:0.21794947 88:0.28285147 
-1 4:0.39567537 7:0.31055527 
-1 3:0.20524212 5:0.23424687 11:0.65676078 18:0.25482046 25:0.46715934 
-1 1:0.1659368 2:0.26129432 3:0.32530107 4:0.27009046 5:0.23424687 6:0.23011368 9:0.13352997 11:0.65676078 16:0.41344616 17:0.39774083 18:0.50964091 23:0.41728859 24:0.41860126 25:0.46715934 32:0.35920691 43:0.8767485 45:0.47687524 46:0.56222907 62:0.34544173 84:0.5289916 
-1 4:0.27009046 17:0.25094652 
-1 1:0.10469447 2:0.46281594 6:0.53430741 11:0.44830898 14:0.50801465 16:0.26085548 17:0.25094652 18:0.25482046 20:0.97230233 25:0.46715934 28:0.71537146 34:0.42566977 37:0.66506861 45:0.47687524 62:0.43589893 70:0.46328008 81:1.0241113 88:0.28285147 90:0.43704526 93:1.1133743 
-1 1:0.10469447 
-1 15:0.72922737 53:0.552295 
-1 5:0.3712725 11:0.44830898 18:0.25482046 25:0.46715934 39:0.43971343 51:0.51094494 80:0.61696944 83:0.5555232 90:0.43704526 
-1 4:0.27009046 5:0.23424687 6:0.23011368 9:0.13352997 12:0.41839965 14:0.28681239 16:0.26085548 62:0.21794947 
-1 1:0.10469447 2:0.26129432 4:0.27009046 7:0.31055527 9:0.13352997 16:0.41344616 32:0.35920691 62:0.34544173 
-1 1:0.10469447 6:0.23011368 7:0.31055527 17:0.39774083 18:0.25482046 23:0.41728859 38:0.4281135 66:0.4750965 
-1 1:0.10469447 27:0.62230633 35:0.46821409 
-1 3:0.20524212 6:0.23011368 12:0.26398079 37:0.3325343 
-1 1:0.10469447 3:0.20524212 5:0.23424687 6:0.23011368 7:0.31055527 16:0.52171096 25:0.46715934 51:0.74852081 63:0.48025072 88:0.28285147 90:0.43704526 
-1 3:0.20524212 4:0.27009046 38:0.4281135 66:0.75301014 75:0.77988082 
-1 3:0.20524212 5:0.23424687 8:0.50158268 18:0.25482046 39:0.43971343 43:0.59847396 54:0.56653222 63:0.70355458 
-0.07048599629673184 3:0.20524212 68:0.58884671 
-0.6768102984352485 2:0.38278927 3:0.20524212 14:0.28681239 34:0.42566977 41:0.46328008 70:0.46328008 88:0.44830898 
-1 13:1.1425048 20:0.48615117 51:0.51094494 72:0.73685564 92:0.77988082 
-1 1:0.1659368 4:0.27009046 9:0.21164 35:0.46821409 37:0.3325343 
-1 9:0.21164 14:0.28681239 21:0.4495057 
-0.5986537585500439 5:0.23424687 6:0.23011368 9:0.13352997 12:0.26398079 17:0.25094652 
-1 9:0.13352997 40:0.8654978 42:0.65457275 
-1 1:0.1659368 6:0.23011368 7:0.31055527 17:0.25094652 18:0.25482046 
-1 5:0.23424687 11:0.65676078 15:0.46009125 16:0.26085548 18:0.25482046 25:0.46715934 56:0.48615117 69:0.51153428 89:0.44806109 
-1 1:0.1659368 14:0.28681239 
-1 1:0.24309302 2:0.26129432 4:0.27009046 9:0.34516997 12:0.26398079 17:0.25094652 23:0.41728859 28:0.59167478 29:0.39844827 32:0.52622861 37:0.48715395 62:0.21794947 88:0.28285147 
-1 5:0.23424687 6:0.23011368 9:0.21164 12:0.41839965 14:0.28681239 17:0.25094652 21:0.4495057 
-1 3:0.20524212 12:0.26398079 
-1 1:0.24309302 2:0.26129432 4:0.27009046 7:0.55006907 9:0.21164 14:0.28681239 32:0.52622861 37:0.3325343 62:0.43589893 
-1 3:0.32530107 5:0.46849374 8:0.50158268 11:0.44830898 12:0.41839965 18:0.25482046 43:0.59847396 54:0.82995471 57:0.50922032 63:0.48025072 85:0.6118419 
-0.4263054858063278 9:0.13352997 21:0.4495057 33:0.46654864 
-1 40:0.8654978 
-0.19660311410168 1:0.10469447 44:0.46167594 
-0.8344550511024361 1:0.10469447 44:0.46167594 
-1 4:0.39567537 7:0.31055527 
-1 18:0.25482046 20:0.77053137 34:0.42566977 81:1.0241113 90:0.43704526 
-1 1:0.10469447 42:0.41298942 91:0.56571556 
-1 3:0.32530107 25:0.46715934 
-1 5:0.23424687 7:0.31055527 16:0.26085548 17:0.39774083 
-1 7:0.31055527 16:0.26085548 52:0.75301014 
-1 1:0.1659368 3:0.20524212 5:0.23424687 6:0.36472155 13:1.1425048 14:0.28681239 17:0.25094652 18:0.25482046 33:0.46654864 34:0.42566977 38:0.4281135 52:0.4750965 63:0.70355458 72:0.46490415 86:0.65991664 88:0.28285147 92:0.77988082 
-1 1:0.10469447 4:0.27009046 5:0.23424687 9:0.13352997 16:0.26085548 17:0.25094652 48:0.75582938 66:0.75301014 76:0.81449629 88:0.28285147 
-1 1:0.10469447 24:0.41860126 
-1 2:0.38278927 14:0.28681239 29:0.63152556 84:1.0579832 
-1 3:0.20524212 5:0.23424687 6:0.23011368 12:0.41839965 17:0.25094652 18:0.25482046 37:0.3325343 43:0.59847396 54:0.56653222 63:0.48025072 
-1 11:0.44830898 18:0.40388087 20:0.77053137 34:0.67467063 81:1.0241113 90:0.69270035 
-1 1:0.1659368 2:0.26129432 9:0.13352997 14:0.28681239 16:0.26085548 17:0.25094652 22:0.71947446 37:0.3325343 62:0.34544173 88:0.28285147 
-1 26:0.93329996 87:0.53443971 
-1 1:0.1659368 2:0.38278927 4:0.39567537 7:0.55006907 9:0.26705994 14:0.28681239 16:0.41344616 23:0.61131674 32:0.52622861 34:0.42566977 39:0.43971343 51:0.51094494 62:0.34544173 90:0.43704526 
-1 3:0.20524212 5:0.23424687 11:0.44830898 16:0.26085548 
-0.5452301866676357 5:0.23424687 38:0.67854384 48:0.75582938 76:0.51388994 
-1 30:0.88572958 33:0.7394621 48:0.75582938 77:0.62787039 
-1 8:0.50158268 17:0.39774083 76:0.51388994 
-1 1:0.1659368 2:0.26129432 4:0.27009046 7:0.31055527 9:0.26705994 12:0.26398079 16:0.26085548 24:0.41860126 28:0.40388087 32:0.35920691 37:0.3325343 78:0.56929758 
-1 5:0.23424687 10:0.72922737 13:1.1425048 33:0.46654864 38:0.4281135 92:0.77988082 
-1 1:0.10469447 13:0.77988082 
-1 1:0.10469447 4:0.27009046 9:0.13352997 
-1 1:0.10469447 2:0.26129432 4:0.27009046 9:0.21164 12:0.26398079 16:0.26085548 18:0.25482046 
-1 1:0.20938893 4:0.27009046 5:0.23424687 7:0.31055527 9:0.13352997 14:0.28681239 16:0.26085548 17:0.25094652 32:0.35920691 62:0.21794947 88:0.28285147 
-1 8:0.50158268 17:0.39774083 
-1 5:0.23424687 6:0.23011368 9:0.13352997 11:0.44830898 12:0.26398079 16:0.41344616 18:0.25482046 32:0.35920691 
-1 2:0.26129432 9:0.13352997 12:0.26398079 17:0.25094652 26:0.93329996 57:0.50922032 84:0.5289916 87:0.53443971 
-0.550475372948909 1:0.10469447 2:0.26129432 4:0.27009046 9:0.21164 31:0.53168727 45:0.47687524 52:0.4750965 55:0.49822765 71:1.0980183 
-1 9:0.13352997 36:0.57677022 87:0.53443971 
-1 5:0.23424687 25:0.46715934 34:0.67467063 39:0.43971343 
-1 6:0.53430741 11:0.44830898 14:0.28681239 25:0.68437607 51:0.51094494 
-0.4270191616407845 17:0.25094652 66:0.4750965 
-1 1:0.10469447 3:0.20524212 5:0.3712725 6:0.23011368 12:0.26398079 16:0.26085548 18:0.25482046 62:0.21794947 63:0.48025072 
-1 5:0.23424687 13:1.1425048 72:0.46490415 92:0.77988082 
-1 1:0.1659368 6:0.36472155 14:0.42017255 28:0.40388087 
-1 3:0.32530107 5:0.46849374 8:0.50158268 18:0.25482046 51:0.51094494 63:0.70355458 
-1 3:0.47655745 5:0.54390438 8:0.50158268 18:0.25482046 25:0.46715934 39:0.43971343 43:0.59847396 51:0.74852081 54:0.82995471 63:0.70355458 
-1 1:0.1659368 3:0.20524212 12:0.41839965 14:0.42017255 28:0.40388087 88:0.28285147 
-1 1:0.1659368 2:0.26129432 6:0.23011368 9:0.13352997 12:0.26398079 14:0.28681239 37:0.3325343 88:0.28285147 
-1 10:0.72922737 64:0.94009437 71:1.0980183 
-1 20:0.48615117 26:0.93329996 
-1 6:0.23011368 11:0.44830898 90:0.43704526 
-1 1:0.10469447 2:0.26129432 4:0.39567537 6:0.23011368 7:0.31055527 9:0.21164 11:0.44830898 12:0.26398079 17:0.25094652 18:0.25482046 28:0.59167478 34:0.42566977 37:0.3325343 62:0.34544173 70:0.46328008 
-1 1:0.34778749 4:0.27009046 6:0.36472155 7:0.62111053 9:0.13352997 12:0.26398079 14:0.6696259 23:0.73911981 28:0.80776174 32:0.52622861 62:0.34544173 88:0.28285147 
-1 1:0.10469447 2:0.38278927 7:0.31055527 9:0.13352997 14:0.28681239 17:0.39774083 44:0.46167594 62:0.21794947 84:0.83843185 88:0.28285147 
-1 1:0.1659368 4:0.27009046 9:0.21164 16:0.26085548 29:0.39844827 37:0.3325343 
-1 1:0.24309302 4:0.27009046 6:0.46022736 7:0.31055527 9:0.13352997 14:0.42017255 23:0.61131674 28:0.40388087 32:0.35920691 62:0.34544173 
-1 10:0.72922737 33:0.7394621 48:0.75582938 66:0.4750965 75:0.77988082 
-1 5:0.23424687 6:0.23011368 7:0.31055527 9:0.21164 12:0.26398079 17:0.39774083 52:0.4750965 
-1 10:0.72922737 66:0.4750965 
-0.110948101633871 10:0.72922737 33:0.46654864 76:0.51388994 
-1 1:0.10469447 3:0.32530107 6:0.23011368 25:0.46715934 89:0.44806109 
-1 1:0.10469447 6:0.23011368 
-1 3:0.20524212 38:0.4281135 75:0.77988082 
-1 1:0.10469447 4:0.27009046 5:0.23424687 9:0.13352997 16:0.26085548 17:0.25094652 88:0.28285147 
-1 3:0.20524212 4:0.27009046 6:0.23011368 17:0.25094652 62:0.21794947 
-1 1:0.10469447 2:0.26129432 4:0.27009046 9:0.21164 27:0.62230633 35:0.46821409 42:0.41298942 49:0.44663228 
-1 9:0.13352997 
-1 13:0.77988082 22:0.45393784 
-1 17:0.25094652 52:0.4750965 63:0.48025072 
-1 1:0.10469447 
-1 1:0.10469447 3:0.20524212 5:0.23424687 6:0.23011368 16:0.26085548 51:0.51094494 63:0.48025072 88:0.28285147 
-1 9:0.13352997 
-1 2:0.26129432 3:0.20524212 12:0.26398079 
-1 5:0.23424687 6:0.23011368 9:0.13352997 11:0.44830898 12:0.26398079 17:0.25094652 18:0.25482046 
-1 2:0.26129432 5:0.23424687 6:0.36472155 8:0.50158268 11:0.44830898 12:0.26398079 18:0.25482046 28:0.40388087 34:0.42566977 37:0.3325343 63:0.70355458 70:0.46328008 88:0.28285147 
-1 3:0.20524212 38:0.4281135 75:0.77988082 
-1 1:0.1659368 2:0.26129432 6:0.23011368 9:0.21164 16:0.26085548 23:0.41728859 28:0.40388087 37:0.3325343 
-1 12:0.26398079 82:0.62230633 
-1 3:0.20524212 38:0.4281135 75:0.77988082 
-1 3:0.20524212 5:0.23424687 6:0.36472155 17:0.25094652 18:0.25482046 25:0.46715934 62:0.21794947 63:0.48025072 88:0.28285147 
-1 1:0.10469447 16:0.26085548 
-1 1:0.10469447 3:0.20524212 5:0.23424687 6:0.23011368 11:0.89661796 16:0.26085548 25:0.82745307 51:0.90500803 
-1 4:0.39567537 7:0.31055527 
-1 11:0.44830898 33:0.46654864 38:0.4281135 48:1.3387581 51:0.51094494 72:0.73685564 90:0.43704526 
-1 8:0.73480535 43:0.59847396 54:0.56653222 56:0.77053137 63:0.70355458 
-0.1062396939632256 3:0.20524212 68:0.58884671 
-0.8564181439338798 1:0.10469447 15:0.46009125 42:0.41298942 
-1 1:0.10469447 40:0.8654978 49:0.44663228 
-1 1:0.10469447 44:0.46167594 
-1 30:0.88572958 59:0.46167594 
-0.2067787180504579 3:0.20524212 5:0.60551937 6:0.23011368 8:0.50158268 11:0.44830898 12:0.26398079 18:0.50964091 29:0.39844827 34:0.42566977 41:0.46328008 42:0.41298942 43:0.59847396 63:0.70355458 
-1 67:0.58884671 72:0.73685564 92:0.77988082 
-1 13:1.1425048 92:0.77988082 
-1 1:0.10469447 2:0.26129432 4:0.27009046 9:0.21164 
-1 1:0.10469447 3:0.20524212 5:0.3712725 6:0.23011368 9:0.13352997 11:0.44830898 12:0.41839965 14:0.28681239 16:0.41344616 18:0.25482046 32:0.35920691 43:0.59847396 62:0.21794947 88:0.28285147 
-0.02393850509997355 1:0.10469447 49:0.44663228 
-1 27:0.62230633 53:0.552295 
-1 3:0.20524212 16:0.26085548 
-1 2:0.52258865 14:0.57362477 31:0.53168727 37:0.48715395 
-1 3:0.20524212 5:0.23424687 11:0.44830898 39:0.43971343 90:0.43704526 
-0.3478651161489268 1:0.10469447 24:0.41860126 46:0.56222907 
-1 3:0.20524212 76:0.51388994 
-1 1:0.1659368 2:0.26129432 6:0.36472155 9:0.21164 12:0.26398079 14:0.28681239 17:0.25094652 18:0.25482046 23:0.41728859 28:0.40388087 37:0.48715395 62:0.21794947 88:0.28285147 
-1 1:0.10469447 2:0.26129432 4:0.27009046 6:0.23011368 9:0.21164 11:0.44830898 16:0.26085548 
-1 1:0.10469447 12:0.26398079 
-1 1:0.1659368 6:0.23011368 9:0.13352997 12:0.26398079 14:0.28681239 16:0.26085548 32:0.35920691 62:0.21794947 88:0.28285147 
-1 3:0.32530107 5:0.46849374 6:0.36472155 8:0.50158268 12:0.26398079 18:0.40388087 25:0.46715934 30:0.88572958 51:0.51094494 59:0.46167594 63:0.70355458 69:0.51153428 88:0.44830898 
-1 3:0.20524212 5:0.23424687 16:0.26085548 63:0.48025072 
-0.02918542484713098 1:0.10469447 55:0.49822765 
-1 1:0.10469447 3:0.20524212 6:0.23011368 
-0.23636303619636 29:0.39844827 82:0.62230633 
-1 1:0.10469447 2:0.26129432 4:0.27009046 6:0.23011368 9:0.21164 
-1 1:0.10469447 44:0.46167594 
-1 10:1.2916394 22:0.71947446 48:1.10727 75:0.77988082 
-1 3:0.20524212 4:0.27009046 5:0.23424687 7:0.31055527 11:0.79406448 16:0.60568767 23:0.61131674 25:0.68437607 34:0.67467063 51:0.74852081 52:0.4750965 90:0.43704526 
-1 2:0.26129432 3:0.20524212 6:0.23011368 88:0.28285147 
-1 1:0.10469447 60:0.49205002 
-0.7517127185827571 2:0.26129432 6:0.23011368 13:0.77988082 17:0.25094652 21:0.4495057 32:0.35920691 33:0.46654864 38:0.4281135 76:0.51388994 
-1 16:0.26085548 
-0.2901906620240238 3:0.32530107 5:0.46849374 11:0.44830898 16:0.26085548 18:0.25482046 51:0.51094494 63:0.48025072 65:0.56571556 68:0.58884671 
-0.5140740720880977 2:0.26129432 5:0.23424687 6:0.23011368 11:0.44830898 12:0.26398079 25:0.46715934 34:0.42566977 38:0.67854384 51:0.51094494 76:0.51388994 86:0.65991664 
-1 1:0.10469447 55:0.49822765 
-1 1:0.10469447 4:0.27009046 6:0.23011368 9:0.13352997 17:0.25094652 88:0.28285147 
-1 2:0.26129432 5:0.23424687 6:0.36472155 12:0.26398079 14:0.28681239 37:0.3325343 88:0.28285147 
-1 1:0.1659368 7:0.45495524 16:0.41344616 17:0.25094652 23:0.41728859 
-1 1:0.1659368 4:0.27009046 5:0.23424687 7:0.45495524 9:0.13352997 16:0.26085548 17:0.39774083 32:0.52622861 62:0.21794947 88:0.28285147 
-1 5:0.23424687 13:0.77988082 72:0.46490415 
-1 3:0.20524212 80:0.61696944 89:0.44806109 
-1 1:0.10469447 3:0.20524212 4:0.27009046 9:0.13352997 18:0.25482046 25:0.46715934 34:0.67467063 52:0.4750965 
-1 1:0.10469447 
-1 1:0.10469447 22:0.45393784 
-1 30:0.88572958 77:0.62787039 
-1 1:0.10469447 3:0.20524212 5:0.23424687 6:0.23011368 11:0.44830898 15:0.46009125 30:0.88572958 56:0.48615117 69:0.51153428 
-1 3:0.41048425 5:0.46849374 11:0.65676078 17:0.25094652 18:0.25482046 25:0.68437607 51:0.51094494 54:0.56653222 
-1 22:0.45393784 33:0.7394621 38:0.4281135 39:0.43971343 48:0.75582938 
-1 1:0.10469447 24:0.41860126 
-1 1:0.10469447 5:0.23424687 6:0.23011368 9:0.21164 10:0.72922737 12:0.41839965 14:0.28681239 16:0.26085548 17:0.25094652 18:0.25482046 23:0.41728859 32:0.35920691 38:0.4281135 40:0.8654978 
-1 1:0.10469447 12:0.26398079 
-1 1:0.1659368 2:0.38278927 4:0.27009046 8:0.50158268 9:0.21164 12:0.52796157 14:0.50801465 17:0.39774083 23:0.41728859 24:0.6634673 28:0.40388087 30:0.88572958 37:0.66506861 55:0.78967215 62:0.50606299 63:0.48025072 88:0.56570295 
-1 22:0.45393784 
-1 2:0.26129432 12:0.26398079 24:0.41860126 
-1 1:0.10469447 5:0.23424687 6:0.23011368 9:0.13352997 12:0.26398079 16:0.26085548 37:0.3325343 
-1 1:0.10469447 2:0.26129432 4:0.27009046 9:0.21164 
-1 1:0.10469447 3:0.20524212 12:0.26398079 
-1 15:0.46009125 67:0.58884671 
-1 1:0.20938893 6:0.23011368 7:0.31055527 14:0.28681239 
-1 2:0.38278927 3:0.32530107 5:0.46849374 6:0.36472155 12:0.26398079 14:0.50801465 25:0.46715934 28:0.71537146 34:0.42566977 37:0.48715395 43:0.59847396 54:0.56653222 63:0.48025072 70:0.73428155 72:0.46490415 88:0.56570295 
-1 1:0.10469447 3:0.20524212 17:0.25094652 
-1 1:0.10469447 15:0.72922737 40:0.8654978 42:0.41298942 
-1 1:0.10469447 2:0.26129432 3:0.20524212 5:0.3712725 6:0.23011368 8:0.50158268 9:0.13352997 11:0.44830898 12:0.26398079 17:0.39774083 18:0.25482046 28:0.40388087 37:0.3325343 39:0.43971343 41:0.46328008 43:0.59847396 45:0.47687524 54:0.56653222 59:0.46167594 63:0.48025072 88:0.28285147 
-1 1:0.10469447 24:0.41860126 30:0.88572958 
-1 3:0.20524212 6:0.36472155 18:0.25482046 25:0.46715934 37:0.3325343 39:0.43971343 
-1 3:0.20524212 50:0.85152322 72:0.46490415 
-0.9646736884224816 5:0.23424687 26:0.93329996 57:0.50922032 83:0.5555232 91:0.56571556 
-1 12:0.26398079 22:0.45393784 37:0.3325343 
-1 3:0.32530107 16:0.26085548 25:0.46715934 
-1 3:0.47655745 5:0.23424687 8:0.73480535 11:0.44830898 18:0.59167478 25:0.68437607 38:0.67854384 43:0.59847396 51:0.74852081 76:0.51388994 83:0.88048345 
-1 10:1.2916394 21:0.4495057 33:0.46654864 48:1.10727 58:0.91415918 66:0.4750965 74:1.057787 75:1.1425048 
-1 3:0.20524212 4:0.27009046 5:0.46849374 6:0.36472155 9:0.13352997 11:0.65676078 12:0.41839965 14:0.28681239 17:0.39774083 18:0.25482046 25:0.46715934 43:0.59847396 51:0.51094494 54:0.56653222 62:0.21794947 88:0.44830898 
-1 1:0.20938893 4:0.27009046 7:0.31055527 9:0.13352997 11:0.44830898 14:0.28681239 16:0.26085548 32:0.35920691 34:0.42566977 62:0.34544173 70:0.46328008 90:0.43704526 
-1 1:0.10469447 31:0.53168727 
-1 3:0.32530107 5:0.23424687 8:0.50158268 15:0.72922737 18:0.40388087 25:0.46715934 30:0.88572958 34:0.85133954 54:0.56653222 59:0.46167594 63:0.48025072 69:0.81076266 78:0.56929758 81:1.0241113 
-1 
-0.002207101420148428 1:0.10469447 49:0.44663228 
-1 1:0.10469447 40:0.8654978 42:0.41298942 91:0.56571556 
-1 6:0.36472155 11:0.65676078 25:0.46715934 37:0.3325343 
-1 11:0.65676078 16:0.52171096 25:0.46715934 32:0.35920691 51:0.74852081 52:0.4750965 
-1 3:0.41048425 5:0.46849374 8:0.50158268 11:0.44830898 18:0.25482046 51:0.51094494 54:0.56653222 63:0.48025072 
-1 1:0.20938893 7:0.31055527 9:0.26705994 12:0.41839965 14:0.42017255 16:0.41344616 17:0.25094652 21:0.4495057 23:0.41728859 31:0.53168727 32:0.63624299 49:0.44663228 50:0.85152322 62:0.34544173 79:0.58469603 
-1 2:0.26129432 5:0.23424687 11:0.65676078 16:0.41344616 17:0.25094652 18:0.25482046 23:0.41728859 25:0.46715934 29:0.39844827 62:0.21794947 65:0.56571556 
-1 1:0.1659368 14:0.28681239 
-0.202951383793321 1:0.10469447 4:0.27009046 6:0.23011368 9:0.21164 12:0.26398079 14:0.28681239 16:0.26085548 18:0.25482046 19:0.86073412 37:0.3325343 42:0.41298942 49:0.44663228 62:0.21794947 90:0.43704526 91:0.56571556 
-1 4:0.27009046 7:0.55006907 8:0.50158268 16:0.60568767 17:0.25094652 18:0.25482046 25:0.46715934 32:0.52622861 36:0.57677022 63:0.70355458 
-1 19:0.86073412 89:0.44806109 
-0.9862559121353055 1:0.10469447 44:0.46167594 
-1 9:0.13352997 36:0.57677022 87:0.53443971 
-1 1:0.1659368 2:0.26129432 4:0.27009046 7:0.31055527 9:0.21164 12:0.41839965 14:0.28681239 16:0.26085548 17:0.25094652 20:0.48615117 32:0.52622861 37:0.3325343 41:0.46328008 43:0.59847396 45:0.47687524 62:0.34544173 88:0.28285147 
-1 3:0.20524212 5:0.3712725 11:0.44830898 34:0.42566977 41:0.46328008 51:0.51094494 
-1 1:0.10469447 2:0.38278927 3:0.20524212 4:0.27009046 6:0.23011368 9:0.21164 14:0.28681239 16:0.26085548 39:0.43971343 62:0.21794947 88:0.28285147 
-1 1:0.20938893 2:0.46281594 4:0.27009046 6:0.23011368 7:0.31055527 9:0.31004699 11:0.65676078 14:0.42017255 16:0.26085548 17:0.25094652 25:0.46715934 28:0.80776174 32:0.35920691 37:0.48715395 45:0.75582938 62:0.50606299 88:0.28285147 93:1.1133743 
-1 
-1 1:0.10469447 44:0.46167594 
-1 4:0.27009046 7:0.31055527 17:0.39774083 19:0.86073412 32:0.35920691 45:0.47687524 79:0.58469603 
-1 1:0.10469447 7:0.31055527 17:0.39774083 70:0.46328008 
-0.6820464916928595 6:0.23011368 67:0.58884671 87:0.53443971 
-1 1:0.10469447 2:0.26129432 3:0.20524212 4:0.27009046 9:0.21164 17:0.25094652 88:0.28285147 
-1 3:0.32530107 5:0.3712725 8:0.50158268 11:0.65676078 16:0.26085548 18:0.40388087 25:0.46715934 
-1 3:0.20524212 5:0.23424687 63:0.48025072 69:0.51153428 78:0.56929758 
-1 13:0.77988082 18:0.40388087 25:0.46715934 34:0.67467063 54:0.56653222 57:0.50922032 85:0.6118419 
-1 2:0.46281594 14:0.42017255 37:0.3325343 
-1 24:0.41860126 30:0.88572958 
-1 1:0.10469447 44:0.46167594 
-1 4:0.47839603 7:0.45495524 32:0.35920691 
-1 5:0.23424687 6:0.23011368 12:0.41839965 14:0.28681239 
-1 4:0.39567537 7:0.31055527 20:0.48615117 45:0.47687524 
-1 1:0.10469447 4:0.27009046 9:0.21164 12:0.26398079 16:0.26085548 17:0.25094652 23:0.41728859 32:0.35920691 
-1 10:1.0682988 22:0.90787569 37:0.3325343 48:0.75582938 58:0.91415918 75:1.1425048 
-1 13:1.1425048 92:0.77988082 
-1 3:0.32530107 5:0.3712725 8:0.50158268 11:0.44830898 
-1 1:0.20938893 2:0.46281594 4:0.47839603 6:0.36472155 7:0.45495524 9:0.34516997 14:0.57362477 16:0.26085548 23:0.61131674 28:0.59167478 32:0.35920691 37:0.58899931 62:0.6538484 
-1 15:0.46009125 
-1 1:0.10469447 4:0.27009046 9:0.13352997 
-1 1:0.1659368 2:0.26129432 3:0.20524212 5:0.23424687 7:0.31055527 8:0.73480535 9:0.21164 16:0.26085548 17:0.58267978 18:0.25482046 32:0.52622861 34:0.42566977 54:0.82995471 62:0.21794947 63:0.70355458 88:0.28285147 
-1 1:0.10469447 19:0.86073412 49:0.44663228 
-1 1:0.10469447 5:0.23424687 9:0.13352997 12:0.26398079 16:0.26085548 17:0.25094652 32:0.35920691 
-1 3:0.20524212 4:0.27009046 5:0.23424687 6:0.23011368 62:0.21794947 63:0.48025072 66:0.4750965 88:0.28285147 
-1 3:0.53054319 5:0.3712725 8:0.50158268 11:0.44830898 18:0.40388087 25:0.82745307 51:0.74852081 54:0.56653222 56:0.48615117 59:0.46167594 69:0.81076266 
-0.6295741744047084 38:0.4281135 64:0.59313351 71:1.0980183 
-1 1:0.10469447 6:0.23011368 66:0.4750965 
-1 7:0.31055527 17:0.25094652 21:0.8990114 92:0.77988082 
-1 10:0.72922737 22:0.45393784 
-1 1:0.10469447 2:0.46281594 4:0.27009046 5:0.23424687 6:0.53430741 9:0.26705994 12:0.26398079 14:0.57362477 16:0.41344616 25:0.68437607 28:0.71537146 37:0.3325343 38:0.67854384 62:0.43589893 88:0.44830898 
-1 1:0.1659368 4:0.27009046 9:0.21164 14:0.28681239 15:0.72922737 16:0.26085548 19:0.86073412 39:0.43971343 40:0.8654978 45:0.47687524 89:0.44806109 
-1 1:0.24309302 7:0.31055527 12:0.26398079 14:0.50801465 21:0.4495057 88:0.44830898 
-1 1:0.1659368 3:0.20524212 5:0.23424687 6:0.36472155 7:0.31055527 9:0.13352997 12:0.26398079 16:0.26085548 18:0.25482046 25:0.46715934 28:0.40388087 37:0.3325343 62:0.21794947 63:0.48025072 88:0.28285147 
-1 1:0.20938893 3:0.20524212 4:0.27009046 7:0.31055527 9:0.21164 14:0.28681239 17:0.25094652 30:0.88572958 31:0.53168727 32:0.35920691 70:0.46328008 
-1 1:0.10469447 44:0.46167594 
-1 2:0.61004844 14:0.6696259 28:0.71537146 37:0.72580877 
-1 5:0.23424687 6:0.23011368 9:0.21164 12:0.26398079 16:0.26085548 17:0.25094652 23:0.41728859 
-1 1:0.10469447 4:0.47839603 6:0.23011368 7:0.55006907 12:0.26398079 17:0.25094652 23:0.41728859 32:0.63624299 52:0.75301014 62:0.43589893 63:0.48025072 
-1 10:0.72922737 92:0.77988082 
-1 2:0.26129432 6:0.36472155 9:0.13352997 16:0.26085548 51:0.51094494 
-1 2:0.46281594 6:0.36472155 11:0.44830898 14:0.28681239 24:0.41860126 28:0.59167478 37:0.3325343 59:0.46167594 62:0.21794947 87:0.53443971 
-1 9:0.13352997 22:0.45393784 66:0.4750965 
-1 1:0.20938893 2:0.26129432 3:0.20524212 6:0.23011368 7:0.31055527 9:0.13352997 14:0.28681239 16:0.26085548 37:0.3325343 51:0.51094494 62:0.21794947 88:0.28285147 
-1 1:0.10469447 24:0.41860126 
-1 1:0.10469447 4:0.27009046 6:0.23011368 9:0.21164 16:0.26085548 17:0.25094652 18:0.25482046 27:0.62230633 37:0.3325343 65:0.56571556 84:0.5289916 88:0.28285147 
-1 26:0.93329996 36:0.57677022 
-0.8967185634442541 1:0.10469447 55:0.49822765 
-0.1340809805359657 2:0.26129432 3:0.20524212 5:0.23424687 6:0.23011368 24:0.41860126 30:0.88572958 59:0.46167594 63:0.48025072 69:0.51153428 88:0.44830898 
-1 
-1 2:0.38278927 8:0.50158268 12:0.26398079 14:0.28681239 15:0.46009125 20:0.48615117 40:0.8654978 49:0.44663228 53:0.87536686 63:0.70355458 88:0.56570295 
-1 5:0.3712725 25:0.46715934 72:0.73685564 
-1 2:0.26129432 6:0.36472155 9:0.21164 14:0.28681239 16:0.26085548 37:0.3325343 
-1 1:0.1659368 4:0.27009046 9:0.21164 12:0.26398079 21:0.4495057 37:0.3325343 79:0.58469603 
-1 1:0.10469447 4:0.27009046 9:0.21164 22:0.45393784 28:0.40388087 66:0.4750965 
-1 4:0.27009046 7:0.31055527 21:0.71244968 32:0.35920691 
-1 12:0.26398079 33:0.46654864 50:0.85152322 77:0.62787039 
-1 2:0.26129432 13:0.77988082 29:0.63152556 88:0.28285147 
-1 2:0.38278927 6:0.36472155 14:0.28681239 51:0.51094494 87:0.53443971 
-1 3:0.20524212 5:0.23424687 6:0.23011368 8:0.50158268 9:0.13352997 16:0.41344616 18:0.40388087 25:0.46715934 63:0.70355458 
-1 3:0.20524212 4:0.27009046 5:0.3712725 16:0.26085548 18:0.25482046 25:0.46715934 59:0.73173905 63:0.48025072 73:0.58469603 
-1 1:0.10469447 15:0.46009125 49:0.44663228 
-1 1:0.10469447 2:0.26129432 3:0.20524212 4:0.39567537 6:0.23011368 7:0.31055527 9:0.21164 21:0.4495057 29:0.39844827 62:0.21794947 88:0.44830898 
-0.8034568964875968 1:0.10469447 36:0.57677022 85:0.6118419 
-1 2:0.26129432 3:0.20524212 5:0.23424687 6:0.36472155 8:0.73480535 9:0.21164 11:0.44830898 13:0.77988082 16:0.41344616 18:0.40388087 22:0.45393784 23:0.41728859 25:0.46715934 28:0.40388087 38:0.4281135 43:0.8767485 50:0.85152322 51:0.51094494 62:0.21794947 70:0.46328008 72:0.46490415 76:0.51388994 83:0.88048345 92:0.77988082 
-0.1172237952717898 1:0.10469447 49:0.44663228 84:0.5289916 91:0.56571556 
-1 3:0.20524212 72:0.46490415 88:0.28285147 92:0.77988082 
-0.6738471569071218 1:0.10469447 7:0.31055527 16:0.41344616 45:0.47687524 
-1 1:0.10469447 24:0.41860126 46:0.56222907 
-1 1:0.10469447 2:0.46281594 3:0.41048425 4:0.27009046 6:0.23011368 8:0.50158268 9:0.21164 11:0.44830898 12:0.41839965 14:0.42017255 16:0.26085548 18:0.25482046 25:0.46715934 37:0.3325343 54:0.56653222 62:0.34544173 88:0.56570295 
-1 3:0.20524212 4:0.39567537 5:0.23424687 7:0.31055527 11:0.79406448 16:0.26085548 17:0.25094652 18:0.25482046 25:0.68437607 39:0.43971343 41:0.46328008 45:0.75582938 47:1.0459431 51:0.51094494 90:0.87409053 
-1 67:0.58884671 
-1 1:0.10469447 3:0.41048425 5:0.23424687 7:0.31055527 11:0.44830898 16:0.52171096 25:0.93431869 51:0.90500803 
-1 1:0.1659368 4:0.39567537 7:0.45495524 9:0.21164 32:0.52622861 52:0.4750965 
-1 3:0.20524212 68:0.58884671 
-1 27:0.9863322 40:0.8654978 42:0.41298942 81:1.0241113 
-1 1:0.1659368 5:0.23424687 6:0.36472155 7:0.31055527 12:0.26398079 14:0.28681239 88:0.28285147 
-1 2:0.38278927 6:0.23011368 12:0.26398079 14:0.28681239 88:0.28285147 
-1 1:0.10469447 2:0.26129432 6:0.23011368 9:0.13352997 38:0.4281135 
-1 3:0.20524212 5:0.23424687 11:0.44830898 72:0.46490415 
-1 3:0.41048425 5:0.54390438 8:0.50158268 11:0.65676078 18:0.40388087 25:0.46715934 54:0.82995471 
-1 1:0.10469447 4:0.39567537 7:0.31055527 9:0.13352997 17:0.25094652 22:0.45393784 38:0.4281135 63:0.48025072 89:0.44806109 
-1 8:0.50158268 10:0.72922737 20:0.48615117 33:0.7394621 48:0.75582938 56:0.48615117 67:0.93329996 75:0.77988082 77:0.62787039 
-1 4:0.27009046 9:0.13352997 16:0.26085548 22:0.45393784 66:0.4750965 
-1 3:0.20524212 38:0.67854384 48:0.75582938 
-1 4:0.84423521 7:1.0207328 21:0.4495057 23:1.3915396 32:1.2142052 
-1 5:0.23424687 6:0.23011368 11:0.44830898 12:0.26398079 18:0.25482046 
-0.1033407085093167 5:0.23424687 11:0.44830898 18:0.25482046 20:0.48615117 34:0.42566977 39:0.43971343 51:0.51094494 90:0.43704526 
-1 1:0.10469447 2:0.26129432 9:0.13352997 
-1 9:0.13352997 
-1 1:0.10469447 55:0.49822765 
-1 1:0.10469447 13:1.1425048 22:0.45393784 92:0.77988082 
-1 1:0.10469447 49:0.44663228 
-1 1:0.10469447 55:0.49822765 
-1 1:0.10469447 2:0.26129432 4:0.27009046 6:0.23011368 9:0.21164 65:0.56571556 84:0.5289916 
-1 4:0.39567537 7:0.31055527 
-1 2:0.46281594 8:0.50158268 9:0.13352997 12:0.26398079 14:0.42017255 17:0.39774083 37:0.3325343 62:0.21794947 88:0.44830898 
-1 
-1 1:0.10469447 9:0.13352997 12:0.26398079 16:0.26085548 17:0.25094652 18:0.25482046 32:0.35920691 
-1 1:0.10469447 3:0.20524212 5:0.23424687 11:0.44830898 12:0.26398079 17:0.25094652 54:0.56653222 
-1 1:0.10469447 3:0.57618749 5:0.23424687 6:0.36472155 8:0.88842519 12:0.26398079 16:0.26085548 17:0.25094652 18:0.71537146 25:0.82745307 34:0.85133954 37:0.3325343 43:0.8767485 52:0.4750965 62:0.21794947 63:0.48025072 88:0.28285147 
-1 19:0.86073412 
-1 1:0.10469447 44:0.46167594 
-1 10:1.2916394 48:1.10727 75:0.77988082 
-1 1:0.10469447 55:0.49822765 
-1 1:0.10469447 6:0.23011368 17:0.25094652 18:0.25482046 
-1 2:0.26129432 3:0.32530107 12:0.26398079 18:0.25482046 25:0.68437607 31:0.53168727 34:0.42566977 57:0.50922032 
-1 10:1.7025399 48:1.8630994 58:1.339219 74:2.6074169 75:1.8208014 
-1 1:0.1659368 2:0.26129432 5:0.23424687 6:0.36472155 9:0.13352997 12:0.41839965 14:0.28681239 18:0.25482046 37:0.3325343 62:0.34544173 
-0.3083573341206687 3:0.32530107 8:0.73480535 18:0.25482046 41:0.73428155 43:0.59847396 
-1 3:0.20524212 5:0.3712725 11:0.44830898 39:0.43971343 51:0.51094494 73:0.58469603 
-0.7597590440955604 1:0.1659368 7:0.31055527 9:0.13352997 29:0.63152556 37:0.3325343 44:0.46167594 62:0.21794947 
-0.602007468134259 1:0.10469447 3:0.20524212 6:0.23011368 16:0.26085548 51:0.51094494 79:0.58469603 
-0.1565159057476186 6:0.23011368 9:0.13352997 16:0.26085548 90:0.43704526 
-1 1:0.1659368 14:0.28681239 16:0.26085548 49:0.44663228 
-1 1:0.24309302 7:0.31055527 14:0.42017255 28:0.40388087 
-1 10:0.72922737 21:0.71244968 33:0.7394621 58:0.91415918 92:0.77988082 
-1 3:0.20524212 5:0.23424687 11:0.65676078 18:0.25482046 25:0.46715934 
-1 1:0.10469447 6:0.23011368 11:0.44830898 
-1 9:0.13352997 
-1 1:0.10469447 2:0.26129432 9:0.21164 32:0.35920691 45:0.47687524 55:0.49822765 
-1 1:0.10469447 2:0.26129432 6:0.36472155 14:0.28681239 37:0.3325343 62:0.21794947 
-1 1:0.10469447 3:0.20524212 9:0.13352997 12:0.26398079 16:0.26085548 17:0.25094652 32:0.35920691 37:0.3325343 62:0.21794947 
-1 1:0.10469447 4:0.27009046 9:0.13352997 12:0.41839965 14:0.28681239 62:0.21794947 
-1 9:0.13352997 
-1 5:0.23424687 7:0.31055527 16:0.26085548 17:0.39774083 21:0.4495057 34:0.42566977 
-1 3:0.20524212 68:0.58884671 
-1 13:0.77988082 33:0.46654864 
-1 1:0.10469447 24:0.41860126 
-1 2:0.26129432 29:0.39844827 
-1 1:0.10469447 2:0.26129432 3:0.20524212 9:0.13352997 16:0.26085548 88:0.28285147 
-1 11:0.44830898 39:0.43971343 47:1.0459431 90:0.69270035 
