svm_type c_svc
kernel_type linear
nr_class 2
total_sv 780
rho -0.405229
label 0 1
nr_sv 384 396
SV
1 4:0.21338848 13:0.75142839 31:0.48186729 
1 1:0.096643548 3:0.26610355 7:0.13235272 
1 5:0.24153859 7:0.13235272 8:0.23532178 11:0.26829324 47:0.2503161 
1 1:0.1932871 2:0.25932149 7:0.26470543 8:0.23532178 14:0.28577629 17:0.26318572 38:0.33180364 51:0.42359018 58:0.52904932 74:0.6447842 
1 1:0.096643548 2:0.37989911 7:0.13235272 8:0.3729762 14:0.41865469 26:0.40332031 38:0.33180364 
0.6953270814315866 21:1.0693841 
1 5:0.24153859 9:0.49644684 12:0.47126626 37:0.42975093 48:0.48731539 68:0.43523715 75:0.47663716 
1 1:0.096643548 4:0.21338848 8:0.23532178 
1 20:0.48731539 68:0.43523715 75:0.47663716 
1 7:0.13235272 
1 1:0.1531764 14:0.28577629 
1 1:0.096643548 11:0.26829324 
1 1:0.096643548 2:0.25932149 7:0.13235272 
1 1:0.096643548 2:0.25932149 7:0.13235272 47:0.2503161 
1 15:0.48731539 
1 3:0.26610355 
1 3:0.26610355 13:1.1008227 27:1.0729537 41:0.72525892 51:0.42359018 58:0.36113234 
1 1:0.096643548 
1 1:0.096643548 
1 11:0.42523472 21:0.53469206 
1 1:0.096643548 4:0.21338848 5:0.24153859 17:0.26318572 26:0.40332031 47:0.2503161 62:0.53469206 
1 1:0.096643548 3:0.26610355 7:0.13235272 17:0.4171395 62:0.53469206 
1 1:0.096643548 2:0.25932149 7:0.13235272 
1 6:0.30426597 17:0.52637145 32:0.49413161 
1 3:0.26610355 6:0.30426597 47:0.39674163 58:0.36113234 
1 13:1.1008227 25:2.0538515 50:0.498944 65:1.8125633 70:0.78604385 
1 5:0.24153859 7:0.20977409 8:0.3729762 17:0.4171395 32:0.49413161 47:0.2503161 51:0.42359018 
0.5705076369284203 1:0.096643548 3:0.47133424 6:0.30426597 7:0.26470543 8:0.3729762 14:0.28577629 17:0.26318572 51:0.75028145 58:0.36113234 74:0.40681353 
1 40:0.60572381 63:0.58074608 
1 4:0.21338848 8:0.23532178 47:0.2503161 
1 3:0.26610355 30:0.46440997 47:0.2503161 
1 4:0.21338848 5:0.24153859 9:0.49644684 
1 1:0.096643548 
1 3:0.26610355 47:0.2503161 
1 1:0.096643548 3:0.26610355 4:0.33821274 5:0.24153859 7:0.13235272 8:0.23532178 11:0.42523472 14:0.28577629 32:0.49413161 
1 2:0.25932149 
1 4:0.21338848 5:0.38282961 8:0.23532178 11:0.26829324 12:0.47126626 
1 4:0.33821274 5:0.38282961 9:0.72728147 21:0.53469206 
0.003242233269778635 1:0.1531764 3:0.26610355 7:0.20977409 38:0.33180364 
1 7:0.13235272 9:0.49644684 11:0.26829324 47:0.2503161 
1 1:0.22439937 3:0.26610355 6:0.30426597 7:0.26470543 8:0.3729762 11:0.26829324 14:0.28577629 17:0.4171395 26:0.40332031 32:0.49413161 51:0.62054839 58:0.6396534 74:0.40681353 
1 15:0.48731539 
1 4:0.42677697 21:0.53469206 32:0.49413161 
1 10:0.72880108 43:0.69891095 60:0.77683295 
1 1:0.096643548 24:0.41942433 36:0.46209601 72:0.59263934 
1 1:0.1531764 2:0.25932149 7:0.20977409 47:0.2503161 58:0.36113234 
1 1:0.096643548 4:0.21338848 5:0.24153859 8:0.23532178 11:0.53658647 14:0.50617946 26:0.40332031 47:0.2503161 
1 4:0.21338848 5:0.24153859 11:0.26829324 12:0.47126626 
1 4:0.21338848 7:0.13235272 8:0.23532178 11:0.26829324 21:0.53469206 47:0.39674163 
1 1:0.096643548 3:0.26610355 7:0.13235272 11:0.26829324 
1 37:0.42975093 68:0.43523715 
1 1:0.096643548 3:0.38983465 6:0.30426597 7:0.13235272 17:0.26318572 
1 5:0.24153859 9:0.49644684 17:0.26318572 47:0.2503161 
1 42:0.62026497 
0.6028034782400469 1:0.22439937 3:0.26610355 7:0.13235272 8:0.3729762 9:0.49644684 11:0.26829324 14:0.57155257 21:0.53469206 26:0.59085357 47:0.39674163 51:0.62054839 
1 1:0.096643548 2:0.25932149 4:0.21338848 7:0.20977409 26:0.40332031 38:0.33180364 
1 1:0.1531764 6:0.30426597 
1 3:0.26610355 
1 3:0.26610355 
0.4779383432292498 10:0.72880108 31:0.48186729 60:0.77683295 
1 1:0.096643548 
1 15:0.77237663 63:0.58074608 73:0.59263934 
1 4:0.21338848 5:0.24153859 12:0.6903926 32:0.49413161 
1 2:0.25932149 4:0.21338848 5:0.24153859 8:0.23532178 11:0.26829324 62:0.53469206 
1 4:0.33821274 5:0.24153859 8:0.23532178 11:0.26829324 21:0.53469206 
0.8860544239816837 10:0.72880108 13:1.5028568 31:0.96373457 41:0.45758743 
1 8:0.23532178 
0.003763242978435779 15:1.259692 22:1.5091546 34:1.5581635 46:1.6552501 64:1.7203256 
1 14:0.28577629 72:0.59263934 
1 1:0.096643548 2:0.25932149 7:0.13235272 
1 1:0.1531764 14:0.28577629 
0.4368500789523874 1:0.096643548 3:0.38983465 4:0.33821274 5:0.48307719 6:0.30426597 7:0.20977409 12:0.6903926 17:0.4171395 32:0.49413161 47:0.2503161 62:0.78330971 
1 1:0.1531764 5:0.24153859 8:0.3729762 11:0.42523472 14:0.41865469 26:0.40332031 
1 1:0.1531764 6:0.30426597 
1 8:0.3729762 32:0.49413161 
1 1:0.096643548 8:0.23532178 47:0.2503161 
0.03775032687623707 10:0.72880108 13:0.75142839 31:0.76374158 
1 2:0.25932149 
0.07039000481114156 1:0.1531764 3:0.38983465 6:0.44574159 7:0.13235272 47:0.39674163 51:0.42359018 58:0.52904932 
1 22:0.85203101 46:0.82762505 71:0.49012702 
1 42:0.62026497 
1 20:0.48731539 
0.7379501836899077 10:0.72880108 25:1.2887375 31:0.48186729 40:1.8171714 67:1.9687053 
1 10:1.7964754 36:1.0729537 38:0.33180364 60:2.003376 
1 2:0.25932149 8:0.23532178 11:0.26829324 
1 4:0.33821274 5:0.38282961 9:0.49644684 62:0.53469206 
1 1:0.1531764 2:0.6392206 3:0.26610355 4:0.21338848 5:0.24153859 7:0.37156105 8:0.3729762 11:0.42523472 12:0.6903926 14:0.50617946 17:0.26318572 26:0.88031044 32:0.49413161 38:0.58770513 47:0.39674163 
1 1:0.096643548 3:0.26610355 7:0.13235272 
1 1:0.096643548 2:0.25932149 7:0.13235272 
0.8780837827844784 25:1.5581635 65:1.023328 
1 1:0.096643548 4:0.21338848 5:0.24153859 8:0.23532178 9:0.49644684 
1 1:0.096643548 2:0.25932149 7:0.13235272 
0.003026751335331434 1:0.1932871 6:0.30426597 14:0.28577629 
1 1:0.096643548 2:0.25932149 7:0.13235272 
1 8:0.23532178 
1 4:0.33821274 5:0.38282961 9:0.72728147 21:0.53469206 
1 46:0.82762505 63:0.92046076 
1 1:0.096643548 
0.1561031290906593 1:0.22439937 2:0.45932156 7:0.26470543 8:0.3729762 14:0.57155257 17:0.26318572 26:0.88031044 38:0.66360728 51:0.42359018 62:0.53469206 
1 1:0.096643548 3:0.26610355 7:0.13235272 
1 3:0.26610355 6:0.30426597 17:0.52637145 32:0.49413161 58:0.36113234 
1 4:0.33821274 5:0.38282961 12:0.47126626 
1 34:0.8797002 
1 1:0.096643548 2:0.25932149 7:0.13235272 8:0.23532178 12:0.47126626 17:0.26318572 
1 4:0.21338848 5:0.38282961 8:0.3729762 11:0.42523472 38:0.33180364 62:0.53469206 
1 4:0.49547271 5:0.24153859 12:0.47126626 21:0.53469206 32:0.72388972 62:0.53469206 
1 4:0.49547271 5:0.38282961 12:0.47126626 21:0.53469206 32:0.49413161 62:0.53469206 
1 1:0.1531764 6:0.30426597 
0.1991548851190007 4:0.21338848 5:0.38282961 9:0.49644684 12:0.47126626 
1 1:0.1531764 11:0.26829324 14:0.28577629 
1 3:0.26610355 
0.4485749146520613 1:0.1531764 3:0.26610355 7:0.20977409 38:0.33180364 
1 1:0.1531764 2:0.25932149 7:0.20977409 58:0.36113234 
1 1:0.096643548 3:0.26610355 7:0.13235272 
1 1:0.22439937 2:0.25932149 6:0.30426597 7:0.34212681 11:0.42523472 14:0.41865469 26:0.40332031 38:0.33180364 47:0.2503161 58:0.6396534 
1 3:0.26610355 
0.3558229290069575 1:0.1932871 6:0.30426597 14:0.28577629 
1 1:0.28993064 2:0.37989911 3:0.26610355 6:0.44574159 7:0.34212681 8:0.3729762 11:0.53658647 14:0.70443098 26:0.80664062 36:0.46209601 38:0.66360728 51:0.62054839 53:0.75142839 58:0.36113234 74:1.0515977 
0.8756425126644427 1:0.1932871 6:0.30426597 14:0.28577629 
1 1:0.096643548 
1 1:0.1531764 6:0.30426597 47:0.2503161 
1 13:0.75142839 31:0.76374158 
1 1:0.096643548 
1 1:0.1531764 8:0.3729762 12:0.47126626 38:0.33180364 
1 4:0.42677697 5:0.38282961 12:0.47126626 32:0.49413161 62:0.53469206 
1 2:0.25932149 
1 2:0.37989911 4:0.21338848 8:0.23532178 14:0.28577629 
1 4:0.21338848 11:0.26829324 17:0.26318572 
1 4:0.33821274 5:0.24153859 12:0.47126626 32:0.49413161 62:0.53469206 
1 20:0.48731539 
1 2:0.25932149 11:0.26829324 
1 1:0.096643548 2:0.45932156 7:0.13235272 8:0.23532178 14:0.41865469 26:0.40332031 37:0.42975093 38:0.48608355 39:0.44695266 
1 1:0.1531764 2:0.25932149 7:0.20977409 58:0.36113234 
1 1:0.1932871 6:0.30426597 14:0.28577629 
1 38:0.33180364 45:0.85203101 52:1.1804657 
1 4:0.42677697 21:0.53469206 32:0.49413161 
1 4:0.64016545 5:0.62436821 7:0.20977409 8:0.23532178 9:0.99289368 11:0.53658647 17:0.26318572 20:0.77237663 21:1.2483549 32:0.72388972 37:0.85950187 38:0.33180364 47:0.75094829 48:0.77237663 51:0.42359018 57:0.46440997 58:0.36113234 62:0.78330971 68:0.68983456 75:0.47663716 
0.1679515929807428 1:0.1531764 3:0.26610355 7:0.20977409 38:0.33180364 
1 4:0.73820286 5:0.62436821 8:0.23532178 9:0.72728147 11:0.26829324 21:1.1670501 32:0.87522752 47:0.2503161 62:0.94706997 
1 1:0.1531764 3:0.38983465 6:0.30426597 7:0.20977409 47:0.2503161 51:0.42359018 58:0.52904932 
1 1:0.096643548 3:0.26610355 6:0.30426597 11:0.42523472 14:0.28577629 17:0.4171395 58:0.36113234 
1 1:0.1531764 2:0.37989911 6:0.30426597 7:0.26470543 8:0.23532178 14:0.28577629 17:0.4171395 26:0.59085357 38:0.48608355 
1 1:0.096643548 2:0.25932149 7:0.13235272 
1 6:0.5389292 47:0.50063219 
1 3:0.26610355 
1 5:0.24153859 8:0.23532178 11:0.26829324 
1 2:0.25932149 
1 12:0.6903926 32:0.49413161 37:0.42975093 68:0.43523715 
0.1259339475593552 2:0.25932149 8:0.23532178 9:0.72728147 12:0.47126626 21:0.53469206 39:0.44695266 57:0.73607239 59:1.5459422 68:0.43523715 75:0.47663716 
1 3:0.26610355 
0.9770865752016615 34:2.0538515 44:0.45982228 64:2.1199132 
1 1:0.1932871 6:0.30426597 14:0.28577629 
1 5:0.24153859 7:0.13235272 8:0.23532178 11:0.26829324 17:0.26318572 
1 4:0.21338848 5:0.24153859 12:0.47126626 37:0.42975093 68:0.43523715 
1 4:0.21338848 
0.344157869885258 4:0.21338848 5:0.38282961 9:0.49644684 12:0.6903926 17:0.26318572 32:0.49413161 
1 1:0.096643548 
1 1:0.1531764 3:0.26610355 6:0.60853194 17:0.52637145 51:0.62054839 58:0.52904932 
1 27:0.46209601 
1 1:0.096643548 2:0.25932149 7:0.13235272 
1 1:0.096643548 2:0.37989911 7:0.20977409 11:0.26829324 14:0.28577629 47:0.2503161 
1 7:0.13235272 41:0.45758743 45:0.53757171 
1 2:0.25932149 7:0.13235272 8:0.3729762 17:0.26318572 19:0.41140122 61:0.45539014 62:0.53469206 
1 1:0.1531764 2:0.60544242 3:0.26610355 7:0.20977409 11:0.26829324 14:0.6672069 26:0.80664062 27:0.46209601 38:0.72421398 41:0.45758743 47:0.2503161 
1 8:0.3729762 12:0.47126626 38:0.33180364 
1 1:0.1932871 6:0.30426597 14:0.28577629 
1 1:0.096643548 
1 1:0.1531764 2:0.25932149 7:0.20977409 58:0.36113234 
1 3:0.26610355 6:0.30426597 47:0.39674163 58:0.36113234 
1 2:0.60544242 8:0.54640026 12:0.6903926 14:0.70443098 24:0.66477184 26:0.88031044 32:0.72388972 38:0.81788719 62:0.78330971 
1 4:0.33821274 5:0.24153859 8:0.23532178 12:0.6903926 32:0.72388972 57:0.46440997 62:0.53469206 
1 4:0.42677697 5:0.24153859 9:0.49644684 21:0.53469206 32:0.49413161 
1 2:0.25932149 7:0.13235272 11:0.26829324 47:0.2503161 
1 1:0.1531764 3:0.26610355 7:0.20977409 38:0.33180364 
1 4:0.33821274 5:0.48307719 9:0.49644684 12:0.47126626 
1 1:0.1932871 6:0.30426597 14:0.28577629 
1 4:0.55160123 5:0.38282961 9:0.72728147 17:0.52637145 21:0.53469206 32:0.98826322 
1 4:0.21338848 8:0.23532178 
1 3:0.26610355 
1 6:0.30426597 12:0.47126626 17:0.4171395 
1 13:0.75142839 27:0.46209601 41:0.72525892 
1 1:0.1531764 2:0.25932149 6:0.30426597 7:0.13235272 10:1.0676743 14:0.28577629 17:0.26318572 27:0.46209601 31:0.96373457 36:0.46209601 38:0.33180364 60:1.1380397 61:0.45539014 
1 2:0.37989911 8:0.23532178 11:0.26829324 14:0.28577629 
1 1:0.1932871 6:0.30426597 14:0.28577629 
1 2:0.25932149 
1 1:0.24981995 6:0.44574159 14:0.41865469 26:0.40332031 51:0.42359018 
1 4:0.21338848 5:0.38282961 12:0.47126626 57:0.46440997 62:0.53469206 75:0.75545203 
1 1:0.096643548 2:0.25932149 3:0.26610355 7:0.26470543 8:0.23532178 17:0.26318572 26:0.40332031 38:0.33180364 
1 2:0.25932149 7:0.13235272 11:0.26829324 47:0.2503161 
1 1:0.1531764 3:0.26610355 7:0.20977409 14:0.28577629 
1 13:0.75142839 
1 1:0.096643548 2:0.25932149 7:0.13235272 
1 2:0.25932149 
1 27:0.46209601 60:0.77683295 
1 3:0.26610355 8:0.23532178 12:0.47126626 17:0.26318572 
1 1:0.1932871 6:0.30426597 14:0.28577629 
1 5:0.24153859 9:0.49644684 12:0.47126626 17:0.26318572 47:0.2503161 
1 15:0.48731539 63:0.58074608 73:0.93931113 
1 3:0.26610355 4:0.21338848 6:0.30426597 9:0.49644684 17:0.52637145 21:0.53469206 48:0.48731539 58:0.36113234 62:0.53469206 
1 4:0.21338848 5:0.24153859 12:0.6903926 32:0.49413161 
1 37:0.42975093 
1 1:0.096643548 
1 3:0.26610355 47:0.2503161 
1 1:0.1531764 3:0.38983465 6:0.30426597 7:0.20977409 17:0.26318572 51:0.42359018 58:0.52904932 
1 12:0.47126626 17:0.4171395 32:0.49413161 62:0.53469206 
1 1:0.1531764 3:0.26610355 7:0.20977409 38:0.33180364 
1 3:0.26610355 43:0.44096372 
1 1:0.096643548 4:0.21338848 5:0.24153859 6:0.30426597 11:0.26829324 17:0.4171395 47:0.2503161 62:0.53469206 
1 4:0.21338848 8:0.23532178 11:0.26829324 38:0.33180364 
1 2:0.25932149 37:0.42975093 75:0.47663716 
1 5:0.24153859 7:0.13235272 8:0.23532178 11:0.26829324 12:0.47126626 47:0.2503161 
1 5:0.24153859 7:0.13235272 8:0.3729762 11:0.26829324 14:0.28577629 47:0.2503161 
1 1:0.1531764 7:0.13235272 8:0.23532178 17:0.26318572 38:0.33180364 58:0.36113234 
1 12:0.47126626 43:0.44096372 
1 3:0.26610355 
1 2:0.37989911 8:0.23532178 12:0.6903926 14:0.28577629 36:0.46209601 43:0.44096372 
1 1:0.096643548 2:0.37989911 3:0.26610355 7:0.26470543 8:0.3729762 11:0.26829324 14:0.28577629 17:0.26318572 26:0.71437858 38:0.66360728 
0.632126574037344 1:0.1531764 8:0.23532178 12:0.47126626 14:0.28577629 
1 1:0.096643548 2:0.25932149 7:0.13235272 
1 9:0.49644684 48:0.48731539 
1 1:0.096643548 
1 1:0.096643548 2:0.25932149 7:0.13235272 17:0.26318572 
1 4:0.33821274 21:0.53469206 
1 2:0.25932149 
1 1:0.1932871 6:0.30426597 14:0.28577629 
1 1:0.1531764 8:0.23532178 14:0.28577629 
1 2:0.25932149 
1 1:0.1531764 11:0.26829324 14:0.28577629 
1 1:0.096643548 
1 2:0.37989911 7:0.13235272 8:0.23532178 11:0.26829324 14:0.28577629 17:0.26318572 
1 1:0.096643548 3:0.26610355 7:0.13235272 
1 1:0.096643548 2:0.25932149 3:0.26610355 7:0.20977409 8:0.23532178 17:0.26318572 51:0.42359018 
0.04134681080042717 35:1.478205 
1 1:0.1932871 6:0.30426597 14:0.28577629 
1 1:0.1531764 3:0.26610355 7:0.20977409 38:0.33180364 
1 3:0.26610355 
1 2:0.25932149 8:0.23532178 
1 1:0.1531764 2:0.25932149 7:0.20977409 58:0.36113234 
1 1:0.1531764 3:0.26610355 7:0.20977409 38:0.33180364 
1 2:0.25932149 7:0.13235272 11:0.26829324 21:0.53469206 47:0.39674163 
1 21:0.53469206 47:0.2503161 
1 3:0.26610355 
1 3:0.26610355 
1 1:0.096643548 4:0.21338848 5:0.24153859 8:0.3729762 9:0.49644684 32:0.49413161 
1 1:0.1932871 6:0.30426597 14:0.28577629 
1 1:0.096643548 2:0.25932149 7:0.13235272 
1 1:0.1932871 2:0.25932149 6:0.30426597 7:0.30731349 14:0.28577629 38:0.33180364 39:0.44695266 47:0.39674163 51:0.62054839 53:0.75142839 58:0.36113234 
1 1:0.096643548 8:0.23532178 47:0.2503161 
1 29:0.55978358 
1 5:0.24153859 7:0.13235272 8:0.23532178 11:0.26829324 17:0.26318572 
1 4:0.21338848 7:0.13235272 8:0.23532178 17:0.26318572 50:0.498944 62:0.53469206 
1 1:0.096643548 10:0.72880108 26:0.40332031 36:0.73240484 60:0.77683295 
1 1:0.1531764 4:0.42677697 6:0.30426597 8:0.23532178 11:0.26829324 17:0.4171395 26:0.40332031 32:0.49413161 38:0.33180364 
1 1:0.1932871 6:0.30426597 14:0.28577629 17:0.26318572 
1 2:0.25932149 
1 1:0.096643548 6:0.30426597 47:0.39674163 
1 1:0.1932871 6:0.30426597 14:0.28577629 
1 4:0.33821274 5:0.48307719 9:0.49644684 12:0.47126626 17:0.26318572 62:0.53469206 
1 1:0.1531764 3:0.26610355 6:0.30426597 7:0.13235272 47:0.2503161 58:0.36113234 
1 1:0.1531764 3:0.26610355 7:0.20977409 14:0.28577629 
1 6:0.30426597 11:0.26829324 13:1.3309628 17:0.26318572 27:0.73240484 41:0.72525892 43:0.44096372 
1 4:0.21338848 
1 1:0.1932871 6:0.30426597 14:0.28577629 
1 3:0.38983465 6:0.30426597 27:0.46209601 41:0.45758743 
1 3:0.26610355 9:0.49644684 27:0.46209601 41:0.45758743 
1 4:0.33821274 5:0.38282961 9:0.49644684 62:0.53469206 
1 10:0.72880108 
1 3:0.26610355 
1 1:0.096643548 
1 1:0.096643548 2:0.25932149 7:0.13235272 45:0.53757171 47:0.2503161 52:0.50839889 
1 1:0.096643548 4:0.33821274 5:0.38282961 12:0.6903926 32:0.49413161 47:0.2503161 
1 1:0.1531764 3:0.62127661 6:0.75000756 7:0.13235272 17:0.4171395 47:0.2503161 51:0.84718035 58:0.78822851 
1 2:0.37989911 8:0.47064356 14:0.57155257 26:0.59085357 38:0.48608355 
1 4:0.33821274 5:0.24153859 12:0.47126626 32:0.49413161 62:0.53469206 
1 3:0.26610355 
1 4:0.21338848 8:0.23532178 47:0.2503161 
1 16:0.36696837 19:0.41140122 
1 25:0.8797002 40:0.60572381 67:0.59263934 
1 1:0.1531764 3:0.47133424 6:0.5389292 7:0.13235272 17:0.26318572 47:0.39674163 51:0.75028145 58:0.6396534 
1 1:0.096643548 2:0.25932149 7:0.13235272 17:0.26318572 
1 1:0.1932871 6:0.30426597 14:0.28577629 
1 3:0.26610355 12:0.47126626 17:0.26318572 47:0.2503161 
1 2:0.25932149 4:0.21338848 8:0.23532178 
1 1:0.096643548 2:0.25932149 7:0.13235272 
1 1:0.096643548 3:0.26610355 7:0.13235272 
1 4:0.21338848 5:0.24153859 8:0.23532178 9:0.49644684 11:0.26829324 
1 4:0.33821274 5:0.38282961 9:0.49644684 62:0.53469206 
1 4:0.21338848 11:0.26829324 17:0.26318572 
1 1:0.096643548 8:0.23532178 10:0.72880108 36:0.46209601 43:0.44096372 
1 22:1.5091546 46:1.2124488 
1 1:0.1531764 3:0.26610355 7:0.20977409 14:0.28577629 
1 1:0.22439937 3:0.26610355 6:0.30426597 7:0.20977409 14:0.41865469 26:0.40332031 58:0.36113234 
1 4:0.33821274 5:0.38282961 12:0.47126626 
1 1:0.096643548 7:0.13235272 8:0.23532178 17:0.26318572 38:0.33180364 
1 1:0.096643548 10:1.0676743 13:0.75142839 27:0.46209601 36:0.92419201 38:0.33180364 41:0.45758743 60:0.77683295 
1 1:0.096643548 2:0.25932149 4:0.21338848 7:0.13235272 11:0.26829324 17:0.26318572 
1 1:0.096643548 
1 20:0.77237663 
1 4:0.33821274 5:0.48307719 9:0.72728147 17:0.26318572 21:0.53469206 47:0.2503161 
1 1:0.1932871 6:0.30426597 14:0.28577629 
1 1:0.1531764 3:0.26610355 6:0.30426597 7:0.13235272 17:0.26318572 58:0.36113234 
1 7:0.13235272 11:0.26829324 47:0.2503161 
1 1:0.1932871 6:0.30426597 14:0.28577629 
1 4:0.55160123 5:0.72461578 9:0.49644684 12:1.0286132 32:1.0785205 37:0.42975093 57:0.46440997 62:1.1670501 68:0.43523715 75:0.47663716 
1 1:0.1531764 3:0.26610355 7:0.20977409 38:0.33180364 
0.7897922677546702 3:0.26610355 4:0.33821274 5:0.56083525 9:0.87932836 17:0.26318572 21:0.53469206 47:0.2503161 62:0.53469206 
1 1:0.1531764 14:0.28577629 
1 1:0.096643548 3:0.26610355 7:0.13235272 
1 2:0.37989911 8:0.3729762 14:0.28577629 26:0.40332031 38:0.48608355 
1 5:0.24153859 8:0.23532178 11:0.26829324 
1 2:0.37989911 8:0.47064356 14:0.41865469 26:0.40332031 38:0.33180364 
1 15:0.48731539 35:1.0090319 73:0.59263934 
1 15:1.1315113 22:0.85203101 29:1.1195672 46:1.2124488 67:0.59263934 
1 1:0.1531764 14:0.28577629 17:0.26318572 
1 3:0.38983465 6:0.30426597 17:0.26318572 37:0.42975093 53:0.47409853 
1 3:0.26610355 7:0.13235272 11:0.26829324 47:0.2503161 
1 4:0.21338848 5:0.24153859 12:0.6903926 32:0.49413161 
1 6:0.30426597 15:0.77237663 24:0.41942433 25:0.8797002 30:0.92881994 32:0.72388972 34:1.7594004 40:0.96004953 44:0.91964457 45:0.53757171 64:2.1199132 65:1.4991484 67:0.59263934 70:1.1515334 
1 10:1.2908844 43:0.69891095 60:1.3759605 
1 1:0.096643548 5:0.24153859 9:0.49644684 12:0.47126626 17:0.26318572 47:0.2503161 
1 35:0.63662826 
1 3:0.26610355 4:0.33821274 11:0.26829324 17:0.26318572 21:0.53469206 
1 1:0.096643548 3:0.26610355 7:0.20977409 8:0.23532178 17:0.26318572 38:0.33180364 
1 1:0.096643548 2:0.25932149 4:0.33821274 7:0.13235272 16:0.36696837 21:0.53469206 47:0.2503161 
1 1:0.1531764 3:0.26610355 7:0.20977409 8:0.23532178 38:0.33180364 
1 2:0.25932149 
0.7330943143935105 1:0.1531764 2:0.37989911 7:0.26470543 11:0.26829324 14:0.28577629 58:0.36113234 
1 2:0.25932149 
1 31:0.48186729 43:0.44096372 50:0.498944 
1 1:0.096643548 
0.1936444340420045 1:0.096643548 2:0.45932156 7:0.20977409 8:0.23532178 14:0.41865469 17:0.26318572 38:0.33180364 
1 13:1.1008227 31:0.76374158 
1 2:0.25932149 
1 3:0.38983465 6:0.30426597 7:0.13235272 8:0.3729762 17:0.26318572 32:0.49413161 
1 4:0.21338848 5:0.24153859 9:0.49644684 47:0.2503161 48:0.48731539 75:0.47663716 
1 2:0.25932149 7:0.13235272 8:0.23532178 17:0.26318572 
1 4:0.21338848 5:0.24153859 12:0.47126626 17:0.26318572 
1 2:0.25932149 
1 1:0.096643548 3:0.26610355 7:0.13235272 8:0.23532178 
1 1:0.096643548 2:0.37989911 7:0.13235272 11:0.26829324 14:0.28577629 47:0.2503161 
1 31:0.48186729 36:0.46209601 
0.7757997131758373 5:0.24153859 9:0.49644684 48:0.97463079 59:1.0552697 75:0.47663716 
1 4:0.21338848 5:0.24153859 9:0.49644684 20:0.97463079 48:0.77237663 75:0.47663716 
1 1:0.096643548 2:0.25932149 7:0.13235272 9:0.49644684 11:0.42523472 26:0.40332031 47:0.39674163 
1 1:0.096643548 3:0.26610355 7:0.13235272 53:0.47409853 
1 1:0.1932871 6:0.30426597 14:0.28577629 
1 1:0.1531764 3:0.26610355 7:0.20977409 38:0.33180364 
0.07981205620427712 20:0.77237663 59:1.0552697 
1 1:0.1531764 3:0.26610355 7:0.20977409 38:0.33180364 
1 17:0.4171395 32:0.49413161 
1 6:0.44574159 47:0.39674163 48:0.48731539 51:0.42359018 
1 3:0.47133424 6:0.5389292 17:0.52637145 51:0.75028145 58:0.843142 
1 25:0.8797002 41:0.45758743 54:0.52964591 
1 1:0.096643548 2:0.25932149 7:0.13235272 
1 8:0.23532178 12:0.83472742 32:0.49413161 43:0.69891095 50:0.498944 62:0.78330971 
0.963897268167183 35:1.478205 
1 4:0.21338848 5:0.38282961 12:0.6903926 32:0.49413161 
1 1:0.1531764 2:0.25932149 7:0.20977409 58:0.36113234 
1 1:0.1932871 6:0.30426597 14:0.28577629 
0.4295603773446707 29:1.1195672 35:0.63662826 46:0.82762505 65:1.4991484 67:0.59263934 73:0.59263934 
1 2:0.25932149 
1 3:0.38983465 6:0.30426597 47:0.39674163 51:0.42359018 58:0.52904932 
1 1:0.096643548 
1 4:0.42677697 5:0.48307719 9:0.87932836 17:0.26318572 21:0.78330971 47:0.50063219 51:0.42359018 58:0.36113234 62:0.53469206 
1 4:0.33821274 32:0.49413161 48:0.48731539 57:0.46440997 59:1.0552697 75:0.47663716 
1 4:0.33821274 21:0.53469206 47:0.2503161 
1 4:0.42677697 5:0.56083525 9:0.49644684 12:0.47126626 62:0.53469206 
1 1:0.1932871 6:0.30426597 14:0.28577629 
1 10:0.72880108 
1 1:0.096643548 2:0.25932149 7:0.13235272 
1 22:1.2482029 46:0.82762505 63:0.58074608 
1 3:0.26610355 7:0.13235272 11:0.26829324 47:0.2503161 
1 1:0.096643548 4:0.21338848 17:0.26318572 
1 13:1.1008227 14:0.28577629 27:0.73240484 31:0.48186729 41:0.72525892 
1 2:0.25932149 
0.5222013621103211 1:0.28993064 2:0.51864297 3:0.38983465 4:0.33821274 5:0.24153859 6:0.5389292 7:0.51708759 8:0.3729762 11:0.42523472 14:0.57155257 17:0.4171395 26:1.0401235 38:0.66360728 47:0.58121598 51:0.92455263 58:0.78822851 62:0.53469206 74:1.14207 
1 3:0.26610355 4:0.21338848 8:0.23532178 47:0.2503161 
1 10:2.0800346 31:1.1188612 43:0.69891095 60:2.21712 
0.5962543726337251 4:0.21338848 5:0.38282961 9:0.49644684 12:0.47126626 
1 3:0.26610355 
0.9110713454002468 4:0.33821274 5:0.38282961 12:0.83472742 32:0.72388972 47:0.2503161 62:0.53469206 
1 1:0.096643548 8:0.23532178 
0.9658759444592185 4:0.21338848 5:0.38282961 9:0.49644684 12:0.47126626 
1 1:0.1531764 3:0.26610355 6:0.30426597 7:0.13235272 17:0.26318572 58:0.36113234 
-1 2:0.25932149 13:0.75142839 16:0.58163111 
-0.01268282911020594 1:0.096643548 28:0.498944 
-1 1:0.1531764 6:0.44574159 17:0.4171395 47:0.2503161 51:0.42359018 
-1 1:0.1531764 14:0.28577629 17:0.26318572 27:0.46209601 
-0.06205654253536367 1:0.096643548 16:0.36696837 
-0.2463037547940673 5:0.24153859 7:0.20977409 8:0.23532178 11:0.26829324 17:0.26318572 47:0.2503161 51:0.42359018 
-1 4:0.33821274 5:0.48307719 8:0.3729762 9:0.72728147 11:0.26829324 21:0.53469206 32:0.49413161 34:0.8797002 44:0.45982228 62:0.53469206 
-1 1:0.096643548 
-1 2:0.25932149 5:0.24153859 7:0.13235272 11:0.26829324 17:0.26318572 47:0.2503161 
-0.4386913280535276 7:0.13235272 18:0.39394391 
-0.02158906260202013 1:0.096643548 23:0.44695266 
-1 1:0.096643548 45:0.53757171 
-1 1:0.096643548 19:0.41140122 22:0.85203101 63:0.58074608 
-1 12:0.83472742 32:0.72388972 57:0.46440997 62:0.53469206 75:0.47663716 
-1 1:0.096643548 3:0.26610355 7:0.20977409 8:0.23532178 17:0.26318572 35:0.63662826 38:0.33180364 47:0.2503161 49:0.55044134 
-1 1:0.1531764 2:0.25932149 4:0.21338848 5:0.24153859 6:0.30426597 7:0.20977409 9:0.72728147 17:0.26318572 21:0.78330971 37:0.42975093 47:0.58121598 58:0.52904932 
-1 
-1 1:0.1932871 2:0.25932149 3:0.26610355 6:0.30426597 7:0.30731349 13:0.75142839 26:0.40332031 27:0.46209601 31:0.48186729 38:0.33180364 58:0.36113234 
-1 3:0.26610355 10:0.72880108 36:0.46209601 
-1 25:0.8797002 
-1 7:0.13235272 
-1 1:0.1531764 2:0.25932149 4:0.42677697 7:0.13235272 8:0.3729762 14:0.28577629 21:0.53469206 32:0.49413161 38:0.33180364 
-0.3803743371742188 7:0.13235272 8:0.23532178 17:0.26318572 31:0.48186729 41:0.45758743 
-1 1:0.096643548 4:0.21338848 8:0.23532178 17:0.26318572 52:0.50839889 62:0.53469206 
-1 4:0.21338848 10:0.72880108 31:0.48186729 43:0.44096372 
-1 1:0.1531764 7:0.13235272 8:0.23532178 11:0.26829324 14:0.28577629 17:0.26318572 58:0.36113234 
-1 17:0.26318572 
-1 2:0.37989911 4:0.21338848 14:0.28577629 37:0.42975093 39:0.44695266 
-1 1:0.1932871 2:0.45932156 3:0.26610355 6:0.30426597 7:0.30731349 8:0.23532178 12:0.6903926 14:0.41865469 17:0.26318572 26:0.80664062 32:0.49413161 38:0.48608355 47:0.2503161 57:0.46440997 58:0.36113234 
-1 1:0.096643548 3:0.26610355 4:0.21338848 7:0.13235272 8:0.23532178 11:0.26829324 38:0.33180364 
-1 4:0.33821274 32:0.49413161 
-1 1:0.1531764 5:0.24153859 6:0.30426597 17:0.26318572 26:0.40332031 47:0.39674163 
-1 1:0.096643548 7:0.13235272 8:0.23532178 17:0.26318572 47:0.2503161 58:0.36113234 
-1 36:0.46209601 45:0.53757171 67:0.59263934 
-0.2980254223030607 3:0.26610355 4:0.21338848 17:0.26318572 27:0.46209601 41:0.45758743 
-1 1:0.096643548 4:0.21338848 5:0.24153859 10:0.72880108 17:0.26318572 47:0.2503161 62:0.53469206 
-1 1:0.096643548 6:0.30426597 39:0.44695266 47:0.39674163 
-0.2875018660424368 7:0.13235272 41:0.45758743 72:0.59263934 
-1 2:0.25932149 8:0.23532178 
-1 1:0.096643548 24:0.41942433 
-0.6385531241978334 1:0.096643548 30:0.46440997 
-0.2925583149897624 2:0.37989911 14:0.28577629 16:0.58163111 
-1 4:0.21338848 5:0.38282961 9:0.49644684 12:0.6903926 32:0.49413161 
-1 3:0.26610355 4:0.21338848 5:0.24153859 8:0.23532178 9:0.49644684 
-1 52:0.50839889 
-1 2:0.37989911 8:0.3729762 14:0.28577629 62:0.53469206 
-1 1:0.096643548 24:0.41942433 
-1 1:0.096643548 4:0.21338848 27:0.46209601 47:0.2503161 58:0.36113234 
-1 46:0.82762505 
-0.5124246325925825 1:0.096643548 19:0.41140122 
-1 2:0.25932149 3:0.26610355 8:0.23532178 12:0.47126626 17:0.26318572 47:0.2503161 
-1 4:0.21338848 42:0.62026497 44:0.72880108 64:0.97125286 
-1 1:0.096643548 3:0.26610355 7:0.13235272 
-1 
-1 1:0.32104292 3:0.26610355 6:0.60853194 7:0.13235272 8:0.3729762 11:0.26829324 14:0.6672069 26:0.80664062 51:0.75028145 58:0.52904932 
-1 1:0.096643548 2:0.25932149 3:0.26610355 7:0.20977409 19:0.41140122 35:0.63662826 
-1 1:0.1531764 4:0.21338848 5:0.24153859 8:0.23532178 12:0.47126626 14:0.28577629 
-1 1:0.096643548 3:0.26610355 5:0.24153859 7:0.13235272 17:0.26318572 37:0.42975093 47:0.2503161 
-1 3:0.26610355 7:0.13235272 17:0.26318572 
-1 1:0.096643548 2:0.25932149 3:0.26610355 4:0.21338848 7:0.20977409 47:0.2503161 
-0.1942822262790758 1:0.096643548 33:0.47409853 
-1 1:0.1531764 3:0.26610355 7:0.20977409 18:0.39394391 38:0.33180364 
-1 1:0.096643548 3:0.38983465 6:0.30426597 7:0.13235272 9:0.49644684 43:0.44096372 47:0.2503161 56:0.42797219 
-1 1:0.096643548 39:0.44695266 
-1 1:0.096643548 3:0.26610355 4:0.21338848 7:0.13235272 32:0.49413161 37:0.68113911 53:0.47409853 
-0.5592337867456818 24:0.41942433 
-1 2:0.71864305 14:0.79195575 26:0.99417388 38:0.88928149 
-1 1:0.22439937 2:0.25932149 6:0.30426597 7:0.20977409 14:0.28577629 38:0.33180364 58:0.36113234 
-0.4518732566104773 19:0.41140122 35:1.0090319 46:0.82762505 
-1 1:0.096643548 3:0.26610355 4:0.21338848 7:0.13235272 8:0.23532178 
-1 13:0.75142839 50:0.498944 
-1 4:0.21338848 61:0.45539014 
-1 4:0.21338848 47:0.2503161 
-1 9:0.72728147 21:0.53469206 48:0.48731539 
-1 2:0.25932149 5:0.24153859 12:0.47126626 36:0.46209601 70:0.49593845 
-1 1:0.096643548 4:0.21338848 8:0.23532178 
-1 1:0.096643548 2:0.25932149 3:0.47133424 4:0.21338848 6:0.44574159 7:0.26470543 17:0.26318572 58:0.36113234 
-1 
-1 
-1 11:0.26829324 38:0.33180364 45:0.53757171 
-1 10:0.72880108 20:0.48731539 21:0.53469206 31:0.76374158 60:0.77683295 72:0.59263934 
-1 1:0.096643548 8:0.23532178 
-0.8853857429563137 4:0.21338848 43:0.69891095 60:0.77683295 
-1 1:0.1932871 6:0.30426597 14:0.28577629 30:0.46440997 45:0.53757171 
-1 1:0.1531764 4:0.21338848 5:0.24153859 8:0.23532178 12:0.47126626 14:0.28577629 20:0.48731539 48:0.48731539 57:0.46440997 59:1.0552697 
-1 2:0.60544242 14:0.623752 26:0.71437858 36:0.73240484 38:0.66360728 
-0.1626025094050476 5:0.24153859 12:0.47126626 20:0.48731539 37:0.42975093 62:0.53469206 68:0.68983456 69:0.55502903 75:0.47663716 
-1 1:0.096643548 3:0.47133424 6:0.5389292 8:0.23532178 9:0.49644684 11:0.26829324 47:0.2503161 51:0.42359018 53:0.75142839 58:0.6396534 
-1 4:0.21338848 37:0.42975093 
-1 11:0.26829324 
-0.01545444308518932 1:0.096643548 30:0.46440997 
-1 1:0.096643548 2:0.25932149 13:0.75142839 14:0.28577629 25:0.8797002 27:0.46209601 31:0.96373457 36:0.46209601 38:0.33180364 60:1.1380397 65:1.023328 
-0.6399879107413886 25:0.8797002 54:0.52964591 
-1 1:0.1932871 6:0.30426597 14:0.28577629 41:0.45758743 
-1 46:0.82762505 
-1 29:0.55978358 45:0.53757171 67:0.59263934 
-1 1:0.096643548 4:0.21338848 8:0.47064356 14:0.28577629 17:0.26318572 32:0.49413161 62:0.53469206 68:0.43523715 
-1 1:0.096643548 30:0.46440997 
-1 11:0.26829324 31:0.48186729 72:0.59263934 
-1 4:0.33821274 5:0.24153859 21:0.53469206 37:0.42975093 62:0.53469206 68:0.43523715 
-1 1:0.096643548 3:0.26610355 7:0.13235272 8:0.23532178 57:0.46440997 
-1 44:0.45982228 
-1 1:0.096643548 3:0.26610355 5:0.24153859 7:0.13235272 17:0.26318572 47:0.2503161 
-0.01398333329274513 24:0.41942433 73:0.59263934 
-1 25:1.2887375 
-1 1:0.096643548 3:0.38983465 6:0.30426597 7:0.20977409 17:0.26318572 47:0.2503161 
-1 4:0.42677697 8:0.23532178 21:0.53469206 32:0.49413161 
-1 1:0.096643548 30:0.46440997 
-1 31:0.48186729 
-1 4:0.21338848 5:0.24153859 7:0.13235272 8:0.23532178 9:0.72728147 17:0.4171395 21:0.53469206 32:0.49413161 
-1 7:0.13235272 8:0.23532178 53:0.47409853 
-0.3031768419928838 13:1.1008227 20:0.48731539 50:0.79080754 57:0.46440997 62:0.53469206 
-1 4:0.21338848 13:0.75142839 17:0.26318572 
-1 4:0.21338848 11:0.26829324 
-1 13:0.75142839 44:0.45982228 
-1 
-1 1:0.096643548 2:0.25932149 7:0.13235272 36:0.46209601 53:0.47409853 
-1 11:0.42523472 21:0.53469206 71:0.49012702 
-1 4:0.21338848 11:0.26829324 
-1 17:0.26318572 
-1 2:0.37989911 4:0.33821274 5:0.24153859 7:0.13235272 11:0.42523472 14:0.28577629 17:0.26318572 21:0.53469206 47:0.2503161 
-1 
-1 5:0.24153859 55:0.58655751 
-1 1:0.1531764 2:0.25932149 4:0.42677697 5:0.24153859 7:0.13235272 8:0.47064356 11:0.26829324 12:0.47126626 14:0.28577629 17:0.4171395 26:0.40332031 32:0.87522752 38:0.33180364 58:0.36113234 62:0.53469206 
-1 4:0.21338848 5:0.38282961 9:0.49644684 12:0.6903926 32:0.49413161 44:0.45982228 
-0.1904743582793245 1:0.096643548 22:0.85203101 33:0.47409853 
-1 4:0.21338848 43:0.44096372 
-1 40:0.60572381 65:1.023328 67:0.59263934 70:0.49593845 
-1 2:0.25932149 5:0.24153859 8:0.3729762 11:0.26829324 14:0.28577629 38:0.33180364 
-1 3:0.26610355 5:0.24153859 7:0.13235272 10:0.72880108 17:0.26318572 36:0.46209601 47:0.2503161 
-1 1:0.1531764 3:0.26610355 7:0.20977409 11:0.26829324 27:0.46209601 38:0.33180364 41:0.45758743 52:0.50839889 
-0.7266814777801609 1:0.096643548 28:0.498944 
-0.02602838388843926 1:0.096643548 28:0.498944 42:0.62026497 45:0.53757171 67:0.59263934 
-1 3:0.26610355 12:0.47126626 15:0.48731539 53:0.47409853 70:0.49593845 
-1 40:0.96004953 
-1 4:0.21338848 5:0.24153859 8:0.23532178 9:0.49644684 11:0.42523472 38:0.33180364 47:0.2503161 
-1 1:0.096643548 53:0.47409853 
-1 1:0.22439937 3:0.26610355 6:0.30426597 7:0.20977409 8:0.3729762 14:0.50617946 18:0.39394391 26:0.59085357 58:0.36113234 
-0.5895506379464234 1:0.096643548 3:0.26610355 5:0.24153859 7:0.13235272 17:0.26318572 36:0.73240484 47:0.2503161 60:0.77683295 
-1 4:0.21338848 5:0.48307719 9:0.72728147 12:0.47126626 21:0.53469206 32:0.49413161 54:0.52964591 62:0.53469206 70:0.49593845 
-1 15:0.97463079 22:0.85203101 46:0.82762505 63:0.58074608 73:0.59263934 
-1 2:0.25932149 4:0.21338848 8:0.23532178 11:0.42523472 14:0.28577629 38:0.33180364 
-1 1:0.1531764 2:0.25932149 4:0.33821274 5:0.38282961 7:0.13235272 8:0.23532178 12:0.47126626 14:0.28577629 18:0.39394391 21:0.53469206 38:0.33180364 
-1 5:0.24153859 43:0.44096372 
-0.008506080493326384 4:0.21338848 55:0.58655751 
-1 4:0.21338848 5:0.38282961 8:0.54640026 11:0.26829324 12:0.47126626 14:0.41865469 17:0.26318572 26:0.40332031 32:0.49413161 62:0.53469206 
-1 1:0.096643548 30:0.46440997 
-1 1:0.096643548 8:0.23532178 47:0.2503161 50:0.498944 
-1 5:0.24153859 
-1 1:0.22439937 6:0.30426597 11:0.26829324 14:0.50617946 41:0.45758743 
-1 1:0.096643548 30:0.46440997 73:0.59263934 
-1 9:0.49644684 
-0.4005615199847524 2:0.25932149 4:0.21338848 8:0.3729762 11:0.26829324 22:0.85203101 26:0.40332031 29:0.55978358 38:0.33180364 40:0.96004953 62:0.53469206 
-1 1:0.096643548 2:0.25932149 3:0.38983465 6:0.30426597 7:0.20977409 18:0.39394391 28:0.498944 
-1 1:0.096643548 3:0.26610355 7:0.13235272 11:0.26829324 17:0.26318572 
-1 1:0.096643548 2:0.25932149 6:0.30426597 7:0.13235272 8:0.23532178 47:0.39674163 
-1 50:0.498944 
-1 4:0.21338848 5:0.24153859 12:0.47126626 17:0.26318572 71:0.49012702 
-0.8957239889232901 1:0.096643548 11:0.26829324 38:0.33180364 39:0.44695266 
-1 7:0.13235272 8:0.23532178 11:0.26829324 14:0.28577629 17:0.26318572 48:0.48731539 
-1 1:0.096643548 2:0.25932149 3:0.26610355 4:0.21338848 7:0.20977409 11:0.26829324 
-1 4:0.21338848 10:0.72880108 31:0.48186729 47:0.2503161 
-1 1:0.096643548 2:0.25932149 3:0.26610355 6:0.30426597 7:0.13235272 17:0.4171395 58:0.36113234 
-1 40:0.60572381 52:0.50839889 
-1 1:0.096643548 2:0.25932149 5:0.24153859 6:0.30426597 7:0.13235272 17:0.4171395 47:0.2503161 
-1 10:0.72880108 36:0.46209601 
-1 5:0.24153859 9:0.72728147 17:0.26318572 21:0.53469206 47:0.2503161 
-1 1:0.096643548 45:0.53757171 
-0.5142894942476429 1:0.096643548 19:0.41140122 
-1 5:0.24153859 55:0.58655751 
-1 1:0.096643548 19:0.41140122 
-1 4:0.21338848 5:0.24153859 8:0.23532178 12:0.47126626 47:0.2503161 
-1 3:0.38983465 6:0.30426597 17:0.26318572 47:0.2503161 
-1 1:0.1531764 14:0.28577629 39:0.44695266 
-1 1:0.1531764 6:0.30426597 8:0.23532178 47:0.2503161 
-1 1:0.096643548 24:0.41942433 34:1.2887375 64:0.97125286 
-1 2:0.37989911 4:0.21338848 8:0.23532178 14:0.28577629 
-1 4:0.21338848 68:0.43523715 
-1 8:0.23532178 
-1 1:0.096643548 33:0.47409853 63:0.58074608 
-1 2:0.25932149 3:0.26610355 7:0.13235272 13:0.75142839 27:0.46209601 41:0.45758743 
-1 1:0.096643548 24:0.41942433 73:0.59263934 
-1 5:0.24153859 10:0.72880108 43:0.44096372 
-0.6951563348777833 8:0.23532178 49:0.55044134 
-1 1:0.096643548 3:0.26610355 4:0.21338848 7:0.13235272 47:0.2503161 
-1 1:0.096643548 3:0.26610355 7:0.20977409 26:0.40332031 
-1 1:0.1531764 2:0.25932149 4:0.21338848 6:0.30426597 7:0.20977409 16:0.36696837 17:0.26318572 
-0.5522694686196719 1:0.096643548 20:0.48731539 53:0.47409853 58:0.36113234 
-1 1:0.1932871 2:0.37989911 7:0.20977409 14:0.41865469 26:0.40332031 38:0.33180364 51:0.42359018 
-1 4:0.49547271 5:0.56083525 9:0.72728147 21:0.53469206 32:0.49413161 48:0.77237663 57:0.46440997 62:0.78330971 75:0.47663716 
-1 1:0.096643548 2:0.25932149 3:0.26610355 7:0.20977409 39:0.44695266 
-1 60:0.77683295 
-1 1:0.096643548 3:0.26610355 7:0.13235272 
-1 1:0.096643548 30:0.46440997 
-1 1:0.096643548 33:0.47409853 
-0.03113577529957815 4:0.21338848 13:0.75142839 21:0.53469206 50:0.498944 70:0.49593845 
-0.2054569793703122 5:0.24153859 10:0.72880108 17:0.26318572 43:0.44096372 
-1 5:0.24153859 10:0.72880108 13:1.1008227 31:0.76374158 43:0.44096372 
-1 1:0.1932871 2:0.45932156 3:0.47133424 6:0.44574159 7:0.34212681 8:0.3729762 14:0.57155257 17:0.26318572 26:0.59085357 38:0.58770513 51:0.62054839 58:0.36113234 74:0.94459177 
-1 1:0.22439937 2:0.51864297 3:0.26610355 7:0.37156105 14:0.41865469 26:0.59085357 38:0.33180364 51:0.62054839 74:0.6447842 
-1 1:0.096643548 2:0.37989911 3:0.38983465 6:0.30426597 7:0.20977409 14:0.28577629 19:0.41140122 24:0.41942433 26:0.40332031 38:0.33180364 
-1 4:0.21338848 7:0.13235272 17:0.26318572 47:0.2503161 58:0.36113234 60:0.77683295 
-1 1:0.096643548 52:0.50839889 
-1 1:0.24981995 4:0.21338848 5:0.38282961 6:0.30426597 8:0.23532178 9:0.49644684 11:0.53658647 14:0.28577629 26:0.40332031 47:0.2503161 48:0.48731539 51:0.42359018 75:0.47663716 
-1 1:0.096643548 16:0.36696837 63:0.58074608 
-1 3:0.83177312 6:1.0000611 27:0.73240484 41:0.45758743 51:1.4125536 58:1.2207136 
-1 1:0.096643548 
-1 4:0.21338848 11:0.26829324 48:0.48731539 75:0.47663716 
-1 5:0.24153859 7:0.20977409 8:0.23532178 11:0.42523472 14:0.28577629 41:0.45758743 47:0.2503161 
-1 4:0.21338848 10:1.0676743 43:0.44096372 60:0.77683295 72:0.59263934 
-1 1:0.096643548 2:0.25932149 7:0.13235272 
-0.4098081916008016 5:0.24153859 44:0.45982228 
-1 4:0.21338848 15:0.48731539 34:0.8797002 
-1 1:0.096643548 33:0.47409853 
-1 1:0.096643548 28:0.498944 
-1 1:0.096643548 28:0.498944 
-1 
-1 1:0.096643548 15:0.48731539 24:0.41942433 
-1 4:0.33821274 5:0.24153859 8:0.47064356 12:1.0286132 14:0.28577629 32:1.0785205 62:0.94706997 
-1 31:0.48186729 35:0.63662826 
-1 1:0.096643548 2:0.25932149 7:0.13235272 11:0.26829324 17:0.26318572 
-1 3:0.26610355 4:0.21338848 8:0.23532178 47:0.2503161 
-1 3:0.26610355 4:0.21338848 5:0.48307719 7:0.13235272 8:0.3729762 11:0.42523472 12:0.6903926 14:0.28577629 32:0.49413161 47:0.39674163 62:0.53469206 
-1 5:0.24153859 17:0.26318572 47:0.2503161 
-1 3:0.26610355 5:0.24153859 7:0.20977409 8:0.23532178 11:0.26829324 17:0.26318572 47:0.2503161 51:0.42359018 
-1 4:0.21338848 10:1.2908844 60:1.1380397 
-1 4:0.55160123 5:0.38282961 12:0.47126626 21:0.53469206 32:0.87522752 44:0.45982228 61:0.45539014 62:0.78330971 
-1 4:0.21338848 5:0.38282961 9:0.49644684 12:0.47126626 15:0.48731539 56:0.42797219 61:0.45539014 
-1 2:0.37989911 4:0.21338848 11:0.26829324 14:0.28577629 
-0.1872205659526723 22:0.85203101 34:0.8797002 72:0.59263934 
-1 1:0.096643548 24:0.41942433 
-1 4:0.21338848 69:0.55502903 
-1 11:0.26829324 
-1 34:0.8797002 73:0.59263934 
-1 4:0.21338848 8:0.23532178 
-1 1:0.1531764 6:0.44574159 41:0.72525892 51:0.42359018 
-1 5:0.24153859 12:0.47126626 17:0.26318572 62:0.53469206 75:0.47663716 
-1 1:0.24981995 2:0.45932156 3:0.26610355 6:0.44574159 7:0.34212681 11:0.26829324 14:0.57155257 26:0.59085357 38:0.33180364 41:0.45758743 51:0.84718035 58:0.36113234 
-1 3:0.26610355 27:0.46209601 41:0.45758743 47:0.2503161 
-1 1:0.096643548 3:0.26610355 7:0.13235272 17:0.26318572 20:0.48731539 
-1 2:0.25932149 3:0.26610355 6:0.30426597 7:0.20977409 11:0.26829324 30:0.46440997 47:0.39674163 58:0.36113234 
-1 1:0.1531764 2:0.25932149 5:0.24153859 7:0.13235272 8:0.3729762 11:0.42523472 14:0.28577629 38:0.33180364 
-0.6243342446425562 7:0.13235272 18:0.39394391 
-1 11:0.26829324 14:0.28577629 54:0.52964591 
-1 1:0.1531764 2:0.25932149 4:0.21338848 6:0.30426597 8:0.23532178 26:0.40332031 47:0.2503161 
-1 1:0.096643548 33:0.47409853 
-1 5:0.24153859 13:1.1008227 50:0.498944 
-0.5503887199842394 5:0.24153859 56:0.42797219 
-1 1:0.096643548 5:0.24153859 17:0.26318572 47:0.2503161 
-1 3:0.26610355 6:0.30426597 22:0.85203101 47:0.39674163 58:0.36113234 
-1 
-1 1:0.1531764 2:0.25932149 7:0.20977409 17:0.26318572 49:0.55044134 58:0.36113234 
-1 15:0.77237663 46:0.82762505 
-1 1:0.1531764 3:0.26610355 7:0.20977409 8:0.23532178 11:0.26829324 38:0.33180364 
-1 1:0.1932871 3:0.38983465 6:0.44574159 7:0.13235272 14:0.28577629 17:0.26318572 49:0.55044134 51:0.42359018 58:0.36113234 68:0.43523715 
-1 1:0.096643548 13:0.75142839 27:0.46209601 
-1 4:0.42677697 5:0.56083525 12:0.6903926 21:0.53469206 32:0.49413161 
-1 2:0.25932149 11:0.26829324 24:0.41942433 
-1 1:0.1531764 2:0.25932149 3:0.26610355 7:0.20977409 8:0.23532178 14:0.28577629 16:0.36696837 17:0.26318572 38:0.33180364 51:0.42359018 58:0.36113234 
-0.8131443232853139 2:0.25932149 4:0.42677697 5:0.38282961 8:0.23532178 11:0.26829324 12:0.47126626 17:0.26318572 20:0.48731539 32:0.49413161 47:0.2503161 48:0.48731539 62:0.53469206 
-1 39:0.44695266 
-1 20:0.48731539 25:0.8797002 
-1 5:0.24153859 9:0.49644684 17:0.26318572 43:0.44096372 47:0.2503161 
-0.3065059394080084 29:0.55978358 61:0.45539014 
-1 12:0.47126626 50:0.498944 70:0.49593845 
-1 4:0.21338848 61:0.45539014 
-1 1:0.096643548 2:0.37989911 6:0.30426597 7:0.13235272 14:0.28577629 23:0.44695266 47:0.39674163 
-0.2438569462683851 4:0.33821274 5:0.38282961 9:0.49644684 32:0.49413161 56:0.42797219 71:0.49012702 
-1 2:0.37989911 9:0.72728147 11:0.26829324 14:0.28577629 15:0.48731539 20:0.48731539 21:0.53469206 46:0.82762505 
-1 1:0.096643548 30:0.46440997 
-1 12:0.47126626 44:0.45982228 
-1 7:0.13235272 18:0.39394391 
-1 3:0.26610355 4:0.21338848 5:0.24153859 6:0.30426597 12:0.83472742 17:0.61109833 32:0.72388972 37:0.68113911 51:0.62054839 53:0.47409853 62:0.78330971 68:0.68983456 
-1 4:0.21338848 50:0.498944 
-1 4:0.21338848 7:0.13235272 8:0.47064356 14:0.28577629 17:0.26318572 32:0.49413161 
-0.1627655192537361 1:0.096643548 23:0.44695266 
-1 2:0.25932149 4:0.33821274 8:0.47064356 14:0.28577629 27:0.46209601 32:0.72388972 38:0.33180364 53:0.47409853 
-1 4:0.21338848 5:0.48307719 9:0.49644684 12:0.47126626 17:0.26318572 47:0.2503161 56:0.42797219 
-1 1:0.1531764 2:0.25932149 7:0.13235272 14:0.28577629 17:0.26318572 36:0.46209601 38:0.33180364 47:0.2503161 
-1 1:0.1531764 2:0.25932149 4:0.21338848 6:0.30426597 7:0.20977409 8:0.23532178 12:0.6903926 32:0.49413161 47:0.2503161 75:0.47663716 
-0.1880478486598105 1:0.1932871 3:0.26610355 6:0.30426597 7:0.13235272 12:0.47126626 14:0.28577629 17:0.26318572 37:0.42975093 39:0.44695266 58:0.36113234 68:0.43523715 
-1 1:0.096643548 19:0.41140122 
-1 3:0.26610355 4:0.21338848 43:0.44096372 
-1 7:0.13235272 18:0.39394391 
-0.8711834754972275 29:0.55978358 61:0.45539014 
-1 1:0.1531764 2:0.37989911 3:0.38983465 6:0.5389292 7:0.26470543 14:0.28577629 17:0.4171395 37:0.42975093 51:0.62054839 58:0.52904932 62:0.53469206 74:0.40681353 75:0.47663716 
-1 1:0.22439937 3:0.26610355 6:0.30426597 7:0.13235272 8:0.47064356 14:0.41865469 26:0.40332031 51:0.62054839 58:0.36113234 
-1 4:0.42677697 5:0.48307719 9:0.87932836 12:0.6903926 20:0.48731539 21:0.78330971 32:0.87522752 37:0.68113911 48:0.48731539 57:0.46440997 62:1.1670501 68:0.8704743 75:0.75545203 
-1 
-1 1:0.096643548 8:0.23532178 
-1 4:0.21338848 5:0.38282961 9:0.72728147 12:0.47126626 21:0.53469206 
-1 1:0.096643548 2:0.37989911 4:0.21338848 5:0.24153859 7:0.20977409 8:0.23532178 9:0.49644684 11:0.6229576 14:0.50617946 26:0.40332031 38:0.66360728 47:0.2503161 48:0.48731539 57:0.46440997 62:0.53469206 
-1 1:0.1531764 3:0.26610355 7:0.20977409 8:0.23532178 11:0.26829324 38:0.33180364 
-1 5:0.24153859 43:0.69891095 60:0.77683295 
-1 34:0.8797002 60:0.77683295 72:0.59263934 
-1 5:0.48307719 17:0.26318572 32:0.49413161 47:0.2503161 
-1 25:0.8797002 40:0.60572381 
-1 1:0.096643548 3:0.26610355 6:0.30426597 7:0.13235272 12:0.47126626 17:0.4171395 58:0.36113234 
-1 4:0.55160123 5:0.56083525 9:0.49644684 12:0.47126626 21:0.53469206 32:0.72388972 48:0.48731539 57:0.73607239 62:0.94706997 75:0.47663716 
-1 1:0.096643548 28:0.498944 
-1 6:0.30426597 10:0.72880108 31:0.48186729 36:0.46209601 41:0.91517486 60:0.77683295 
-1 1:0.096643548 3:0.26610355 6:0.30426597 24:0.41942433 58:0.36113234 
-1 29:0.55978358 35:0.63662826 
-1 29:0.55978358 40:0.60572381 52:0.50839889 65:1.023328 67:0.59263934 
-1 1:0.096643548 2:0.37989911 3:0.26610355 4:0.21338848 7:0.20977409 8:0.23532178 14:0.28577629 17:0.26318572 75:0.47663716 
-1 1:0.096643548 7:0.13235272 11:0.26829324 17:0.26318572 47:0.2503161 58:0.36113234 
-1 10:0.72880108 43:0.44096372 
-1 1:0.096643548 24:0.41942433 
-1 1:0.096643548 5:0.24153859 6:0.30426597 17:0.4171395 47:0.2503161 
-1 1:0.096643548 33:0.47409853 
-0.233315463573715 4:0.42677697 5:0.48307719 12:0.83472742 32:0.87522752 49:0.55044134 62:0.78330971 69:1.1100581 
-1 1:0.096643548 3:0.26610355 7:0.13235272 8:0.3729762 12:0.6903926 26:0.40332031 32:0.49413161 47:0.2503161 
-1 1:0.22439937 3:0.38983465 5:0.24153859 6:0.44574159 7:0.13235272 8:0.23532178 14:0.50617946 36:0.46209601 43:0.44096372 51:0.42359018 58:0.36113234 
-1 1:0.096643548 19:0.41140122 
-0.890274874176151 4:0.33821274 21:0.53469206 48:0.48731539 66:0.57518202 
-1 4:0.21338848 5:0.24153859 9:0.49644684 54:0.52964591 
-1 25:0.8797002 
-0.961214556294877 2:0.37989911 8:0.47064356 14:0.41865469 20:0.48731539 26:0.40332031 27:0.46209601 32:0.49413161 38:0.33180364 47:0.2503161 57:0.46440997 
-1 2:0.51864297 14:0.57155257 38:0.48608355 
-1 4:0.21338848 61:0.45539014 
-1 4:0.21338848 66:0.57518202 
-0.2256622517806073 34:0.8797002 72:0.59263934 
-1 4:0.42677697 5:0.48307719 9:0.49644684 12:0.47126626 21:0.53469206 62:0.53469206 
-1 2:0.25932149 7:0.13235272 11:0.26829324 25:0.8797002 47:0.2503161 54:0.52964591 
-1 1:0.096643548 33:0.47409853 
-1 1:0.22439937 2:0.25932149 3:0.26610355 7:0.34212681 11:0.26829324 16:0.36696837 26:0.59085357 38:0.48608355 47:0.2503161 51:0.42359018 58:0.52904932 
-1 9:0.49644684 11:0.26829324 21:0.53469206 
-1 2:0.25932149 4:0.21338848 5:0.24153859 8:0.23532178 9:0.49644684 36:0.46209601 
-1 1:0.096643548 2:0.25932149 3:0.26610355 7:0.20977409 8:0.23532178 
-1 1:0.096643548 4:0.21338848 5:0.24153859 11:0.26829324 12:0.47126626 47:0.2503161 
-1 1:0.096643548 23:0.44695266 
-1 15:0.48731539 22:1.2482029 29:0.55978358 46:1.2124488 
-1 1:0.096643548 19:0.41140122 
-1 5:0.24153859 7:0.13235272 8:0.23532178 11:0.26829324 17:0.26318572 
-1 1:0.096643548 3:0.26610355 7:0.13235272 8:0.23532178 47:0.2503161 56:0.42797219 
-1 17:0.26318572 
-1 4:0.21338848 17:0.26318572 
-1 26:0.40332031 31:0.48186729 36:0.46209601 60:0.77683295 
-1 4:0.21338848 43:0.44096372 
-1 6:0.30426597 7:0.20977409 8:0.23532178 17:0.4171395 41:0.45758743 
-1 5:0.24153859 
-1 1:0.096643548 2:0.45932156 3:0.26610355 4:0.42677697 7:0.20977409 8:0.23532178 11:0.42523472 12:0.47126626 14:0.41865469 17:0.26318572 21:0.53469206 32:0.49413161 38:0.33180364 
-1 1:0.096643548 4:0.21338848 5:0.24153859 8:0.23532178 12:0.94253252 17:0.26318572 32:0.87522752 62:0.94706997 70:0.78604385 
-1 1:0.096643548 24:0.41942433 
-1 1:0.096643548 28:0.498944 
-1 10:0.72880108 43:0.44096372 
-1 3:0.26610355 6:0.5389292 9:0.72728147 17:0.61109833 21:0.53469206 32:0.49413161 47:0.2503161 58:0.52904932 70:0.78604385 
-1 31:0.48186729 
-1 
-1 1:0.1932871 2:0.37989911 3:0.26610355 6:0.30426597 7:0.20977409 14:0.41865469 19:0.41140122 26:0.40332031 38:0.33180364 39:0.44695266 58:0.36113234 
-1 1:0.1932871 2:0.25932149 4:0.21338848 6:0.30426597 7:0.13235272 8:0.23532178 14:0.28577629 17:0.26318572 38:0.33180364 62:0.53469206 
-1 40:0.60572381 
-1 31:0.48186729 
-1 55:0.58655751 
-1 4:0.33821274 5:0.48307719 9:0.49644684 11:0.42523472 12:0.47126626 21:0.53469206 54:0.52964591 
-1 1:0.096643548 16:0.36696837 
-0.5575870266664481 1:0.096643548 18:0.39394391 
-1 1:0.096643548 30:0.46440997 
-1 1:0.1531764 14:0.28577629 16:0.36696837 63:0.58074608 
-0.6271327086107409 1:0.096643548 18:0.39394391 
-1 1:0.096643548 4:0.21338848 6:0.30426597 7:0.20977409 47:0.2503161 58:0.52904932 
-1 1:0.096643548 23:0.44695266 
-1 1:0.1531764 4:0.21338848 5:0.24153859 6:0.30426597 7:0.13235272 8:0.3729762 9:0.49644684 11:0.26829324 17:0.26318572 26:0.40332031 32:0.49413161 38:0.33180364 
-1 42:0.98309672 64:0.97125286 
-1 7:0.13235272 65:1.023328 
-1 1:0.096643548 23:0.44695266 
-1 7:0.13235272 18:0.39394391 
-1 1:0.096643548 16:0.36696837 
-1 4:0.21338848 8:0.23532178 
-1 13:0.75142839 27:0.46209601 41:0.45758743 47:0.2503161 50:0.498944 
-1 1:0.1531764 2:0.25932149 3:0.26610355 6:0.30426597 7:0.20977409 11:0.42523472 14:0.28577629 17:0.26318572 20:0.48731539 38:0.33180364 47:0.2503161 48:0.77237663 58:0.52904932 
-1 3:0.26610355 6:0.30426597 7:0.13235272 11:0.26829324 17:0.4171395 47:0.2503161 58:0.36113234 
-1 1:0.096643548 23:0.44695266 
-1 1:0.096643548 23:0.44695266 
-1 5:0.24153859 56:0.42797219 
-1 1:0.096643548 2:0.25932149 5:0.24153859 7:0.20977409 8:0.23532178 17:0.26318572 47:0.2503161 51:0.42359018 
-1 1:0.096643548 4:0.42677697 5:0.24153859 6:0.30426597 12:0.47126626 17:0.52637145 32:0.98826322 62:0.94706997 
-1 1:0.096643548 3:0.26610355 4:0.21338848 7:0.13235272 47:0.2503161 
-1 1:0.096643548 19:0.41140122 
-1 1:0.096643548 17:0.26318572 
-1 11:0.26829324 13:0.75142839 27:0.46209601 41:0.45758743 
-1 1:0.096643548 3:0.26610355 7:0.13235272 8:0.23532178 47:0.2503161 
-1 4:0.21338848 17:0.26318572 
-1 5:0.24153859 
-1 5:0.24153859 8:0.23532178 10:0.72880108 11:0.26829324 36:0.46209601 
-1 1:0.096643548 23:0.44695266 
-1 2:0.25932149 3:0.26610355 7:0.13235272 11:0.26829324 47:0.2503161 
-1 1:0.096643548 16:0.36696837 
-1 1:0.096643548 16:0.36696837 
-1 12:0.47126626 37:0.42975093 43:0.44096372 68:0.43523715 
-1 1:0.096643548 
-1 1:0.096643548 2:0.25932149 3:0.38983465 6:0.30426597 7:0.20977409 8:0.23532178 11:0.26829324 12:0.47126626 26:0.59085357 37:0.42975093 38:0.33180364 39:0.44695266 47:0.2503161 68:0.68983456 
-1 1:0.1932871 3:0.26610355 5:0.24153859 6:0.30426597 7:0.13235272 14:0.28577629 17:0.26318572 27:0.73240484 47:0.2503161 58:0.36113234 
-0.03735298696670111 4:0.21338848 55:0.58655751 
-1 1:0.096643548 16:0.36696837 
-0.546221357355683 1:0.096643548 16:0.36696837 
